network unknown {
}
variable block_area {
    type discrete [ 10 ] { 0, 1, 2, 3, 4, 5, 6, 7, 8, 9 };
}
variable house_num {
    type discrete [ 16 ] { 2, 3, 4, 5, 6, 7, 8, 9, 10, 12, 13, 14, 15, 16, 17, 18 };
}
variable vdis {
    type discrete [ 5 ] { 0, 1, 2, 3, 4 };
}
probability ( block_area ) {
    table 0.2426470588235294, 0.11029411764705882, 0.03676470588235294, 0.09558823529411764, 0.022058823529411766, 0.11029411764705882, 0.09558823529411764, 0.051470588235294115, 0.13970588235294118, 0.09558823529411764 ;
}
probability ( house_num | block_area, vdis ) {
    table 0.09962871287128719, 0.32459677419354827, 0.06249999999999999, 0.0020161290322580636, 0.06249999999999999, 0.002016129032258064, 0.06249999999999999, 0.06249999999999999, 0.002016129032258064, 0.005681818181818177, 0.005681818181818182, 0.005681818181818179, 0.06249999999999999, 0.06249999999999999, 0.06249999999999999, 0.005681818181818182, 0.005681818181818179, 0.0029761904761904756, 0.0029761904761904756, 0.06249999999999999, 0.06249999999999999, 0.06249999999999999, 0.06249999999999999, 0.005681818181818179, 0.06249999999999999, 0.002976190476190475, 0.0020161290322580636, 0.06249999999999999, 0.0029761904761904743, 0.06249999999999999, 0.002016129032258064, 0.0020161290322580636, 0.06249999999999999, 0.06249999999999999, 0.06249999999999999, 0.06249999999999999, 0.06249999999999999, 0.005681818181818175, 0.0029761904761904756, 0.06249999999999999, 0.14172535211267615, 0.005681818181818176, 0.06249999999999999, 0.005681818181818176, 0.06249999999999999, 0.4893292682926834, 0.06249999999999999, 0.06249999999999999, 0.4791666666666664, 0.06249999999999999, 0.5946782178217824, 0.32459677419354827, 0.06249999999999999, 0.32459677419354827, 0.06249999999999999, 0.002016129032258064, 0.06249999999999999, 0.06249999999999999, 0.002016129032258064, 0.005681818181818177, 0.005681818181818182, 0.005681818181818179, 0.06249999999999999, 0.06249999999999999, 0.06249999999999999, 0.005681818181818182, 0.005681818181818179, 0.0029761904761904756, 0.0029761904761904756, 0.06249999999999999, 0.06249999999999999, 0.06249999999999999, 0.06249999999999999, 0.005681818181818179, 0.06249999999999999, 0.002976190476190475, 0.0020161290322580636, 0.06249999999999999, 0.0029761904761904743, 0.06249999999999999, 0.002016129032258064, 0.0020161290322580636, 0.06249999999999999, 0.06249999999999999, 0.06249999999999999, 0.06249999999999999, 0.06249999999999999, 0.9147727272727262, 0.0029761904761904756, 0.06249999999999999, 0.14172535211267615, 0.005681818181818176, 0.06249999999999999, 0.005681818181818176, 0.06249999999999999, 0.24542682926829293, 0.06249999999999999, 0.06249999999999999, 0.4791666666666664, 0.06249999999999999, 0.19863861386138626, 0.32459677419354827, 0.06249999999999999, 0.32459677419354827, 0.06249999999999999, 0.002016129032258064, 0.06249999999999999, 0.06249999999999999, 0.3245967741935483, 0.005681818181818177, 0.005681818181818182, 0.005681818181818179, 0.06249999999999999, 0.06249999999999999, 0.06249999999999999, 0.005681818181818182, 0.005681818181818179, 0.0029761904761904756, 0.0029761904761904756, 0.06249999999999999, 0.06249999999999999, 0.06249999999999999, 0.06249999999999999, 0.005681818181818179, 0.06249999999999999, 0.002976190476190475, 0.6471774193548384, 0.06249999999999999, 0.0029761904761904743, 0.06249999999999999, 0.002016129032258064, 0.32459677419354827, 0.06249999999999999, 0.06249999999999999, 0.06249999999999999, 0.06249999999999999, 0.06249999999999999, 0.005681818181818175, 0.0029761904761904756, 0.06249999999999999, 0.14172535211267615, 0.9147727272727264, 0.06249999999999999, 0.005681818181818176, 0.06249999999999999, 0.24542682926829293, 0.06249999999999999, 0.06249999999999999, 0.0029761904761904743, 0.06249999999999999, 0.09962871287128719, 0.0020161290322580636, 0.06249999999999999, 0.32459677419354827, 0.06249999999999999, 0.002016129032258064, 0.06249999999999999, 0.06249999999999999, 0.002016129032258064, 0.005681818181818177, 0.005681818181818182, 0.005681818181818179, 0.06249999999999999, 0.06249999999999999, 0.06249999999999999, 0.005681818181818182, 0.005681818181818179, 0.0029761904761904756, 0.0029761904761904756, 0.06249999999999999, 0.06249999999999999, 0.06249999999999999, 0.06249999999999999, 0.005681818181818179, 0.06249999999999999, 0.002976190476190475, 0.32459677419354827, 0.06249999999999999, 0.4791666666666664, 0.06249999999999999, 0.002016129032258064, 0.0020161290322580636, 0.06249999999999999, 0.06249999999999999, 0.06249999999999999, 0.06249999999999999, 0.06249999999999999, 0.005681818181818175, 0.0029761904761904756, 0.06249999999999999, 0.4234154929577467, 0.005681818181818176, 0.06249999999999999, 0.9147727272727264, 0.06249999999999999, 0.0015243902439024406, 0.06249999999999999, 0.06249999999999999, 0.0029761904761904743, 0.06249999999999999, 0.0006188118811881191, 0.0020161290322580636, 0.06249999999999999, 0.0020161290322580636, 0.06249999999999999, 0.002016129032258064, 0.06249999999999999, 0.06249999999999999, 0.3245967741935483, 0.005681818181818177, 0.005681818181818182, 0.005681818181818179, 0.06249999999999999, 0.06249999999999999, 0.06249999999999999, 0.005681818181818182, 0.005681818181818179, 0.0029761904761904756, 0.0029761904761904756, 0.06249999999999999, 0.06249999999999999, 0.06249999999999999, 0.06249999999999999, 0.005681818181818179, 0.06249999999999999, 0.47916666666666646, 0.0020161290322580636, 0.06249999999999999, 0.0029761904761904743, 0.06249999999999999, 0.3245967741935483, 0.0020161290322580636, 0.06249999999999999, 0.06249999999999999, 0.06249999999999999, 0.06249999999999999, 0.06249999999999999, 0.005681818181818175, 0.0029761904761904756, 0.06249999999999999, 0.14172535211267615, 0.005681818181818176, 0.06249999999999999, 0.005681818181818176, 0.06249999999999999, 0.0015243902439024406, 0.06249999999999999, 0.06249999999999999, 0.0029761904761904743, 0.06249999999999999, 0.0006188118811881191, 0.0020161290322580636, 0.06249999999999999, 0.0020161290322580636, 0.06249999999999999, 0.002016129032258064, 0.06249999999999999, 0.06249999999999999, 0.3245967741935483, 0.005681818181818177, 0.005681818181818182, 0.005681818181818179, 0.06249999999999999, 0.06249999999999999, 0.06249999999999999, 0.005681818181818182, 0.005681818181818179, 0.0029761904761904756, 0.0029761904761904756, 0.06249999999999999, 0.06249999999999999, 0.06249999999999999, 0.06249999999999999, 0.005681818181818179, 0.06249999999999999, 0.002976190476190475, 0.0020161290322580636, 0.06249999999999999, 0.0029761904761904743, 0.06249999999999999, 0.002016129032258064, 0.32459677419354827, 0.06249999999999999, 0.06249999999999999, 0.06249999999999999, 0.06249999999999999, 0.06249999999999999, 0.005681818181818175, 0.0029761904761904756, 0.06249999999999999, 0.0008802816901408456, 0.005681818181818176, 0.06249999999999999, 0.005681818181818176, 0.06249999999999999, 0.0015243902439024406, 0.06249999999999999, 0.06249999999999999, 0.0029761904761904743, 0.06249999999999999, 0.0006188118811881191, 0.0020161290322580636, 0.06249999999999999, 0.0020161290322580636, 0.06249999999999999, 0.3245967741935483, 0.06249999999999999, 0.06249999999999999, 0.002016129032258064, 0.9147727272727265, 0.005681818181818182, 0.005681818181818179, 0.06249999999999999, 0.06249999999999999, 0.06249999999999999, 0.005681818181818182, 0.005681818181818179, 0.0029761904761904756, 0.0029761904761904756, 0.06249999999999999, 0.06249999999999999, 0.06249999999999999, 0.06249999999999999, 0.005681818181818179, 0.06249999999999999, 0.47916666666666646, 0.0020161290322580636, 0.06249999999999999, 0.0029761904761904743, 0.06249999999999999, 0.3245967741935483, 0.0020161290322580636, 0.06249999999999999, 0.06249999999999999, 0.06249999999999999, 0.06249999999999999, 0.06249999999999999, 0.005681818181818175, 0.0029761904761904756, 0.06249999999999999, 0.0008802816901408456, 0.005681818181818176, 0.06249999999999999, 0.005681818181818176, 0.06249999999999999, 0.0015243902439024406, 0.06249999999999999, 0.06249999999999999, 0.0029761904761904743, 0.06249999999999999, 0.0006188118811881191, 0.0020161290322580636, 0.06249999999999999, 0.0020161290322580636, 0.06249999999999999, 0.002016129032258064, 0.06249999999999999, 0.06249999999999999, 0.002016129032258064, 0.005681818181818177, 0.005681818181818182, 0.005681818181818179, 0.06249999999999999, 0.06249999999999999, 0.06249999999999999, 0.005681818181818182, 0.005681818181818179, 0.0029761904761904756, 0.0029761904761904756, 0.06249999999999999, 0.06249999999999999, 0.06249999999999999, 0.06249999999999999, 0.005681818181818179, 0.06249999999999999, 0.002976190476190475, 0.0020161290322580636, 0.06249999999999999, 0.4791666666666664, 0.06249999999999999, 0.002016129032258064, 0.0020161290322580636, 0.06249999999999999, 0.06249999999999999, 0.06249999999999999, 0.06249999999999999, 0.06249999999999999, 0.005681818181818175, 0.0029761904761904756, 0.06249999999999999, 0.0008802816901408456, 0.005681818181818176, 0.06249999999999999, 0.005681818181818176, 0.06249999999999999, 0.0015243902439024406, 0.06249999999999999, 0.06249999999999999, 0.0029761904761904743, 0.06249999999999999, 0.0006188118811881191, 0.0020161290322580636, 0.06249999999999999, 0.0020161290322580636, 0.06249999999999999, 0.002016129032258064, 0.06249999999999999, 0.06249999999999999, 0.002016129032258064, 0.005681818181818177, 0.005681818181818182, 0.005681818181818179, 0.06249999999999999, 0.06249999999999999, 0.06249999999999999, 0.005681818181818182, 0.005681818181818179, 0.0029761904761904756, 0.0029761904761904756, 0.06249999999999999, 0.06249999999999999, 0.06249999999999999, 0.06249999999999999, 0.005681818181818179, 0.06249999999999999, 0.002976190476190475, 0.0020161290322580636, 0.06249999999999999, 0.0029761904761904743, 0.06249999999999999, 0.3245967741935483, 0.32459677419354827, 0.06249999999999999, 0.06249999999999999, 0.06249999999999999, 0.06249999999999999, 0.06249999999999999, 0.005681818181818175, 0.0029761904761904756, 0.06249999999999999, 0.0008802816901408456, 0.005681818181818176, 0.06249999999999999, 0.005681818181818176, 0.06249999999999999, 0.0015243902439024406, 0.06249999999999999, 0.06249999999999999, 0.0029761904761904743, 0.06249999999999999, 0.0006188118811881191, 0.0020161290322580636, 0.06249999999999999, 0.0020161290322580636, 0.06249999999999999, 0.002016129032258064, 0.06249999999999999, 0.06249999999999999, 0.002016129032258064, 0.005681818181818177, 0.005681818181818182, 0.005681818181818179, 0.06249999999999999, 0.06249999999999999, 0.06249999999999999, 0.005681818181818182, 0.005681818181818179, 0.0029761904761904756, 0.0029761904761904756, 0.06249999999999999, 0.06249999999999999, 0.06249999999999999, 0.06249999999999999, 0.914772727272727, 0.06249999999999999, 0.002976190476190475, 0.0020161290322580636, 0.06249999999999999, 0.0029761904761904743, 0.06249999999999999, 0.002016129032258064, 0.0020161290322580636, 0.06249999999999999, 0.06249999999999999, 0.06249999999999999, 0.06249999999999999, 0.06249999999999999, 0.005681818181818175, 0.0029761904761904756, 0.06249999999999999, 0.0008802816901408456, 0.005681818181818176, 0.06249999999999999, 0.005681818181818176, 0.06249999999999999, 0.0015243902439024406, 0.06249999999999999, 0.06249999999999999, 0.0029761904761904743, 0.06249999999999999, 0.0006188118811881191, 0.0020161290322580636, 0.06249999999999999, 0.0020161290322580636, 0.06249999999999999, 0.002016129032258064, 0.06249999999999999, 0.06249999999999999, 0.002016129032258064, 0.005681818181818177, 0.005681818181818182, 0.005681818181818179, 0.06249999999999999, 0.06249999999999999, 0.06249999999999999, 0.005681818181818182, 0.914772727272727, 0.4791666666666666, 0.9553571428571427, 0.06249999999999999, 0.06249999999999999, 0.06249999999999999, 0.06249999999999999, 0.005681818181818179, 0.06249999999999999, 0.002976190476190475, 0.0020161290322580636, 0.06249999999999999, 0.0029761904761904743, 0.06249999999999999, 0.002016129032258064, 0.0020161290322580636, 0.06249999999999999, 0.06249999999999999, 0.06249999999999999, 0.06249999999999999, 0.06249999999999999, 0.005681818181818175, 0.0029761904761904756, 0.06249999999999999, 0.0008802816901408456, 0.005681818181818176, 0.06249999999999999, 0.005681818181818176, 0.06249999999999999, 0.0015243902439024406, 0.06249999999999999, 0.06249999999999999, 0.0029761904761904743, 0.06249999999999999, 0.0006188118811881191, 0.0020161290322580636, 0.06249999999999999, 0.0020161290322580636, 0.06249999999999999, 0.3245967741935483, 0.06249999999999999, 0.06249999999999999, 0.002016129032258064, 0.005681818181818177, 0.005681818181818182, 0.914772727272727, 0.06249999999999999, 0.06249999999999999, 0.06249999999999999, 0.005681818181818182, 0.005681818181818179, 0.0029761904761904756, 0.0029761904761904756, 0.06249999999999999, 0.06249999999999999, 0.06249999999999999, 0.06249999999999999, 0.005681818181818179, 0.06249999999999999, 0.002976190476190475, 0.0020161290322580636, 0.06249999999999999, 0.0029761904761904743, 0.06249999999999999, 0.002016129032258064, 0.0020161290322580636, 0.06249999999999999, 0.06249999999999999, 0.06249999999999999, 0.06249999999999999, 0.06249999999999999, 0.005681818181818175, 0.4791666666666666, 0.06249999999999999, 0.0008802816901408456, 0.005681818181818176, 0.06249999999999999, 0.005681818181818176, 0.06249999999999999, 0.0015243902439024406, 0.06249999999999999, 0.06249999999999999, 0.0029761904761904743, 0.06249999999999999, 0.0006188118811881191, 0.0020161290322580636, 0.06249999999999999, 0.0020161290322580636, 0.06249999999999999, 0.3245967741935483, 0.06249999999999999, 0.06249999999999999, 0.002016129032258064, 0.005681818181818177, 0.005681818181818182, 0.005681818181818179, 0.06249999999999999, 0.06249999999999999, 0.06249999999999999, 0.005681818181818182, 0.005681818181818179, 0.0029761904761904756, 0.0029761904761904756, 0.06249999999999999, 0.06249999999999999, 0.06249999999999999, 0.06249999999999999, 0.005681818181818179, 0.06249999999999999, 0.002976190476190475, 0.0020161290322580636, 0.06249999999999999, 0.0029761904761904743, 0.06249999999999999, 0.002016129032258064, 0.0020161290322580636, 0.06249999999999999, 0.06249999999999999, 0.06249999999999999, 0.06249999999999999, 0.06249999999999999, 0.005681818181818175, 0.4791666666666666, 0.06249999999999999, 0.0008802816901408456, 0.005681818181818176, 0.06249999999999999, 0.005681818181818176, 0.06249999999999999, 0.0015243902439024406, 0.06249999999999999, 0.06249999999999999, 0.0029761904761904743, 0.06249999999999999, 0.0006188118811881191, 0.0020161290322580636, 0.06249999999999999, 0.0020161290322580636, 0.06249999999999999, 0.002016129032258064, 0.06249999999999999, 0.06249999999999999, 0.002016129032258064, 0.005681818181818177, 0.005681818181818182, 0.005681818181818179, 0.06249999999999999, 0.06249999999999999, 0.06249999999999999, 0.005681818181818182, 0.005681818181818179, 0.4791666666666666, 0.0029761904761904756, 0.06249999999999999, 0.06249999999999999, 0.06249999999999999, 0.06249999999999999, 0.005681818181818179, 0.06249999999999999, 0.002976190476190475, 0.0020161290322580636, 0.06249999999999999, 0.0029761904761904743, 0.06249999999999999, 0.002016129032258064, 0.0020161290322580636, 0.06249999999999999, 0.06249999999999999, 0.06249999999999999, 0.06249999999999999, 0.06249999999999999, 0.005681818181818175, 0.0029761904761904756, 0.06249999999999999, 0.0008802816901408456, 0.005681818181818176, 0.06249999999999999, 0.005681818181818176, 0.06249999999999999, 0.0015243902439024406, 0.06249999999999999, 0.06249999999999999, 0.0029761904761904743, 0.06249999999999999, 0.0006188118811881191, 0.0020161290322580636, 0.06249999999999999, 0.0020161290322580636, 0.06249999999999999, 0.002016129032258064, 0.06249999999999999, 0.06249999999999999, 0.002016129032258064, 0.005681818181818177, 0.9147727272727273, 0.005681818181818179, 0.06249999999999999, 0.06249999999999999, 0.06249999999999999, 0.005681818181818182, 0.005681818181818179, 0.0029761904761904756, 0.0029761904761904756, 0.06249999999999999, 0.06249999999999999, 0.06249999999999999, 0.06249999999999999, 0.005681818181818179, 0.06249999999999999, 0.002976190476190475, 0.0020161290322580636, 0.06249999999999999, 0.0029761904761904743, 0.06249999999999999, 0.002016129032258064, 0.0020161290322580636, 0.06249999999999999, 0.06249999999999999, 0.06249999999999999, 0.06249999999999999, 0.06249999999999999, 0.005681818181818175, 0.0029761904761904756, 0.06249999999999999, 0.0008802816901408456, 0.005681818181818176, 0.06249999999999999, 0.005681818181818176, 0.06249999999999999, 0.0015243902439024406, 0.06249999999999999, 0.06249999999999999, 0.0029761904761904743, 0.06249999999999999, 0.0006188118811881191, 0.0020161290322580636, 0.06249999999999999, 0.0020161290322580636, 0.06249999999999999, 0.002016129032258064, 0.06249999999999999, 0.06249999999999999, 0.002016129032258064, 0.005681818181818177, 0.005681818181818182, 0.005681818181818179, 0.06249999999999999, 0.06249999999999999, 0.06249999999999999, 0.9147727272727273, 0.005681818181818179, 0.0029761904761904756, 0.0029761904761904756, 0.06249999999999999, 0.06249999999999999, 0.06249999999999999, 0.06249999999999999, 0.005681818181818179, 0.06249999999999999, 0.002976190476190475, 0.0020161290322580636, 0.06249999999999999, 0.0029761904761904743, 0.06249999999999999, 0.002016129032258064, 0.0020161290322580636, 0.06249999999999999, 0.06249999999999999, 0.06249999999999999, 0.06249999999999999, 0.06249999999999999, 0.005681818181818175, 0.0029761904761904756, 0.06249999999999999, 0.0008802816901408456, 0.005681818181818176, 0.06249999999999999, 0.005681818181818176, 0.06249999999999999, 0.0015243902439024406, 0.06249999999999999, 0.06249999999999999, 0.0029761904761904743, 0.06249999999999999 ;
}
probability ( vdis ) {
    table 0.47058823529411764, 0.19117647058823528, 0.058823529411764705, 0.25, 0.029411764705882353 ;
}
