network unknown {
}
variable house_num {
    type discrete [ 16 ] { 2, 3, 4, 5, 6, 7, 8, 9, 10, 12, 13, 14, 15, 16, 17, 18 };
}
variable length {
    type discrete [ 5 ] { 0, 1, 2, 3, 4 };
}
variable type {
    type discrete [ 10 ] { 0, 1, 2, 3, 4, 5, 6, 7, 8, 9 };
}
variable width {
    type discrete [ 5 ] { 0, 1, 2, 3, 4 };
}
probability ( house_num ) {
    table 0.02910756501182033, 0.0858451536643026, 0.10475768321513003, 0.09530141843971632, 0.057476359338061465, 0.03383569739952719, 0.0763888888888889, 0.022015366430260048, 0.048020094562647754, 0.02910756501182033, 0.12367021276595745, 0.10002955082742317, 0.07166075650118203, 0.03856382978723404, 0.04092789598108747, 0.0432919621749409 ;
}
probability ( length | house_num, type ) {
    table 0.2, 0.2, 0.2, 0.2, 0.0010362694300518134, 0.166839378238342, 0.2, 0.2, 0.2, 0.2, 0.2, 0.2, 0.2, 0.2, 0.6233463035019456, 0.4206896551724138, 0.2, 0.9757575757575754, 0.2, 0.6618556701030928, 0.003076923076923077, 0.4953846153846153, 0.0020618556701030924, 0.003076923076923077, 0.166839378238342, 0.24993498049414822, 0.2, 0.2, 0.2, 0.796273291925466, 0.2, 0.3319587628865979, 0.2496124031007752, 0.4953846153846153, 0.24980544747081712, 0.34976599063962555, 0.2, 0.2, 0.2, 0.0020618556701030924, 0.0015503875968992248, 0.00606060606060606, 0.2, 0.9757575757575754, 0.00606060606060606, 0.3074340527577938, 0.2, 0.003076923076923077, 0.2, 0.003076923076923077, 0.2, 0.00606060606060606, 0.0020618556701030924, 0.2, 0.0012422360248447205, 0.2496124031007752, 0.2, 0.2, 0.2, 0.9757575757575754, 0.49767441860465117, 0.00606060606060606, 0.003076923076923077, 0.2, 0.4984455958549223, 0.356792873051225, 0.006060606060606058, 0.00606060606060606, 0.2, 0.3319587628865979, 0.2, 0.2, 0.003076923076923077, 0.2, 0.4953846153846153, 0.0015503875968992248, 0.2, 0.2, 0.2, 0.00606060606060606, 0.2, 0.2, 0.2, 0.2, 0.0006920415224913496, 0.4990654205607477, 0.006060606060606061, 0.2, 0.2, 0.2, 0.2, 0.2, 0.2, 0.2, 0.2, 0.3993769470404985, 0.2, 0.2, 0.006060606060606058, 0.006060606060606061, 0.2, 0.0030769230769230765, 0.2, 0.00606060606060606, 0.2726241134751773, 0.29984399375975035, 0.2, 0.006060606060606058, 0.006060606060606061, 0.3987577639751553, 0.2, 0.2, 0.0012422360248447208, 0.003076923076923077, 0.2496124031007752, 0.2757804090419806, 0.2, 0.2, 0.2, 0.003076923076923077, 0.4953846153846153, 0.2, 0.2, 0.2, 0.3328719723183391, 0.2499025341130604, 0.2, 0.9757575757575754, 0.2, 0.0030769230769230765, 0.2, 0.2, 0.2, 0.2, 0.10031152647975079, 0.166839378238342, 0.2, 0.2, 0.2, 0.2, 0.2, 0.006060606060606061, 0.2, 0.4953846153846153, 0.006060606060606058, 0.2221453287197232, 0.2, 0.2, 0.2, 0.49767441860465117, 0.2, 0.00606060606060606, 0.006060606060606061, 0.006060606060606061, 0.166839378238342, 0.12529182879377432, 0.2, 0.2, 0.2, 0.006060606060606061, 0.2, 0.2, 0.2, 0.2, 0.0010362694300518134, 0.0010362694300518134, 0.2, 0.2, 0.2, 0.2, 0.2, 0.2, 0.2, 0.0012422360248447205, 0.0007782101167315177, 0.0003284072249589491, 0.2, 0.006060606060606058, 0.2, 0.0020618556701030924, 0.003076923076923077, 0.0030769230769230765, 0.0020618556701030924, 0.003076923076923077, 0.0010362694300518134, 0.0834850455136541, 0.2, 0.2, 0.2, 0.001242236024844721, 0.2, 0.0020618556701030924, 0.0015503875968992248, 0.0030769230769230765, 0.0007782101167315176, 0.00031201248049921997, 0.2, 0.2, 0.2, 0.0020618556701030924, 0.49767441860465117, 0.00606060606060606, 0.2, 0.006060606060606058, 0.00606060606060606, 0.00047961630695443657, 0.2, 0.003076923076923077, 0.2, 0.003076923076923077, 0.2, 0.00606060606060606, 0.0020618556701030924, 0.2, 0.0012422360248447205, 0.0015503875968992248, 0.2, 0.2, 0.2, 0.006060606060606058, 0.0015503875968992248, 0.00606060606060606, 0.003076923076923077, 0.2, 0.0010362694300518134, 0.00044543429844098, 0.9757575757575754, 0.00606060606060606, 0.2, 0.3319587628865979, 0.2, 0.2, 0.003076923076923077, 0.2, 0.0030769230769230765, 0.0015503875968992248, 0.2, 0.2, 0.2, 0.00606060606060606, 0.2, 0.2, 0.2, 0.2, 0.0006920415224913496, 0.0006230529595015578, 0.006060606060606061, 0.2, 0.2, 0.2, 0.2, 0.2, 0.2, 0.2, 0.2, 0.1003115264797508, 0.2, 0.2, 0.9757575757575754, 0.006060606060606061, 0.2, 0.0030769230769230765, 0.2, 0.00606060606060606, 0.00028368794326241134, 0.05023400936037442, 0.2, 0.9757575757575754, 0.006060606060606061, 0.0012422360248447205, 0.2, 0.2, 0.0012422360248447208, 0.003076923076923077, 0.0015503875968992248, 0.03466092572658773, 0.2, 0.2, 0.2, 0.003076923076923077, 0.4953846153846153, 0.2, 0.2, 0.2, 0.11141868512110728, 0.00038986354775828464, 0.2, 0.006060606060606058, 0.2, 0.4953846153846153, 0.2, 0.2, 0.2, 0.2, 0.0006230529595015577, 0.0010362694300518134, 0.2, 0.2, 0.2, 0.2, 0.2, 0.006060606060606061, 0.2, 0.4953846153846153, 0.9757575757575754, 0.0006920415224913496, 0.2, 0.2, 0.2, 0.0015503875968992248, 0.2, 0.00606060606060606, 0.006060606060606061, 0.006060606060606061, 0.0010362694300518134, 0.0007782101167315176, 0.2, 0.2, 0.2, 0.006060606060606061, 0.2, 0.2, 0.2, 0.2, 0.4984455958549223, 0.166839378238342, 0.2, 0.2, 0.2, 0.2, 0.2, 0.2, 0.2, 0.3987577639751553, 0.0007782101167315177, 0.10541871921182266, 0.2, 0.006060606060606058, 0.2, 0.0020618556701030924, 0.003076923076923077, 0.0030769230769230765, 0.9917525773195875, 0.003076923076923077, 0.33264248704663213, 0.24993498049414822, 0.2, 0.2, 0.2, 0.001242236024844721, 0.2, 0.6618556701030928, 0.2496124031007752, 0.0030769230769230765, 0.3743190661478599, 0.19999999999999998, 0.2, 0.2, 0.2, 0.3319587628865979, 0.0015503875968992248, 0.00606060606060606, 0.2, 0.006060606060606058, 0.00606060606060606, 0.00047961630695443657, 0.2, 0.003076923076923077, 0.2, 0.003076923076923077, 0.2, 0.00606060606060606, 0.6618556701030928, 0.2, 0.0012422360248447205, 0.2496124031007752, 0.2, 0.2, 0.2, 0.006060606060606058, 0.0015503875968992248, 0.00606060606060606, 0.003076923076923077, 0.2, 0.33264248704663213, 0.2142538975501114, 0.006060606060606058, 0.00606060606060606, 0.2, 0.0020618556701030924, 0.2, 0.2, 0.4953846153846154, 0.2, 0.0030769230769230765, 0.2496124031007752, 0.2, 0.2, 0.2, 0.9757575757575756, 0.2, 0.2, 0.2, 0.2, 0.2221453287197232, 0.2996884735202493, 0.006060606060606061, 0.2, 0.2, 0.2, 0.2, 0.2, 0.2, 0.2, 0.2, 0.1003115264797508, 0.2, 0.2, 0.006060606060606058, 0.006060606060606061, 0.2, 0.9876923076923075, 0.2, 0.9757575757575756, 0.2726241134751773, 0.15007800312012481, 0.2, 0.006060606060606058, 0.006060606060606061, 0.2, 0.2, 0.2, 0.9950310559006212, 0.4953846153846154, 0.0015503875968992248, 0.31022604951560817, 0.2, 0.2, 0.2, 0.003076923076923077, 0.0030769230769230765, 0.2, 0.2, 0.2, 0.3328719723183391, 0.2499025341130604, 0.2, 0.006060606060606058, 0.2, 0.0030769230769230765, 0.2, 0.2, 0.2, 0.2, 0.2, 0.166839378238342, 0.2, 0.2, 0.2, 0.2, 0.2, 0.006060606060606061, 0.2, 0.0030769230769230765, 0.006060606060606058, 0.0006920415224913496, 0.2, 0.2, 0.2, 0.0015503875968992248, 0.2, 0.9757575757575756, 0.006060606060606061, 0.006060606060606061, 0.4984455958549223, 0.3743190661478599, 0.2, 0.2, 0.2, 0.006060606060606061, 0.2, 0.2, 0.2, 0.2, 0.166839378238342, 0.4984455958549223, 0.2, 0.2, 0.2, 0.2, 0.2, 0.2, 0.2, 0.0012422360248447205, 0.0007782101167315177, 0.05287356321839081, 0.2, 0.006060606060606058, 0.2, 0.3319587628865979, 0.9876923076923078, 0.4953846153846153, 0.0020618556701030924, 0.003076923076923077, 0.0010362694300518134, 0.2083224967490247, 0.2, 0.2, 0.2, 0.2000000000000001, 0.2, 0.0020618556701030924, 0.0015503875968992248, 0.0030769230769230765, 0.12529182879377432, 0.34976599063962555, 0.2, 0.2, 0.2, 0.3319587628865979, 0.2496124031007752, 0.9757575757575756, 0.2, 0.006060606060606058, 0.9757575757575756, 0.07721822541966429, 0.2, 0.9876923076923078, 0.2, 0.4953846153846154, 0.2, 0.9757575757575756, 0.0020618556701030924, 0.2, 0.3987577639751553, 0.2496124031007752, 0.2, 0.2, 0.2, 0.006060606060606058, 0.2496124031007752, 0.9757575757575756, 0.003076923076923077, 0.2, 0.0010362694300518134, 0.2142538975501114, 0.006060606060606058, 0.9757575757575756, 0.2, 0.0020618556701030924, 0.2, 0.2, 0.003076923076923077, 0.2, 0.0030769230769230765, 0.0015503875968992248, 0.2, 0.2, 0.2, 0.00606060606060606, 0.2, 0.2, 0.2, 0.2, 0.11141868512110728, 0.20000000000000004, 0.006060606060606061, 0.2, 0.2, 0.2, 0.2, 0.2, 0.2, 0.2, 0.2, 0.20000000000000004, 0.2, 0.2, 0.006060606060606058, 0.006060606060606061, 0.2, 0.0030769230769230765, 0.2, 0.00606060606060606, 0.00028368794326241134, 0.19999999999999998, 0.2, 0.006060606060606058, 0.006060606060606061, 0.3987577639751553, 0.2, 0.2, 0.0012422360248447208, 0.003076923076923077, 0.2496124031007752, 0.10355220667384285, 0.2, 0.2, 0.2, 0.003076923076923077, 0.0030769230769230765, 0.2, 0.2, 0.2, 0.11141868512110728, 0.12514619883040937, 0.2, 0.006060606060606058, 0.2, 0.0030769230769230765, 0.2, 0.2, 0.2, 0.2, 0.0006230529595015577, 0.4984455958549223, 0.2, 0.2, 0.2, 0.2, 0.2, 0.006060606060606061, 0.2, 0.0030769230769230765, 0.006060606060606058, 0.6650519031141868, 0.2, 0.2, 0.2, 0.2496124031007752, 0.2, 0.00606060606060606, 0.006060606060606061, 0.006060606060606061, 0.0010362694300518134, 0.12529182879377432, 0.2, 0.2, 0.2, 0.006060606060606061, 0.2, 0.2, 0.2, 0.2, 0.33264248704663213, 0.166839378238342, 0.2, 0.2, 0.2, 0.2, 0.2, 0.2, 0.2, 0.3987577639751553, 0.37431906614786004, 0.4206896551724138, 0.2, 0.006060606060606058, 0.2, 0.0020618556701030924, 0.003076923076923077, 0.0030769230769230765, 0.0020618556701030924, 0.9876923076923078, 0.4984455958549223, 0.2083224967490247, 0.2, 0.2, 0.2, 0.001242236024844721, 0.2, 0.0020618556701030924, 0.49767441860465117, 0.4953846153846153, 0.24980544747081712, 0.10015600624024962, 0.2, 0.2, 0.2, 0.3319587628865979, 0.2496124031007752, 0.00606060606060606, 0.2, 0.006060606060606058, 0.00606060606060606, 0.6143884892086332, 0.2, 0.003076923076923077, 0.2, 0.4953846153846154, 0.2, 0.00606060606060606, 0.3319587628865979, 0.2, 0.5975155279503106, 0.2496124031007752, 0.2, 0.2, 0.2, 0.006060606060606058, 0.2496124031007752, 0.00606060606060606, 0.9876923076923078, 0.2, 0.166839378238342, 0.2142538975501114, 0.006060606060606058, 0.00606060606060606, 0.2, 0.3319587628865979, 0.2, 0.2, 0.4953846153846154, 0.2, 0.4953846153846153, 0.7457364341085272, 0.2, 0.2, 0.2, 0.00606060606060606, 0.2, 0.2, 0.2, 0.2, 0.6650519031141868, 0.0006230529595015578, 0.9757575757575758, 0.2, 0.2, 0.2, 0.2, 0.2, 0.2, 0.2, 0.2, 0.20000000000000004, 0.2, 0.2, 0.006060606060606058, 0.9757575757575758, 0.2, 0.0030769230769230765, 0.2, 0.00606060606060606, 0.45418439716312053, 0.29984399375975035, 0.2, 0.006060606060606058, 0.9757575757575758, 0.0012422360248447205, 0.2, 0.2, 0.0012422360248447208, 0.4953846153846154, 0.49767441860465117, 0.2757804090419806, 0.2, 0.2, 0.2, 0.9876923076923078, 0.0030769230769230765, 0.2, 0.2, 0.2, 0.11141868512110728, 0.37465886939571147, 0.2, 0.006060606060606058, 0.2, 0.4953846153846153, 0.2, 0.2, 0.2, 0.2, 0.6984423676012461, 0.166839378238342, 0.2, 0.2, 0.2, 0.2, 0.2, 0.9757575757575758, 0.2, 0.0030769230769230765, 0.006060606060606058, 0.11141868512110728, 0.2, 0.2, 0.2, 0.2496124031007752, 0.2, 0.00606060606060606, 0.9757575757575758, 0.9757575757575758, 0.33264248704663213, 0.3743190661478599, 0.2, 0.2, 0.2, 0.9757575757575758 ;
}
probability ( type ) {
    table 0.02955082742316785, 0.02955082742316785, 0.04846335697399527, 0.03900709219858156, 0.24468085106382978, 0.5023640661938534, 0.00591016548463357, 0.015366430260047281, 0.00591016548463357, 0.07919621749408984 ;
}
probability ( width | house_num, type ) {
    table 0.2, 0.2, 0.2, 0.2, 0.166839378238342, 0.166839378238342, 0.2, 0.2, 0.2, 0.2, 0.2, 0.2, 0.2, 0.2, 0.4988326848249028, 0.3681444991789819, 0.2, 0.006060606060606058, 0.2, 0.002061855670103093, 0.0030769230769230765, 0.4953846153846153, 0.3319587628865979, 0.0030769230769230765, 0.6642487046632126, 0.29154746423927175, 0.2, 0.2, 0.2, 0.3987577639751553, 0.2, 0.3319587628865979, 0.0015503875968992248, 0.0030769230769230765, 0.3743190661478599, 0.44960998439937594, 0.2, 0.2, 0.2, 0.3319587628865979, 0.4976744186046513, 0.9757575757575754, 0.2, 0.9757575757575754, 0.006060606060606058, 0.23069544364508393, 0.2, 0.4953846153846153, 0.2, 0.4953846153846153, 0.2, 0.9757575757575754, 0.3319587628865979, 0.2, 0.0012422360248447205, 0.2496124031007752, 0.2, 0.2, 0.2, 0.00606060606060606, 0.0015503875968992248, 0.00606060606060606, 0.003076923076923077, 0.2, 0.4984455958549223, 0.5706013363028953, 0.00606060606060606, 0.00606060606060606, 0.2, 0.0020618556701030924, 0.2, 0.2, 0.4953846153846153, 0.2, 0.4953846153846153, 0.49767441860465117, 0.2, 0.2, 0.2, 0.9757575757575754, 0.2, 0.2, 0.2, 0.2, 0.3328719723183391, 0.3993769470404985, 0.00606060606060606, 0.2, 0.2, 0.2, 0.2, 0.2, 0.2, 0.2, 0.2, 0.20000000000000004, 0.2, 0.2, 0.006060606060606061, 0.00606060606060606, 0.2, 0.4953846153846153, 0.2, 0.9757575757575754, 0.4087943262411347, 0.34976599063962555, 0.2, 0.00606060606060606, 0.00606060606060606, 0.3987577639751553, 0.2, 0.2, 0.3987577639751553, 0.4953846153846153, 0.49767441860465117, 0.48245425188374597, 0.2, 0.2, 0.2, 0.003076923076923077, 0.0030769230769230765, 0.2, 0.2, 0.2, 0.554325259515571, 0.5617933723196881, 0.2, 0.00606060606060606, 0.2, 0.4953846153846153, 0.2, 0.2, 0.2, 0.2, 0.3993769470404985, 0.33264248704663213, 0.2, 0.2, 0.2, 0.2, 0.2, 0.9757575757575754, 0.2, 0.0030769230769230765, 0.00606060606060606, 0.44359861591695504, 0.2, 0.2, 0.2, 0.49767441860465117, 0.2, 0.9757575757575754, 0.00606060606060606, 0.006060606060606058, 0.0010362694300518136, 0.7478599221789884, 0.2, 0.2, 0.2, 0.9757575757575754, 0.2, 0.2, 0.2, 0.2, 0.0010362694300518134, 0.0010362694300518134, 0.2, 0.2, 0.2, 0.2, 0.2, 0.2, 0.2, 0.0012422360248447205, 0.24980544747081718, 0.1579638752052545, 0.2, 0.9757575757575754, 0.2, 0.002061855670103093, 0.9876923076923075, 0.4953846153846153, 0.0020618556701030924, 0.0030769230769230765, 0.0010362694300518139, 0.04187256176853056, 0.2, 0.2, 0.2, 0.0012422360248447205, 0.2, 0.0020618556701030924, 0.0015503875968992248, 0.4953846153846153, 0.0007782101167315176, 0.05023400936037442, 0.2, 0.2, 0.2, 0.0020618556701030924, 0.4976744186046513, 0.006060606060606058, 0.2, 0.006060606060606058, 0.9757575757575754, 0.1539568345323741, 0.2, 0.0030769230769230765, 0.2, 0.0030769230769230765, 0.2, 0.006060606060606058, 0.0020618556701030924, 0.2, 0.5975155279503106, 0.2496124031007752, 0.2, 0.2, 0.2, 0.00606060606060606, 0.0015503875968992248, 0.00606060606060606, 0.003076923076923077, 0.2, 0.166839378238342, 0.07171492204899779, 0.00606060606060606, 0.00606060606060606, 0.2, 0.3319587628865979, 0.2, 0.2, 0.0030769230769230765, 0.2, 0.0030769230769230765, 0.2496124031007752, 0.2, 0.2, 0.2, 0.006060606060606058, 0.2, 0.2, 0.2, 0.2, 0.0006920415224913496, 0.0006230529595015578, 0.00606060606060606, 0.2, 0.2, 0.2, 0.2, 0.2, 0.2, 0.2, 0.2, 0.20000000000000004, 0.2, 0.2, 0.006060606060606061, 0.00606060606060606, 0.2, 0.0030769230769230765, 0.2, 0.006060606060606058, 0.04567375886524823, 0.05023400936037442, 0.2, 0.00606060606060606, 0.00606060606060606, 0.0012422360248447205, 0.2, 0.2, 0.0012422360248447205, 0.0030769230769230765, 0.0015503875968992248, 0.10355220667384285, 0.2, 0.2, 0.2, 0.003076923076923077, 0.4953846153846153, 0.2, 0.2, 0.2, 0.0006920415224913497, 0.00038986354775828464, 0.2, 0.00606060606060606, 0.2, 0.0030769230769230765, 0.2, 0.2, 0.2, 0.2, 0.0006230529595015578, 0.0010362694300518134, 0.2, 0.2, 0.2, 0.2, 0.2, 0.006060606060606058, 0.2, 0.4953846153846153, 0.00606060606060606, 0.1114186851211073, 0.2, 0.2, 0.2, 0.2496124031007752, 0.2, 0.006060606060606058, 0.00606060606060606, 0.9757575757575754, 0.0010362694300518136, 0.0007782101167315177, 0.2, 0.2, 0.2, 0.006060606060606058, 0.2, 0.2, 0.2, 0.2, 0.6642487046632124, 0.4984455958549223, 0.2, 0.2, 0.2, 0.2, 0.2, 0.2, 0.2, 0.2, 0.12529182879377435, 0.31559934318555005, 0.2, 0.006060606060606058, 0.2, 0.002061855670103093, 0.0030769230769230765, 0.0030769230769230765, 0.6618556701030928, 0.4953846153846153, 0.33264248704663224, 0.49960988296488945, 0.2, 0.2, 0.2, 0.0012422360248447205, 0.2, 0.6618556701030928, 0.2496124031007752, 0.0030769230769230765, 0.3743190661478599, 0.34976599063962555, 0.2, 0.2, 0.2, 0.0020618556701030924, 0.0015503875968992252, 0.006060606060606058, 0.2, 0.006060606060606058, 0.006060606060606058, 0.1539568345323741, 0.2, 0.4953846153846153, 0.2, 0.0030769230769230765, 0.2, 0.006060606060606058, 0.6618556701030928, 0.2, 0.2, 0.49767441860465117, 0.2, 0.2, 0.2, 0.00606060606060606, 0.2496124031007752, 0.00606060606060606, 0.003076923076923077, 0.2, 0.166839378238342, 0.2142538975501114, 0.00606060606060606, 0.00606060606060606, 0.2, 0.6618556701030928, 0.2, 0.2, 0.4953846153846153, 0.2, 0.0030769230769230765, 0.2496124031007752, 0.2, 0.2, 0.2, 0.006060606060606058, 0.2, 0.2, 0.2, 0.2, 0.2221453287197232, 0.4990654205607477, 0.00606060606060606, 0.2, 0.2, 0.2, 0.2, 0.2, 0.2, 0.2, 0.2, 0.0006230529595015578, 0.2, 0.2, 0.006060606060606061, 0.9757575757575756, 0.2, 0.4953846153846153, 0.2, 0.006060606060606058, 0.22723404255319146, 0.39968798751950074, 0.2, 0.00606060606060606, 0.9757575757575756, 0.3987577639751553, 0.2, 0.2, 0.5975155279503106, 0.4953846153846153, 0.0015503875968992248, 0.2068891280947255, 0.2, 0.2, 0.2, 0.003076923076923077, 0.0030769230769230765, 0.2, 0.2, 0.2, 0.1114186851211073, 0.2499025341130604, 0.2, 0.9757575757575756, 0.2, 0.0030769230769230765, 0.2, 0.2, 0.2, 0.2, 0.2996884735202493, 0.33264248704663213, 0.2, 0.2, 0.2, 0.2, 0.2, 0.006060606060606058, 0.2, 0.0030769230769230765, 0.00606060606060606, 0.0006920415224913497, 0.2, 0.2, 0.2, 0.0015503875968992248, 0.2, 0.006060606060606058, 0.00606060606060606, 0.006060606060606058, 0.9958549222797929, 0.12529182879377435, 0.2, 0.2, 0.2, 0.006060606060606058, 0.2, 0.2, 0.2, 0.2, 0.166839378238342, 0.33264248704663213, 0.2, 0.2, 0.2, 0.2, 0.2, 0.2, 0.2, 0.5975155279503106, 0.12529182879377435, 0.1579638752052545, 0.2, 0.006060606060606058, 0.2, 0.9917525773195877, 0.0030769230769230765, 0.0030769230769230765, 0.0020618556701030924, 0.4953846153846153, 0.0010362694300518139, 0.16671001300390115, 0.2, 0.2, 0.2, 0.5975155279503106, 0.2, 0.0020618556701030924, 0.7457364341085272, 0.4953846153846153, 0.24980544747081712, 0.15007800312012481, 0.2, 0.2, 0.2, 0.6618556701030928, 0.0015503875968992252, 0.006060606060606058, 0.2, 0.006060606060606058, 0.006060606060606058, 0.4609112709832134, 0.2, 0.0030769230769230765, 0.2, 0.4953846153846153, 0.2, 0.006060606060606058, 0.0020618556701030924, 0.2, 0.2, 0.0015503875968992248, 0.2, 0.2, 0.2, 0.9757575757575756, 0.7457364341085272, 0.9757575757575756, 0.9876923076923078, 0.2, 0.166839378238342, 0.1429844097995546, 0.9757575757575756, 0.9757575757575756, 0.2, 0.0020618556701030924, 0.2, 0.2, 0.0030769230769230765, 0.2, 0.4953846153846153, 0.0015503875968992248, 0.2, 0.2, 0.2, 0.006060606060606058, 0.2, 0.2, 0.2, 0.2, 0.443598615916955, 0.1003115264797508, 0.9757575757575756, 0.2, 0.2, 0.2, 0.2, 0.2, 0.2, 0.2, 0.2, 0.598753894080997, 0.2, 0.2, 0.006060606060606061, 0.00606060606060606, 0.2, 0.0030769230769230765, 0.2, 0.006060606060606058, 0.3180141843971631, 0.19999999999999998, 0.2, 0.9757575757575756, 0.00606060606060606, 0.2, 0.2, 0.2, 0.0012422360248447205, 0.0030769230769230765, 0.49767441860465117, 0.2068891280947255, 0.2, 0.2, 0.2, 0.9876923076923078, 0.4953846153846153, 0.2, 0.2, 0.2, 0.33287197231833915, 0.1875243664717349, 0.2, 0.00606060606060606, 0.2, 0.4953846153846153, 0.2, 0.2, 0.2, 0.2, 0.2996884735202493, 0.33264248704663213, 0.2, 0.2, 0.2, 0.2, 0.2, 0.006060606060606058, 0.2, 0.4953846153846153, 0.9757575757575756, 0.44359861591695504, 0.2, 0.2, 0.2, 0.2496124031007752, 0.2, 0.006060606060606058, 0.9757575757575756, 0.006060606060606058, 0.0010362694300518136, 0.12529182879377435, 0.2, 0.2, 0.2, 0.006060606060606058, 0.2, 0.2, 0.2, 0.2, 0.0010362694300518134, 0.0010362694300518134, 0.2, 0.2, 0.2, 0.2, 0.2, 0.2, 0.2, 0.0012422360248447205, 0.0007782101167315177, 0.0003284072249589491, 0.2, 0.006060606060606058, 0.2, 0.002061855670103093, 0.0030769230769230765, 0.0030769230769230765, 0.0020618556701030924, 0.0030769230769230765, 0.0010362694300518139, 0.0002600780234070221, 0.2, 0.2, 0.2, 0.0012422360248447205, 0.2, 0.0020618556701030924, 0.0015503875968992248, 0.0030769230769230765, 0.0007782101167315176, 0.00031201248049921997, 0.2, 0.2, 0.2, 0.0020618556701030924, 0.0015503875968992252, 0.006060606060606058, 0.2, 0.006060606060606058, 0.006060606060606058, 0.00047961630695443646, 0.2, 0.0030769230769230765, 0.2, 0.0030769230769230765, 0.2, 0.006060606060606058, 0.0020618556701030924, 0.2, 0.0012422360248447205, 0.0015503875968992248, 0.2, 0.2, 0.2, 0.00606060606060606, 0.0015503875968992248, 0.00606060606060606, 0.003076923076923077, 0.2, 0.0010362694300518134, 0.00044543429844098, 0.00606060606060606, 0.00606060606060606, 0.2, 0.0020618556701030924, 0.2, 0.2, 0.0030769230769230765, 0.2, 0.0030769230769230765, 0.0015503875968992248, 0.2, 0.2, 0.2, 0.006060606060606058, 0.2, 0.2, 0.2, 0.2, 0.0006920415224913496, 0.0006230529595015578, 0.00606060606060606, 0.2, 0.2, 0.2, 0.2, 0.2, 0.2, 0.2, 0.2, 0.0006230529595015578, 0.2, 0.2, 0.9757575757575758, 0.00606060606060606, 0.2, 0.0030769230769230765, 0.2, 0.006060606060606058, 0.00028368794326241134, 0.00031201248049921997, 0.2, 0.00606060606060606, 0.00606060606060606, 0.0012422360248447205, 0.2, 0.2, 0.0012422360248447205, 0.0030769230769230765, 0.0015503875968992248, 0.00021528525296017224, 0.2, 0.2, 0.2, 0.003076923076923077, 0.0030769230769230765, 0.2, 0.2, 0.2, 0.0006920415224913497, 0.00038986354775828464, 0.2, 0.00606060606060606, 0.2, 0.0030769230769230765, 0.2, 0.2, 0.2, 0.2, 0.0006230529595015578, 0.0010362694300518134, 0.2, 0.2, 0.2, 0.2, 0.2, 0.006060606060606058, 0.2, 0.0030769230769230765, 0.00606060606060606, 0.0006920415224913497, 0.2, 0.2, 0.2, 0.0015503875968992248, 0.2, 0.006060606060606058, 0.00606060606060606, 0.006060606060606058, 0.0010362694300518136, 0.0007782101167315177, 0.2, 0.2, 0.2, 0.006060606060606058 ;
}
