network unknown {
}
variable block_area {
    type discrete [ 5 ] { 0, 1, 2, 3, 4 };
}
variable house_num {
    type discrete [ 16 ] { 2, 3, 4, 5, 6, 7, 8, 9, 10, 12, 13, 14, 15, 16, 17, 18 };
}
variable vdis {
    type discrete [ 5 ] { 0, 1, 2, 3, 4 };
}
probability ( block_area ) {
    table 0.5735294117647058, 0.16176470588235295, 0.029411764705882353, 0.19117647058823528, 0.04411764705882353 ;
}
probability ( house_num | block_area, vdis ) {
    table 0.17295258620689666, 0.14062499999999994, 0.06249999999999999, 0.12347560975609762, 0.06249999999999999, 0.005681818181818183, 0.01041666666666667, 0.06249999999999999, 0.0029761904761904756, 0.00390625, 0.06249999999999999, 0.06249999999999999, 0.06249999999999999, 0.01041666666666667, 0.06249999999999999, 0.002403846153846153, 0.003906249999999999, 0.010416666666666671, 0.003906249999999998, 0.06249999999999999, 0.010416666666666668, 0.01041666666666667, 0.06249999999999999, 0.06249999999999999, 0.06249999999999999, 0.345366379310345, 0.14062499999999994, 0.06249999999999999, 0.24542682926829285, 0.06249999999999999, 0.005681818181818183, 0.01041666666666667, 0.06249999999999999, 0.0029761904761904756, 0.31640624999999994, 0.06249999999999999, 0.06249999999999999, 0.06249999999999999, 0.01041666666666667, 0.06249999999999999, 0.002403846153846153, 0.003906249999999999, 0.010416666666666671, 0.003906249999999998, 0.06249999999999999, 0.010416666666666668, 0.01041666666666667, 0.06249999999999999, 0.06249999999999999, 0.06249999999999999, 0.17295258620689666, 0.5572916666666665, 0.06249999999999999, 0.12347560975609762, 0.06249999999999999, 0.005681818181818183, 0.01041666666666667, 0.06249999999999999, 0.0029761904761904756, 0.00390625, 0.06249999999999999, 0.06249999999999999, 0.06249999999999999, 0.01041666666666667, 0.06249999999999999, 0.002403846153846153, 0.3164062499999999, 0.010416666666666671, 0.3164062499999998, 0.06249999999999999, 0.010416666666666668, 0.01041666666666667, 0.06249999999999999, 0.06249999999999999, 0.06249999999999999, 0.17295258620689666, 0.14062499999999994, 0.06249999999999999, 0.367378048780488, 0.06249999999999999, 0.005681818181818183, 0.01041666666666667, 0.06249999999999999, 0.0029761904761904756, 0.00390625, 0.06249999999999999, 0.06249999999999999, 0.06249999999999999, 0.01041666666666667, 0.06249999999999999, 0.002403846153846153, 0.003906249999999999, 0.010416666666666671, 0.003906249999999998, 0.06249999999999999, 0.010416666666666668, 0.01041666666666667, 0.06249999999999999, 0.06249999999999999, 0.06249999999999999, 0.08674568965517246, 0.0017361111111111108, 0.06249999999999999, 0.00152439024390244, 0.06249999999999999, 0.005681818181818183, 0.01041666666666667, 0.06249999999999999, 0.0029761904761904756, 0.00390625, 0.06249999999999999, 0.06249999999999999, 0.06249999999999999, 0.01041666666666667, 0.06249999999999999, 0.19471153846153838, 0.003906249999999999, 0.010416666666666671, 0.3164062499999998, 0.06249999999999999, 0.010416666666666668, 0.01041666666666667, 0.06249999999999999, 0.06249999999999999, 0.06249999999999999, 0.0005387931034482762, 0.0017361111111111108, 0.06249999999999999, 0.00152439024390244, 0.06249999999999999, 0.005681818181818183, 0.01041666666666667, 0.06249999999999999, 0.0029761904761904756, 0.00390625, 0.06249999999999999, 0.06249999999999999, 0.06249999999999999, 0.01041666666666667, 0.06249999999999999, 0.002403846153846153, 0.3164062499999999, 0.010416666666666671, 0.3164062499999998, 0.06249999999999999, 0.010416666666666668, 0.01041666666666667, 0.06249999999999999, 0.06249999999999999, 0.06249999999999999, 0.043642241379310366, 0.0017361111111111108, 0.06249999999999999, 0.00152439024390244, 0.06249999999999999, 0.005681818181818183, 0.01041666666666667, 0.06249999999999999, 0.0029761904761904756, 0.00390625, 0.06249999999999999, 0.06249999999999999, 0.06249999999999999, 0.01041666666666667, 0.06249999999999999, 0.38701923076923067, 0.003906249999999999, 0.8437500000000003, 0.003906249999999998, 0.06249999999999999, 0.010416666666666668, 0.01041666666666667, 0.06249999999999999, 0.06249999999999999, 0.06249999999999999, 0.0005387931034482762, 0.0017361111111111108, 0.06249999999999999, 0.12347560975609762, 0.06249999999999999, 0.005681818181818183, 0.01041666666666667, 0.06249999999999999, 0.0029761904761904756, 0.00390625, 0.06249999999999999, 0.06249999999999999, 0.06249999999999999, 0.01041666666666667, 0.06249999999999999, 0.002403846153846153, 0.003906249999999999, 0.010416666666666671, 0.003906249999999998, 0.06249999999999999, 0.010416666666666668, 0.01041666666666667, 0.06249999999999999, 0.06249999999999999, 0.06249999999999999, 0.0005387931034482762, 0.0017361111111111108, 0.06249999999999999, 0.00152439024390244, 0.06249999999999999, 0.005681818181818183, 0.01041666666666667, 0.06249999999999999, 0.0029761904761904756, 0.00390625, 0.06249999999999999, 0.06249999999999999, 0.06249999999999999, 0.01041666666666667, 0.06249999999999999, 0.19471153846153838, 0.3164062499999999, 0.010416666666666671, 0.003906249999999998, 0.06249999999999999, 0.010416666666666668, 0.01041666666666667, 0.06249999999999999, 0.06249999999999999, 0.06249999999999999, 0.0005387931034482762, 0.0017361111111111108, 0.06249999999999999, 0.00152439024390244, 0.06249999999999999, 0.005681818181818183, 0.01041666666666667, 0.06249999999999999, 0.0029761904761904756, 0.00390625, 0.06249999999999999, 0.06249999999999999, 0.06249999999999999, 0.8437500000000001, 0.06249999999999999, 0.002403846153846153, 0.003906249999999999, 0.010416666666666671, 0.003906249999999998, 0.06249999999999999, 0.010416666666666668, 0.01041666666666667, 0.06249999999999999, 0.06249999999999999, 0.06249999999999999, 0.0005387931034482762, 0.0017361111111111108, 0.06249999999999999, 0.00152439024390244, 0.06249999999999999, 0.005681818181818183, 0.8437500000000001, 0.06249999999999999, 0.4791666666666666, 0.31640624999999994, 0.06249999999999999, 0.06249999999999999, 0.06249999999999999, 0.01041666666666667, 0.06249999999999999, 0.002403846153846153, 0.003906249999999999, 0.010416666666666671, 0.003906249999999998, 0.06249999999999999, 0.010416666666666668, 0.01041666666666667, 0.06249999999999999, 0.06249999999999999, 0.06249999999999999, 0.0005387931034482762, 0.0017361111111111108, 0.06249999999999999, 0.00152439024390244, 0.06249999999999999, 0.46022727272727276, 0.01041666666666667, 0.06249999999999999, 0.2410714285714285, 0.00390625, 0.06249999999999999, 0.06249999999999999, 0.06249999999999999, 0.01041666666666667, 0.06249999999999999, 0.002403846153846153, 0.003906249999999999, 0.010416666666666671, 0.003906249999999998, 0.06249999999999999, 0.010416666666666668, 0.8437500000000001, 0.06249999999999999, 0.06249999999999999, 0.06249999999999999, 0.0005387931034482762, 0.0017361111111111108, 0.06249999999999999, 0.00152439024390244, 0.06249999999999999, 0.005681818181818183, 0.01041666666666667, 0.06249999999999999, 0.2410714285714285, 0.00390625, 0.06249999999999999, 0.06249999999999999, 0.06249999999999999, 0.01041666666666667, 0.06249999999999999, 0.19471153846153838, 0.003906249999999999, 0.010416666666666671, 0.003906249999999998, 0.06249999999999999, 0.010416666666666668, 0.01041666666666667, 0.06249999999999999, 0.06249999999999999, 0.06249999999999999, 0.0005387931034482762, 0.0017361111111111108, 0.06249999999999999, 0.00152439024390244, 0.06249999999999999, 0.005681818181818183, 0.01041666666666667, 0.06249999999999999, 0.0029761904761904756, 0.31640624999999994, 0.06249999999999999, 0.06249999999999999, 0.06249999999999999, 0.01041666666666667, 0.06249999999999999, 0.002403846153846153, 0.003906249999999999, 0.010416666666666671, 0.003906249999999998, 0.06249999999999999, 0.010416666666666668, 0.01041666666666667, 0.06249999999999999, 0.06249999999999999, 0.06249999999999999, 0.0005387931034482762, 0.0017361111111111108, 0.06249999999999999, 0.00152439024390244, 0.06249999999999999, 0.005681818181818183, 0.01041666666666667, 0.06249999999999999, 0.0029761904761904756, 0.00390625, 0.06249999999999999, 0.06249999999999999, 0.06249999999999999, 0.01041666666666667, 0.06249999999999999, 0.002403846153846153, 0.003906249999999999, 0.010416666666666671, 0.003906249999999998, 0.06249999999999999, 0.84375, 0.01041666666666667, 0.06249999999999999, 0.06249999999999999, 0.06249999999999999, 0.0005387931034482762, 0.0017361111111111108, 0.06249999999999999, 0.00152439024390244, 0.06249999999999999, 0.46022727272727276, 0.01041666666666667, 0.06249999999999999, 0.0029761904761904756, 0.00390625, 0.06249999999999999, 0.06249999999999999, 0.06249999999999999, 0.01041666666666667, 0.06249999999999999, 0.002403846153846153, 0.003906249999999999, 0.010416666666666671, 0.003906249999999998, 0.06249999999999999, 0.010416666666666668, 0.01041666666666667, 0.06249999999999999, 0.06249999999999999, 0.06249999999999999 ;
}
probability ( vdis ) {
    table 0.47058823529411764, 0.19117647058823528, 0.029411764705882353, 0.25, 0.058823529411764705 ;
}
