network unknown {
}
variable block_area {
    type discrete [ 10 ] { 0, 1, 2, 3, 4, 5, 6, 7, 8, 9 };
}
variable house_num {
    type discrete [ 16 ] { 2, 3, 4, 5, 6, 7, 8, 9, 10, 12, 13, 14, 15, 16, 17, 18 };
}
variable most_type {
    type discrete [ 10 ] { 0, 1, 2, 3, 4, 5, 6, 7, 8, 9 };
}
variable vdis {
    type discrete [ 5 ] { 0, 1, 2, 3, 4 };
}
probability ( block_area ) {
    table 0.1288416075650118, 0.14775413711583923, 0.07446808510638298, 0.2044917257683215, 0.02955082742316785, 0.09810874704491726, 0.10756501182033097, 0.0768321513002364, 0.0933806146572104, 0.03900709219858156 ;
}
probability ( house_num | block_area, vdis ) {
    table 0.06061178247734135, 0.22046703296703307, 0.06249999999999999, 0.0005165289256198349, 0.06249999999999999, 0.00016846361185983828, 0.06249999999999999, 0.06249999999999999, 0.0003654970760233915, 0.0007716049382716053, 0.0003654970760233918, 0.00044326241134751783, 0.06249999999999999, 0.06249999999999999, 0.06249999999999999, 0.0003453038674033149, 0.00047709923664122146, 0.0002147766323024055, 0.00023946360153256698, 0.06249999999999999, 0.06249999999999999, 0.06249999999999999, 0.06249999999999999, 0.0005165289256198348, 0.06249999999999999, 0.0004432624113475179, 0.0004770992366412216, 0.06249999999999999, 0.00044326241134751794, 0.06249999999999999, 0.0002593360995850622, 0.0002962085308056871, 0.06249999999999999, 0.06249999999999999, 0.06249999999999999, 0.06249999999999999, 0.06249999999999999, 0.0020161290322580636, 0.0002147766323024055, 0.06249999999999999, 0.06665282392026575, 0.0015243902439024408, 0.06249999999999999, 0.0012254901960784327, 0.06249999999999999, 0.3609234234234236, 0.06249999999999999, 0.06249999999999999, 0.39338235294117685, 0.06249999999999999, 0.5439954682779453, 0.330357142857143, 0.06249999999999999, 0.24845041322314063, 0.06249999999999999, 0.00016846361185983828, 0.06249999999999999, 0.06249999999999999, 0.0003654970760233915, 0.0007716049382716053, 0.0003654970760233918, 0.00044326241134751783, 0.06249999999999999, 0.06249999999999999, 0.06249999999999999, 0.0003453038674033149, 0.00047709923664122146, 0.0002147766323024055, 0.00023946360153256698, 0.06249999999999999, 0.06249999999999999, 0.06249999999999999, 0.06249999999999999, 0.0005165289256198348, 0.06249999999999999, 0.0004432624113475179, 0.0004770992366412216, 0.06249999999999999, 0.00044326241134751794, 0.06249999999999999, 0.0002593360995850622, 0.0002962085308056871, 0.06249999999999999, 0.06249999999999999, 0.06249999999999999, 0.06249999999999999, 0.06249999999999999, 0.9697580645161287, 0.0002147766323024055, 0.06249999999999999, 0.09987541528239198, 0.0015243902439024408, 0.06249999999999999, 0.0012254901960784327, 0.06249999999999999, 0.2708333333333335, 0.06249999999999999, 0.06249999999999999, 0.5894607843137261, 0.06249999999999999, 0.2418806646525678, 0.4402472527472529, 0.06249999999999999, 0.33109504132231415, 0.06249999999999999, 0.00016846361185983828, 0.06249999999999999, 0.06249999999999999, 0.23428362573099393, 0.0007716049382716053, 0.0003654970760233918, 0.00044326241134751783, 0.06249999999999999, 0.06249999999999999, 0.06249999999999999, 0.0003453038674033149, 0.00047709923664122146, 0.0002147766323024055, 0.00023946360153256698, 0.06249999999999999, 0.06249999999999999, 0.06249999999999999, 0.06249999999999999, 0.0005165289256198348, 0.06249999999999999, 0.0004432624113475179, 0.6111641221374048, 0.06249999999999999, 0.00044326241134751794, 0.06249999999999999, 0.0002593360995850622, 0.1898696682464454, 0.06249999999999999, 0.06249999999999999, 0.06249999999999999, 0.06249999999999999, 0.06249999999999999, 0.0020161290322580636, 0.0002147766323024055, 0.06249999999999999, 0.13309800664451818, 0.9771341463414644, 0.06249999999999999, 0.0012254901960784327, 0.06249999999999999, 0.3609234234234236, 0.06249999999999999, 0.06249999999999999, 0.0012254901960784327, 0.06249999999999999, 0.15124622356495457, 0.0006868131868131872, 0.06249999999999999, 0.41373966942148777, 0.06249999999999999, 0.00016846361185983828, 0.06249999999999999, 0.06249999999999999, 0.0003654970760233915, 0.0007716049382716053, 0.0003654970760233918, 0.00044326241134751783, 0.06249999999999999, 0.06249999999999999, 0.06249999999999999, 0.0003453038674033149, 0.00047709923664122146, 0.0002147766323024055, 0.00023946360153256698, 0.06249999999999999, 0.06249999999999999, 0.06249999999999999, 0.06249999999999999, 0.0005165289256198348, 0.06249999999999999, 0.0004432624113475179, 0.3821564885496185, 0.06249999999999999, 0.3550531914893618, 0.06249999999999999, 0.0002593360995850622, 0.0002962085308056871, 0.06249999999999999, 0.06249999999999999, 0.06249999999999999, 0.06249999999999999, 0.06249999999999999, 0.0020161290322580636, 0.0002147766323024055, 0.06249999999999999, 0.4985465116279067, 0.0015243902439024408, 0.06249999999999999, 0.9816176470588244, 0.06249999999999999, 0.0005630630630630634, 0.06249999999999999, 0.06249999999999999, 0.0012254901960784327, 0.06249999999999999, 0.00018882175226586092, 0.0006868131868131872, 0.06249999999999999, 0.0005165289256198349, 0.06249999999999999, 0.00016846361185983828, 0.06249999999999999, 0.06249999999999999, 0.3512426900584792, 0.0007716049382716053, 0.0003654970760233918, 0.00044326241134751783, 0.06249999999999999, 0.06249999999999999, 0.06249999999999999, 0.0003453038674033149, 0.00047709923664122146, 0.0002147766323024055, 0.00023946360153256698, 0.06249999999999999, 0.06249999999999999, 0.06249999999999999, 0.06249999999999999, 0.0005165289256198348, 0.06249999999999999, 0.42597517730496465, 0.0004770992366412216, 0.06249999999999999, 0.00044326241134751794, 0.06249999999999999, 0.2492219917012447, 0.0002962085308056871, 0.06249999999999999, 0.06249999999999999, 0.06249999999999999, 0.06249999999999999, 0.06249999999999999, 0.0020161290322580636, 0.0002147766323024055, 0.06249999999999999, 0.19954318936877063, 0.0015243902439024408, 0.06249999999999999, 0.0012254901960784327, 0.06249999999999999, 0.0005630630630630634, 0.06249999999999999, 0.06249999999999999, 0.0012254901960784327, 0.06249999999999999, 0.00018882175226586092, 0.0006868131868131872, 0.06249999999999999, 0.0005165289256198349, 0.06249999999999999, 0.00016846361185983828, 0.06249999999999999, 0.06249999999999999, 0.4097222222222218, 0.0007716049382716053, 0.0003654970760233918, 0.00044326241134751783, 0.06249999999999999, 0.06249999999999999, 0.06249999999999999, 0.0003453038674033149, 0.00047709923664122146, 0.0002147766323024055, 0.00023946360153256698, 0.06249999999999999, 0.06249999999999999, 0.06249999999999999, 0.06249999999999999, 0.0005165289256198348, 0.06249999999999999, 0.0004432624113475179, 0.0004770992366412216, 0.06249999999999999, 0.00044326241134751794, 0.06249999999999999, 0.0002593360995850622, 0.3320497630331752, 0.06249999999999999, 0.06249999999999999, 0.06249999999999999, 0.06249999999999999, 0.06249999999999999, 0.0020161290322580636, 0.0002147766323024055, 0.06249999999999999, 0.00020764119601328893, 0.0015243902439024408, 0.06249999999999999, 0.0012254901960784327, 0.06249999999999999, 0.0005630630630630634, 0.06249999999999999, 0.06249999999999999, 0.0012254901960784327, 0.06249999999999999, 0.00018882175226586092, 0.0006868131868131872, 0.06249999999999999, 0.0005165289256198349, 0.06249999999999999, 0.21580188679245282, 0.06249999999999999, 0.06249999999999999, 0.0003654970760233915, 0.9884259259259264, 0.0003654970760233918, 0.00044326241134751783, 0.06249999999999999, 0.06249999999999999, 0.06249999999999999, 0.0003453038674033149, 0.00047709923664122146, 0.0002147766323024055, 0.00023946360153256698, 0.06249999999999999, 0.06249999999999999, 0.06249999999999999, 0.06249999999999999, 0.0005165289256198348, 0.06249999999999999, 0.5678191489361704, 0.0004770992366412216, 0.06249999999999999, 0.00044326241134751794, 0.06249999999999999, 0.3322095435684646, 0.0002962085308056871, 0.06249999999999999, 0.06249999999999999, 0.06249999999999999, 0.06249999999999999, 0.06249999999999999, 0.0020161290322580636, 0.0002147766323024055, 0.06249999999999999, 0.00020764119601328893, 0.0015243902439024408, 0.06249999999999999, 0.0012254901960784327, 0.06249999999999999, 0.0005630630630630634, 0.06249999999999999, 0.06249999999999999, 0.0012254901960784327, 0.06249999999999999, 0.00018882175226586092, 0.0006868131868131872, 0.06249999999999999, 0.0005165289256198349, 0.06249999999999999, 0.00016846361185983828, 0.06249999999999999, 0.06249999999999999, 0.0003654970760233915, 0.0007716049382716053, 0.0003654970760233918, 0.00044326241134751783, 0.06249999999999999, 0.06249999999999999, 0.06249999999999999, 0.0003453038674033149, 0.00047709923664122146, 0.0002147766323024055, 0.00023946360153256698, 0.06249999999999999, 0.06249999999999999, 0.06249999999999999, 0.06249999999999999, 0.0005165289256198348, 0.06249999999999999, 0.0004432624113475179, 0.0004770992366412216, 0.06249999999999999, 0.6387411347517733, 0.06249999999999999, 0.0002593360995850622, 0.0002962085308056871, 0.06249999999999999, 0.06249999999999999, 0.06249999999999999, 0.06249999999999999, 0.06249999999999999, 0.0020161290322580636, 0.0002147766323024055, 0.06249999999999999, 0.00020764119601328893, 0.0015243902439024408, 0.06249999999999999, 0.0012254901960784327, 0.06249999999999999, 0.0005630630630630634, 0.06249999999999999, 0.06249999999999999, 0.0012254901960784327, 0.06249999999999999, 0.00018882175226586092, 0.0006868131868131872, 0.06249999999999999, 0.0005165289256198349, 0.06249999999999999, 0.00016846361185983828, 0.06249999999999999, 0.06249999999999999, 0.0003654970760233915, 0.0007716049382716053, 0.0003654970760233918, 0.00044326241134751783, 0.06249999999999999, 0.06249999999999999, 0.06249999999999999, 0.0003453038674033149, 0.00047709923664122146, 0.0002147766323024055, 0.00023946360153256698, 0.06249999999999999, 0.06249999999999999, 0.06249999999999999, 0.06249999999999999, 0.0005165289256198348, 0.06249999999999999, 0.0004432624113475179, 0.0004770992366412216, 0.06249999999999999, 0.00044326241134751794, 0.06249999999999999, 0.4151970954356845, 0.474229857819905, 0.06249999999999999, 0.06249999999999999, 0.06249999999999999, 0.06249999999999999, 0.06249999999999999, 0.0020161290322580636, 0.0002147766323024055, 0.06249999999999999, 0.00020764119601328893, 0.0015243902439024408, 0.06249999999999999, 0.0012254901960784327, 0.06249999999999999, 0.0005630630630630634, 0.06249999999999999, 0.06249999999999999, 0.0012254901960784327, 0.06249999999999999, 0.00018882175226586092, 0.0006868131868131872, 0.06249999999999999, 0.0005165289256198349, 0.06249999999999999, 0.00016846361185983828, 0.06249999999999999, 0.06249999999999999, 0.0003654970760233915, 0.0007716049382716053, 0.0003654970760233918, 0.00044326241134751783, 0.06249999999999999, 0.06249999999999999, 0.06249999999999999, 0.0003453038674033149, 0.00047709923664122146, 0.0002147766323024055, 0.00023946360153256698, 0.06249999999999999, 0.06249999999999999, 0.06249999999999999, 0.06249999999999999, 0.9922520661157026, 0.06249999999999999, 0.0004432624113475179, 0.0004770992366412216, 0.06249999999999999, 0.00044326241134751794, 0.06249999999999999, 0.0002593360995850622, 0.0002962085308056871, 0.06249999999999999, 0.06249999999999999, 0.06249999999999999, 0.06249999999999999, 0.06249999999999999, 0.0020161290322580636, 0.0002147766323024055, 0.06249999999999999, 0.00020764119601328893, 0.0015243902439024408, 0.06249999999999999, 0.0012254901960784327, 0.06249999999999999, 0.0005630630630630634, 0.06249999999999999, 0.06249999999999999, 0.0012254901960784327, 0.06249999999999999, 0.00018882175226586092, 0.0006868131868131872, 0.06249999999999999, 0.0005165289256198349, 0.06249999999999999, 0.00016846361185983828, 0.06249999999999999, 0.06249999999999999, 0.0003654970760233915, 0.0007716049382716053, 0.0003654970760233918, 0.00044326241134751783, 0.06249999999999999, 0.06249999999999999, 0.06249999999999999, 0.0003453038674033149, 0.9928435114503819, 0.4469501718213058, 0.9964080459770113, 0.06249999999999999, 0.06249999999999999, 0.06249999999999999, 0.06249999999999999, 0.0005165289256198348, 0.06249999999999999, 0.0004432624113475179, 0.0004770992366412216, 0.06249999999999999, 0.00044326241134751794, 0.06249999999999999, 0.0002593360995850622, 0.0002962085308056871, 0.06249999999999999, 0.06249999999999999, 0.06249999999999999, 0.06249999999999999, 0.06249999999999999, 0.0020161290322580636, 0.0002147766323024055, 0.06249999999999999, 0.00020764119601328893, 0.0015243902439024408, 0.06249999999999999, 0.0012254901960784327, 0.06249999999999999, 0.0005630630630630634, 0.06249999999999999, 0.06249999999999999, 0.0012254901960784327, 0.06249999999999999, 0.00018882175226586092, 0.0006868131868131872, 0.06249999999999999, 0.0005165289256198349, 0.06249999999999999, 0.37752695417789756, 0.06249999999999999, 0.06249999999999999, 0.0003654970760233915, 0.0007716049382716053, 0.0003654970760233918, 0.9933510638297873, 0.06249999999999999, 0.06249999999999999, 0.06249999999999999, 0.0003453038674033149, 0.00047709923664122146, 0.0002147766323024055, 0.00023946360153256698, 0.06249999999999999, 0.06249999999999999, 0.06249999999999999, 0.06249999999999999, 0.0005165289256198348, 0.06249999999999999, 0.0004432624113475179, 0.0004770992366412216, 0.06249999999999999, 0.00044326241134751794, 0.06249999999999999, 0.0002593360995850622, 0.0002962085308056871, 0.06249999999999999, 0.06249999999999999, 0.06249999999999999, 0.06249999999999999, 0.06249999999999999, 0.0020161290322580636, 0.4813144329896907, 0.06249999999999999, 0.00020764119601328893, 0.0015243902439024408, 0.06249999999999999, 0.0012254901960784327, 0.06249999999999999, 0.0005630630630630634, 0.06249999999999999, 0.06249999999999999, 0.0012254901960784327, 0.06249999999999999, 0.00018882175226586092, 0.0006868131868131872, 0.06249999999999999, 0.0005165289256198349, 0.06249999999999999, 0.40448113207547165, 0.06249999999999999, 0.06249999999999999, 0.0003654970760233915, 0.0007716049382716053, 0.0003654970760233918, 0.00044326241134751783, 0.06249999999999999, 0.06249999999999999, 0.06249999999999999, 0.0003453038674033149, 0.00047709923664122146, 0.0002147766323024055, 0.00023946360153256698, 0.06249999999999999, 0.06249999999999999, 0.06249999999999999, 0.06249999999999999, 0.0005165289256198348, 0.06249999999999999, 0.0004432624113475179, 0.0004770992366412216, 0.06249999999999999, 0.00044326241134751794, 0.06249999999999999, 0.0002593360995850622, 0.0002962085308056871, 0.06249999999999999, 0.06249999999999999, 0.06249999999999999, 0.06249999999999999, 0.06249999999999999, 0.0020161290322580636, 0.5156786941580755, 0.06249999999999999, 0.00020764119601328893, 0.0015243902439024408, 0.06249999999999999, 0.0012254901960784327, 0.06249999999999999, 0.0005630630630630634, 0.06249999999999999, 0.06249999999999999, 0.0012254901960784327, 0.06249999999999999, 0.00018882175226586092, 0.0006868131868131872, 0.06249999999999999, 0.0005165289256198349, 0.06249999999999999, 0.00016846361185983828, 0.06249999999999999, 0.06249999999999999, 0.0003654970760233915, 0.0007716049382716053, 0.0003654970760233918, 0.00044326241134751783, 0.06249999999999999, 0.06249999999999999, 0.06249999999999999, 0.0003453038674033149, 0.00047709923664122146, 0.5500429553264605, 0.00023946360153256698, 0.06249999999999999, 0.06249999999999999, 0.06249999999999999, 0.06249999999999999, 0.0005165289256198348, 0.06249999999999999, 0.0004432624113475179, 0.0004770992366412216, 0.06249999999999999, 0.00044326241134751794, 0.06249999999999999, 0.0002593360995850622, 0.0002962085308056871, 0.06249999999999999, 0.06249999999999999, 0.06249999999999999, 0.06249999999999999, 0.06249999999999999, 0.0020161290322580636, 0.0002147766323024055, 0.06249999999999999, 0.00020764119601328893, 0.0015243902439024408, 0.06249999999999999, 0.0012254901960784327, 0.06249999999999999, 0.0005630630630630634, 0.06249999999999999, 0.06249999999999999, 0.0012254901960784327, 0.06249999999999999, 0.00018882175226586092, 0.0006868131868131872, 0.06249999999999999, 0.0005165289256198349, 0.06249999999999999, 0.00016846361185983828, 0.06249999999999999, 0.06249999999999999, 0.0003654970760233915, 0.0007716049382716053, 0.9945175438596491, 0.00044326241134751783, 0.06249999999999999, 0.06249999999999999, 0.06249999999999999, 0.0003453038674033149, 0.00047709923664122146, 0.0002147766323024055, 0.00023946360153256698, 0.06249999999999999, 0.06249999999999999, 0.06249999999999999, 0.06249999999999999, 0.0005165289256198348, 0.06249999999999999, 0.0004432624113475179, 0.0004770992366412216, 0.06249999999999999, 0.00044326241134751794, 0.06249999999999999, 0.0002593360995850622, 0.0002962085308056871, 0.06249999999999999, 0.06249999999999999, 0.06249999999999999, 0.06249999999999999, 0.06249999999999999, 0.0020161290322580636, 0.0002147766323024055, 0.06249999999999999, 0.00020764119601328893, 0.0015243902439024408, 0.06249999999999999, 0.0012254901960784327, 0.06249999999999999, 0.0005630630630630634, 0.06249999999999999, 0.06249999999999999, 0.0012254901960784327, 0.06249999999999999, 0.00018882175226586092, 0.0006868131868131872, 0.06249999999999999, 0.0005165289256198349, 0.06249999999999999, 0.00016846361185983828, 0.06249999999999999, 0.06249999999999999, 0.0003654970760233915, 0.0007716049382716053, 0.0003654970760233918, 0.00044326241134751783, 0.06249999999999999, 0.06249999999999999, 0.06249999999999999, 0.9948204419889503, 0.00047709923664122146, 0.0002147766323024055, 0.00023946360153256698, 0.06249999999999999, 0.06249999999999999, 0.06249999999999999, 0.06249999999999999, 0.0005165289256198348, 0.06249999999999999, 0.0004432624113475179, 0.0004770992366412216, 0.06249999999999999, 0.00044326241134751794, 0.06249999999999999, 0.0002593360995850622, 0.0002962085308056871, 0.06249999999999999, 0.06249999999999999, 0.06249999999999999, 0.06249999999999999, 0.06249999999999999, 0.0020161290322580636, 0.0002147766323024055, 0.06249999999999999, 0.00020764119601328893, 0.0015243902439024408, 0.06249999999999999, 0.0012254901960784327, 0.06249999999999999, 0.0005630630630630634, 0.06249999999999999, 0.06249999999999999, 0.0012254901960784327, 0.06249999999999999 ;
}
probability ( most_type | block_area, house_num, vdis ) {
    table 0.0003115264797507789, 0.00031152647975077894, 0.1, 0.1, 0.1, 3.4710170079833394e-05, 0.00020790020790020797, 0.1, 0.00020790020790020794, 0.1, 7.806401249024203e-05, 0.00015600624024961, 0.1, 0.00015600624024960993, 0.1, 0.00012484394506866414, 0.1, 0.1, 0.00012484394506866414, 0.1, 0.1, 0.1, 0.1, 0.1, 0.1, 0.1, 0.1, 0.1, 0.1, 0.1, 0.1, 0.1, 0.1, 0.1, 0.1, 0.1, 0.1, 0.1, 0.1, 0.1, 0.1, 0.1, 0.1, 0.1, 0.1, 0.1, 0.1, 0.1, 0.1, 0.1, 0.1, 0.1, 0.1, 0.1, 0.1, 0.1, 0.1, 0.1, 0.1, 0.1, 0.1, 0.1, 0.1, 0.1, 0.1, 0.1, 0.1, 0.1, 0.1, 0.1, 0.1, 0.1, 0.1, 0.1, 0.1, 0.1, 0.1, 0.1, 0.1, 0.1, 0.1, 0.1, 0.1, 0.1, 0.1, 0.1, 0.1, 0.1, 0.1, 0.1, 0.1, 0.1, 0.1, 0.00015600624024960993, 0.1, 0.1, 0.1, 0.1, 0.1, 0.1, 0.1, 0.1, 0.1, 0.16659729448491153, 0.1, 0.1, 0.1, 0.1, 8.920606601248884e-05, 0.1, 0.12498048399687743, 0.1, 0.1, 0.1, 7.806401249024203e-05, 0.1, 0.1, 0.1, 0.1, 0.1, 0.1, 0.1, 0.1, 0.1, 0.1, 0.1, 0.1, 0.1, 0.1, 0.1, 0.1, 0.1, 0.1, 0.1, 0.1, 4.4622936189201256e-05, 0.1, 0.1, 0.1, 0.1, 0.0666805497709288, 0.1, 0.1, 0.1, 0.1, 0.1, 0.1, 0.1, 0.1, 0.1, 0.1, 0.1, 0.1, 0.1, 0.1, 0.1, 0.1, 0.1, 0.1, 0.1, 0.1, 0.1, 0.1, 0.1, 0.1, 0.1, 0.1, 0.1, 0.1, 0.1, 0.1, 0.1, 0.1, 0.1, 0.1, 0.1, 0.1, 0.1, 0.1, 0.1, 0.1, 0.1, 0.1, 0.1, 0.1, 0.1, 0.1, 0.1, 0.1, 0.1, 0.1, 0.1, 0.1, 0.1, 0.1, 0.1, 0.1, 0.1, 0.1, 0.1, 0.1, 0.1, 0.1, 0.1, 0.1, 0.1, 0.1, 0.1, 0.1, 0.1, 0.1, 0.1, 0.1, 0.1, 0.1, 0.1, 4.4622936189201256e-05, 0.1, 0.1, 0.1, 0.1, 0.1, 0.1, 0.1, 0.1, 0.1, 0.1, 0.1, 0.1, 0.1, 3.675119441381845e-05, 0.1, 0.1, 0.1, 0.1, 0.1, 0.1, 0.1, 0.1, 0.1, 0.1, 0.1, 0.1, 0.1, 0.1, 0.1, 0.1, 0.1, 0.1, 0.1, 0.1, 0.1, 0.1, 0.1, 0.1, 0.1, 0.1, 0.1, 0.1, 0.1, 0.1, 0.1, 0.1, 0.1, 0.1, 0.1, 0.1, 0.1, 0.1, 0.1, 0.1, 0.1, 0.1, 0.1, 0.1, 0.1, 0.1, 0.1, 0.1, 0.1, 0.1, 0.1, 0.1, 0.1, 0.1, 0.1, 0.1, 0.1, 0.1, 0.1, 0.1, 4.8053820278712165e-05, 4.8053820278712165e-05, 2.4032684450853165e-05, 0.1, 0.1, 0.1, 0.1, 0.1, 0.1, 0.1, 0.1, 0.1, 0.1, 0.1, 0.1, 0.1, 3.904724716907459e-05, 0.1, 0.1, 0.1, 0.1, 0.1, 0.1, 0.1, 3.4710170079833394e-05, 0.1, 0.1, 0.1, 0.1, 0.1, 0.1, 0.1, 0.1, 0.1, 0.1, 0.1, 0.1, 0.1, 0.1, 0.1, 0.1, 0.1, 0.1, 0.1, 0.1, 0.1, 0.1, 0.1, 0.1, 0.1, 0.1, 0.1, 0.1, 0.1, 0.1, 0.1, 0.1, 0.1, 0.1, 0.1, 0.1, 0.1, 0.1, 0.1, 0.1, 0.1, 0.1, 0.1, 0.1, 0.1, 0.1, 0.1, 0.1, 0.1, 0.1, 0.1, 0.1, 5.205622071837586e-05, 0.1, 0.1, 0.1, 0.1, 0.1, 0.1, 0.1, 0.1, 0.1, 0.1, 0.1, 0.1, 0.1, 0.1, 0.1, 0.1, 0.1, 0.1, 0.1, 0.1, 0.1, 0.1, 0.1, 0.1, 0.1, 0.1, 0.1, 0.1, 0.1, 0.1, 0.1, 0.1, 0.1, 0.1, 0.1, 0.1, 0.1, 0.1, 0.1, 0.1, 0.1, 0.1, 7.806401249024198e-05, 0.1, 0.1, 0.1, 0.1, 0.00012484394506866414, 0.1, 0.0001248439450686642, 0.1, 0.00010405827263267427, 0.1, 0.1, 0.1, 0.1, 0.1, 0.1, 0.1, 0.1, 0.1, 7.806401249024203e-05, 0.1, 0.1, 0.1, 0.1, 0.1, 0.1, 0.1, 6.939625260235949e-05, 0.1, 0.1, 0.1, 0.1, 0.1, 0.1, 0.1, 0.1, 0.1, 0.1, 0.1, 0.1, 0.1, 0.1, 0.1, 0.1, 0.1, 0.1, 0.1, 0.1, 0.1, 0.1, 0.1, 0.1, 0.1, 0.1, 0.1, 0.1, 0.1, 0.1, 0.1, 0.1, 0.1, 0.1, 0.1, 0.1, 0.1, 0.1, 0.1, 0.1, 0.1, 0.1, 0.1, 0.1, 0.1, 0.1, 0.1, 0.1, 0.1, 0.1, 0.1, 0.1, 0.2497659906396255, 0.1, 0.1, 0.1, 0.1, 0.1, 0.1, 0.1, 0.1, 0.49958376690946926, 0.1, 0.1, 0.1, 0.1, 0.1, 8.920606601248884e-05, 0.1, 0.1, 0.1, 0.37478532396565184, 0.1, 0.1, 0.1, 0.1, 0.1, 0.1, 0.1, 0.1, 0.1, 6.246096189881325e-05, 6.246096189881325e-05, 0.1, 0.1, 0.1, 0.1, 0.1, 0.1, 0.1, 0.1, 0.1, 0.1, 0.1, 0.1, 0.1, 0.1, 0.1, 0.1, 0.1, 0.1, 0.1, 0.1, 0.1, 0.1, 0.1, 0.1, 0.1, 0.1, 0.1, 0.1, 0.1, 0.1, 0.1, 0.1, 0.1, 0.1, 0.1, 0.1, 0.1, 0.1, 0.1, 0.1, 0.1, 0.1, 0.1, 0.1, 0.1, 0.00020790020790020797, 0.1, 0.1, 0.1, 0.1, 0.1, 0.1, 0.1, 0.1, 0.1, 0.1, 0.1, 0.1, 0.1, 0.1, 0.1, 0.1, 0.1, 0.1, 0.1, 0.1, 0.1, 0.1, 0.1, 0.1, 0.1, 0.1, 0.1, 0.1, 0.1, 0.1, 0.1, 0.1, 0.1, 0.1, 0.1, 0.1, 0.1, 0.1, 0.1, 0.1, 0.1, 0.1, 0.1, 0.1, 0.1, 0.1, 0.1, 0.1, 0.1, 0.1, 4.4622936189201256e-05, 0.1, 0.1, 0.1, 0.1, 0.0666805497709288, 0.1, 0.1, 0.1, 0.1, 0.1, 0.1, 0.1, 0.1, 0.1, 0.1, 0.1, 0.1, 0.1, 0.1, 0.1, 0.1, 0.00031152647975077894, 0.1, 0.1, 0.1, 0.1, 0.00020790020790020794, 0.1, 0.1, 0.1, 0.1, 0.24976599063962562, 0.00015600624024960993, 0.1, 0.1, 0.1, 4.164931278633903e-05, 0.1, 0.1, 0.00012484394506866414, 0.1, 0.00010405827263267427, 0.1, 0.1, 0.1, 0.1, 0.1, 0.1, 0.1, 0.1, 0.1, 0.1, 0.1, 0.1, 0.1, 0.1, 0.1, 0.1, 0.1, 0.1, 0.1, 0.1, 0.1, 0.1, 0.1, 0.1, 0.1, 0.1, 0.1, 0.1, 0.1, 0.1, 0.1, 0.1, 0.1, 0.1, 0.1, 0.1, 0.1, 0.1, 0.1, 0.1, 0.1, 0.1, 0.1, 0.1, 0.1, 0.1, 0.1, 0.1, 0.1, 0.1, 0.1, 0.1, 0.1, 0.1, 0.1, 0.1, 0.1, 0.1, 0.1, 0.00015600624024960993, 0.1, 0.1, 0.00031152647975077894, 0.1, 0.00020790020790020797, 0.1, 0.1, 0.00020790020790020797, 0.1, 0.00015600624024960993, 0.1, 0.1, 0.1, 0.1, 0.1, 0.1, 0.1, 0.1, 0.1, 0.1, 0.1, 0.1, 0.1, 0.1, 0.1, 0.1, 0.1, 0.1, 0.1, 0.1, 0.1, 0.1, 0.1, 0.1, 0.1, 0.1, 0.1, 0.1, 0.1, 0.1, 0.1, 0.1, 0.1, 0.1, 0.1, 0.1, 0.1, 0.1, 0.1, 0.1, 0.1, 0.1, 0.1, 0.1, 0.1, 0.1, 0.1, 0.1, 0.1, 0.1, 0.1, 0.1, 0.1, 0.1, 0.1, 0.1, 0.1, 0.1, 0.1, 0.1, 0.1, 0.1, 0.1, 0.1, 0.1, 0.1, 0.1, 0.1, 0.1, 0.0003115264797507789, 0.00031152647975077894, 0.1, 0.1, 0.1, 3.4710170079833394e-05, 0.00020790020790020797, 0.1, 0.00020790020790020794, 0.1, 0.12498048399687749, 0.00015600624024961, 0.1, 0.00015600624024960993, 0.1, 0.1998751560549313, 0.1, 0.1, 0.00012484394506866414, 0.1, 0.1, 0.1, 0.1, 0.1, 0.1, 0.1, 0.1, 0.1, 0.1, 0.1, 0.1, 0.1, 0.1, 0.1, 0.1, 0.1, 0.1, 0.1, 0.1, 0.1, 0.1, 0.1, 0.1, 0.1, 0.1, 0.1, 0.1, 0.1, 0.1, 0.1, 0.1, 0.1, 0.1, 0.1, 0.1, 0.1, 0.1, 0.1, 0.1, 0.1, 0.1, 0.1, 0.1, 0.1, 0.1, 0.1, 0.1, 0.1, 0.1, 0.1, 0.1, 0.1, 0.1, 0.1, 0.1, 0.1, 0.1, 0.1, 0.1, 0.1, 0.1, 0.1, 0.1, 0.1, 0.1, 0.1, 0.1, 0.1, 0.1, 0.1, 0.1, 0.1, 0.1, 0.00015600624024960993, 0.1, 0.1, 0.1, 0.1, 0.1, 0.1, 0.1, 0.1, 0.1, 0.16659729448491153, 0.1, 0.1, 0.1, 0.1, 0.14281891168599464, 0.1, 0.12498048399687743, 0.1, 0.1, 0.1, 7.806401249024203e-05, 0.1, 0.1, 0.1, 0.1, 0.1, 0.1, 0.1, 0.1, 0.1, 0.1, 0.1, 0.1, 0.1, 0.1, 0.1, 0.1, 0.1, 0.1, 0.1, 0.1, 4.4622936189201256e-05, 0.1, 0.1, 0.1, 0.1, 4.164931278633903e-05, 0.1, 0.1, 0.1, 0.1, 0.1, 0.1, 0.1, 0.1, 0.1, 0.1, 0.1, 0.1, 0.1, 0.1, 0.1, 0.1, 0.1, 0.1, 0.1, 0.1, 0.1, 0.1, 0.1, 0.1, 0.1, 0.1, 0.1, 0.1, 0.1, 0.1, 0.1, 0.1, 0.1, 0.1, 0.1, 0.1, 0.1, 0.1, 0.1, 0.1, 0.1, 0.1, 0.1, 0.1, 0.1, 0.1, 0.1, 0.1, 0.1, 0.1, 0.1, 0.1, 0.1, 0.1, 0.1, 0.1, 0.1, 0.1, 0.1, 0.1, 0.1, 0.1, 0.1, 0.1, 0.1, 0.1, 0.1, 0.1, 0.1, 0.1, 0.1, 0.1, 0.1, 0.1, 0.1, 4.4622936189201256e-05, 0.1, 0.1, 0.1, 0.1, 0.1, 0.1, 0.1, 0.1, 0.1, 0.1, 0.1, 0.1, 0.1, 0.05883866225652335, 0.1, 0.1, 0.1, 0.1, 0.1, 0.1, 0.1, 0.1, 0.1, 0.1, 0.1, 0.1, 0.1, 0.1, 0.1, 0.1, 0.1, 0.1, 0.1, 0.1, 0.1, 0.1, 0.1, 0.1, 0.1, 0.1, 0.1, 0.1, 0.1, 0.1, 0.1, 0.1, 0.1, 0.1, 0.1, 0.1, 0.1, 0.1, 0.1, 0.1, 0.1, 0.1, 0.1, 0.1, 0.1, 0.1, 0.1, 0.1, 0.1, 0.1, 0.1, 0.1, 0.1, 0.1, 0.1, 0.1, 0.1, 0.1, 0.1, 0.1, 4.8053820278712165e-05, 0.15382027871215764, 2.4032684450853165e-05, 0.1, 0.1, 0.1, 0.1, 0.1, 0.1, 0.1, 0.1, 0.1, 0.1, 0.1, 0.1, 0.1, 3.904724716907459e-05, 0.1, 0.1, 0.1, 0.1, 0.1, 0.1, 0.1, 0.05557098229781327, 0.1, 0.1, 0.1, 0.1, 0.1, 0.1, 0.1, 0.1, 0.1, 0.1, 0.1, 0.1, 0.1, 0.1, 0.1, 0.1, 0.1, 0.1, 0.1, 0.1, 0.1, 0.1, 0.1, 0.1, 0.1, 0.1, 0.1, 0.1, 0.1, 0.1, 0.1, 0.1, 0.1, 0.1, 0.1, 0.1, 0.1, 0.1, 0.1, 0.1, 0.1, 0.1, 0.1, 0.1, 0.1, 0.1, 0.1, 0.1, 0.1, 0.1, 0.1, 0.1, 5.205622071837586e-05, 0.1, 0.1, 0.1, 0.1, 0.1, 0.1, 0.1, 0.1, 0.1, 0.1, 0.1, 0.1, 0.1, 0.1, 0.1, 0.1, 0.1, 0.1, 0.1, 0.1, 0.1, 0.1, 0.1, 0.1, 0.1, 0.1, 0.1, 0.1, 0.1, 0.1, 0.1, 0.1, 0.1, 0.1, 0.1, 0.1, 0.1, 0.1, 0.1, 0.1, 0.1, 0.1, 7.806401249024198e-05, 0.1, 0.1, 0.1, 0.1, 0.00012484394506866414, 0.1, 0.3996254681647941, 0.1, 0.00010405827263267427, 0.1, 0.1, 0.1, 0.1, 0.1, 0.1, 0.1, 0.1, 0.1, 7.806401249024203e-05, 0.1, 0.1, 0.1, 0.1, 0.1, 0.1, 0.1, 6.939625260235949e-05, 0.1, 0.1, 0.1, 0.1, 0.1, 0.1, 0.1, 0.1, 0.1, 0.1, 0.1, 0.1, 0.1, 0.1, 0.1, 0.1, 0.1, 0.1, 0.1, 0.1, 0.1, 0.1, 0.1, 0.1, 0.1, 0.1, 0.1, 0.1, 0.1, 0.1, 0.1, 0.1, 0.1, 0.1, 0.1, 0.1, 0.1, 0.1, 0.1, 0.1, 0.1, 0.1, 0.1, 0.1, 0.1, 0.1, 0.1, 0.1, 0.1, 0.1, 0.1, 0.1, 0.00015600624024960993, 0.1, 0.1, 0.1, 0.1, 0.1, 0.1, 0.1, 0.1, 0.00010405827263267429, 0.1, 0.1, 0.1, 0.1, 0.1, 8.920606601248884e-05, 0.1, 0.1, 0.1, 7.8064012490242e-05, 0.1, 0.1, 0.1, 0.1, 0.1, 0.1, 0.1, 0.1, 0.1, 6.246096189881325e-05, 6.246096189881325e-05, 0.1, 0.1, 0.1, 0.1, 0.1, 0.1, 0.1, 0.1, 0.1, 0.1, 0.1, 0.1, 0.1, 0.1, 0.1, 0.1, 0.1, 0.1, 0.1, 0.1, 0.1, 0.1, 0.1, 0.1, 0.1, 0.1, 0.1, 0.1, 0.1, 0.1, 0.1, 0.1, 0.1, 0.1, 0.1, 0.1, 0.1, 0.1, 0.1, 0.1, 0.1, 0.1, 0.1, 0.1, 0.1, 0.00020790020790020797, 0.1, 0.1, 0.1, 0.1, 0.1, 0.1, 0.1, 0.1, 0.1, 0.1, 0.1, 0.1, 0.1, 0.1, 0.1, 0.1, 0.1, 0.1, 0.1, 0.1, 0.1, 0.1, 0.1, 0.1, 0.1, 0.1, 0.1, 0.1, 0.1, 0.1, 0.1, 0.1, 0.1, 0.1, 0.1, 0.1, 0.1, 0.1, 0.1, 0.1, 0.1, 0.1, 0.1, 0.1, 0.1, 0.1, 0.1, 0.1, 0.1, 0.1, 4.4622936189201256e-05, 0.1, 0.1, 0.1, 0.1, 4.164931278633903e-05, 0.1, 0.1, 0.1, 0.1, 0.1, 0.1, 0.1, 0.1, 0.1, 0.1, 0.1, 0.1, 0.1, 0.1, 0.1, 0.1, 0.00031152647975077894, 0.1, 0.1, 0.1, 0.1, 0.00020790020790020794, 0.1, 0.1, 0.1, 0.1, 0.00015600624024961, 0.2497659906396255, 0.1, 0.1, 0.1, 4.164931278633903e-05, 0.1, 0.1, 0.00012484394506866414, 0.1, 0.00010405827263267427, 0.1, 0.1, 0.1, 0.1, 0.1, 0.1, 0.1, 0.1, 0.1, 0.1, 0.1, 0.1, 0.1, 0.1, 0.1, 0.1, 0.1, 0.1, 0.1, 0.1, 0.1, 0.1, 0.1, 0.1, 0.1, 0.1, 0.1, 0.1, 0.1, 0.1, 0.1, 0.1, 0.1, 0.1, 0.1, 0.1, 0.1, 0.1, 0.1, 0.1, 0.1, 0.1, 0.1, 0.1, 0.1, 0.1, 0.1, 0.1, 0.1, 0.1, 0.1, 0.1, 0.1, 0.1, 0.1, 0.1, 0.1, 0.1, 0.1, 0.00015600624024960993, 0.1, 0.1, 0.00031152647975077894, 0.1, 0.00020790020790020797, 0.1, 0.1, 0.00020790020790020797, 0.1, 0.00015600624024960993, 0.1, 0.1, 0.1, 0.1, 0.1, 0.1, 0.1, 0.1, 0.1, 0.1, 0.1, 0.1, 0.1, 0.1, 0.1, 0.1, 0.1, 0.1, 0.1, 0.1, 0.1, 0.1, 0.1, 0.1, 0.1, 0.1, 0.1, 0.1, 0.1, 0.1, 0.1, 0.1, 0.1, 0.1, 0.1, 0.1, 0.1, 0.1, 0.1, 0.1, 0.1, 0.1, 0.1, 0.1, 0.1, 0.1, 0.1, 0.1, 0.1, 0.1, 0.1, 0.1, 0.1, 0.1, 0.1, 0.1, 0.1, 0.1, 0.1, 0.1, 0.1, 0.1, 0.1, 0.1, 0.1, 0.1, 0.1, 0.1, 0.1, 0.0003115264797507789, 0.00031152647975077894, 0.1, 0.1, 0.1, 3.4710170079833394e-05, 0.00020790020790020797, 0.1, 0.00020790020790020794, 0.1, 0.2498829039812647, 0.00015600624024961, 0.1, 0.00015600624024960993, 0.1, 0.00012484394506866414, 0.1, 0.1, 0.3996254681647939, 0.1, 0.1, 0.1, 0.1, 0.1, 0.1, 0.1, 0.1, 0.1, 0.1, 0.1, 0.1, 0.1, 0.1, 0.1, 0.1, 0.1, 0.1, 0.1, 0.1, 0.1, 0.1, 0.1, 0.1, 0.1, 0.1, 0.1, 0.1, 0.1, 0.1, 0.1, 0.1, 0.1, 0.1, 0.1, 0.1, 0.1, 0.1, 0.1, 0.1, 0.1, 0.1, 0.1, 0.1, 0.1, 0.1, 0.1, 0.1, 0.1, 0.1, 0.1, 0.1, 0.1, 0.1, 0.1, 0.1, 0.1, 0.1, 0.1, 0.1, 0.1, 0.1, 0.1, 0.1, 0.1, 0.1, 0.1, 0.1, 0.1, 0.1, 0.1, 0.1, 0.1, 0.1, 0.00015600624024960993, 0.1, 0.1, 0.1, 0.1, 0.1, 0.1, 0.1, 0.1, 0.1, 0.00010405827263267427, 0.1, 0.1, 0.1, 0.1, 8.920606601248884e-05, 0.1, 0.12498048399687743, 0.1, 0.1, 0.1, 7.806401249024203e-05, 0.1, 0.1, 0.1, 0.1, 0.1, 0.1, 0.1, 0.1, 0.1, 0.1, 0.1, 0.1, 0.1, 0.1, 0.1, 0.1, 0.1, 0.1, 0.1, 0.1, 4.4622936189201256e-05, 0.1, 0.1, 0.1, 0.1, 4.164931278633903e-05, 0.1, 0.1, 0.1, 0.1, 0.1, 0.1, 0.1, 0.1, 0.1, 0.1, 0.1, 0.1, 0.1, 0.1, 0.1, 0.1, 0.1, 0.1, 0.1, 0.1, 0.1, 0.1, 0.1, 0.1, 0.1, 0.1, 0.1, 0.1, 0.1, 0.1, 0.1, 0.1, 0.1, 0.1, 0.1, 0.1, 0.1, 0.1, 0.1, 0.1, 0.1, 0.1, 0.1, 0.1, 0.1, 0.1, 0.1, 0.1, 0.1, 0.1, 0.1, 0.1, 0.1, 0.1, 0.1, 0.1, 0.1, 0.1, 0.1, 0.1, 0.1, 0.1, 0.1, 0.1, 0.1, 0.1, 0.1, 0.1, 0.1, 0.1, 0.1, 0.1, 0.1, 0.1, 0.1, 0.07144132083891122, 0.1, 0.1, 0.1, 0.1, 0.1, 0.1, 0.1, 0.1, 0.1, 0.1, 0.1, 0.1, 0.1, 3.675119441381845e-05, 0.1, 0.1, 0.1, 0.1, 0.1, 0.1, 0.1, 0.1, 0.1, 0.1, 0.1, 0.1, 0.1, 0.1, 0.1, 0.1, 0.1, 0.1, 0.1, 0.1, 0.1, 0.1, 0.1, 0.1, 0.1, 0.1, 0.1, 0.1, 0.1, 0.1, 0.1, 0.1, 0.1, 0.1, 0.1, 0.1, 0.1, 0.1, 0.1, 0.1, 0.1, 0.1, 0.1, 0.1, 0.1, 0.1, 0.1, 0.1, 0.1, 0.1, 0.1, 0.1, 0.1, 0.1, 0.1, 0.1, 0.1, 0.1, 0.1, 0.1, 4.8053820278712165e-05, 4.8053820278712165e-05, 2.4032684450853165e-05, 0.1, 0.1, 0.1, 0.1, 0.1, 0.1, 0.1, 0.1, 0.1, 0.1, 0.1, 0.1, 0.1, 3.904724716907459e-05, 0.1, 0.1, 0.1, 0.1, 0.1, 0.1, 0.1, 0.05557098229781327, 0.1, 0.1, 0.1, 0.1, 0.1, 0.1, 0.1, 0.1, 0.1, 0.1, 0.1, 0.1, 0.1, 0.1, 0.1, 0.1, 0.1, 0.1, 0.1, 0.1, 0.1, 0.1, 0.1, 0.1, 0.1, 0.1, 0.1, 0.1, 0.1, 0.1, 0.1, 0.1, 0.1, 0.1, 0.1, 0.1, 0.1, 0.1, 0.1, 0.1, 0.1, 0.1, 0.1, 0.1, 0.1, 0.1, 0.1, 0.1, 0.1, 0.1, 0.1, 0.1, 5.205622071837586e-05, 0.1, 0.1, 0.1, 0.1, 0.1, 0.1, 0.1, 0.1, 0.1, 0.1, 0.1, 0.1, 0.1, 0.1, 0.1, 0.1, 0.1, 0.1, 0.1, 0.1, 0.1, 0.1, 0.1, 0.1, 0.1, 0.1, 0.1, 0.1, 0.1, 0.1, 0.1, 0.1, 0.1, 0.1, 0.1, 0.1, 0.1, 0.1, 0.1, 0.1, 0.1, 0.1, 7.806401249024198e-05, 0.1, 0.1, 0.1, 0.1, 0.00012484394506866414, 0.1, 0.0001248439450686642, 0.1, 0.00010405827263267427, 0.1, 0.1, 0.1, 0.1, 0.1, 0.1, 0.1, 0.1, 0.1, 0.12498048399687749, 0.1, 0.1, 0.1, 0.1, 0.1, 0.1, 0.1, 0.22213740458015271, 0.1, 0.1, 0.1, 0.1, 0.1, 0.1, 0.1, 0.1, 0.1, 0.1, 0.1, 0.1, 0.1, 0.1, 0.1, 0.1, 0.1, 0.1, 0.1, 0.1, 0.1, 0.1, 0.1, 0.1, 0.1, 0.1, 0.1, 0.1, 0.1, 0.1, 0.1, 0.1, 0.1, 0.1, 0.1, 0.1, 0.1, 0.1, 0.1, 0.1, 0.1, 0.1, 0.1, 0.1, 0.1, 0.1, 0.1, 0.1, 0.1, 0.1, 0.1, 0.1, 0.00015600624024960993, 0.1, 0.1, 0.1, 0.1, 0.1, 0.1, 0.1, 0.1, 0.00010405827263267429, 0.1, 0.1, 0.1, 0.1, 0.1, 0.42827832292595885, 0.1, 0.1, 0.1, 7.8064012490242e-05, 0.1, 0.1, 0.1, 0.1, 0.1, 0.1, 0.1, 0.1, 0.1, 6.246096189881325e-05, 6.246096189881325e-05, 0.1, 0.1, 0.1, 0.1, 0.1, 0.1, 0.1, 0.1, 0.1, 0.1, 0.1, 0.1, 0.1, 0.1, 0.1, 0.1, 0.1, 0.1, 0.1, 0.1, 0.1, 0.1, 0.1, 0.1, 0.1, 0.1, 0.1, 0.1, 0.1, 0.1, 0.1, 0.1, 0.1, 0.1, 0.1, 0.1, 0.1, 0.1, 0.1, 0.1, 0.1, 0.1, 0.1, 0.1, 0.1, 0.00020790020790020797, 0.1, 0.1, 0.1, 0.1, 0.1, 0.1, 0.1, 0.1, 0.1, 0.1, 0.1, 0.1, 0.1, 0.1, 0.1, 0.1, 0.1, 0.1, 0.1, 0.1, 0.1, 0.1, 0.1, 0.1, 0.1, 0.1, 0.1, 0.1, 0.1, 0.1, 0.1, 0.1, 0.1, 0.1, 0.1, 0.1, 0.1, 0.1, 0.1, 0.1, 0.1, 0.1, 0.1, 0.1, 0.1, 0.1, 0.1, 0.1, 0.1, 0.1, 0.28563141454707724, 0.1, 0.1, 0.1, 0.1, 4.164931278633903e-05, 0.1, 0.1, 0.1, 0.1, 0.1, 0.1, 0.1, 0.1, 0.1, 0.1, 0.1, 0.1, 0.1, 0.1, 0.1, 0.1, 0.00031152647975077894, 0.1, 0.1, 0.1, 0.1, 0.00020790020790020794, 0.1, 0.1, 0.1, 0.1, 0.00015600624024961, 0.00015600624024960993, 0.1, 0.1, 0.1, 0.13331945022907124, 0.1, 0.1, 0.00012484394506866414, 0.1, 0.00010405827263267427, 0.1, 0.1, 0.1, 0.1, 0.1, 0.1, 0.1, 0.1, 0.1, 0.1, 0.1, 0.1, 0.1, 0.1, 0.1, 0.1, 0.1, 0.1, 0.1, 0.1, 0.1, 0.1, 0.1, 0.1, 0.1, 0.1, 0.1, 0.1, 0.1, 0.1, 0.1, 0.1, 0.1, 0.1, 0.1, 0.1, 0.1, 0.1, 0.1, 0.1, 0.1, 0.1, 0.1, 0.1, 0.1, 0.1, 0.1, 0.1, 0.1, 0.1, 0.1, 0.1, 0.1, 0.1, 0.1, 0.1, 0.1, 0.1, 0.1, 0.00015600624024960993, 0.1, 0.1, 0.00031152647975077894, 0.1, 0.00020790020790020797, 0.1, 0.1, 0.00020790020790020797, 0.1, 0.2497659906396255, 0.1, 0.1, 0.1, 0.1, 0.1, 0.1, 0.1, 0.1, 0.1, 0.1, 0.1, 0.1, 0.1, 0.1, 0.1, 0.1, 0.1, 0.1, 0.1, 0.1, 0.1, 0.1, 0.1, 0.1, 0.1, 0.1, 0.1, 0.1, 0.1, 0.1, 0.1, 0.1, 0.1, 0.1, 0.1, 0.1, 0.1, 0.1, 0.1, 0.1, 0.1, 0.1, 0.1, 0.1, 0.1, 0.1, 0.1, 0.1, 0.1, 0.1, 0.1, 0.1, 0.1, 0.1, 0.1, 0.1, 0.1, 0.1, 0.1, 0.1, 0.1, 0.1, 0.1, 0.1, 0.1, 0.1, 0.1, 0.1, 0.1, 0.0003115264797507789, 0.00031152647975077894, 0.1, 0.1, 0.1, 0.16664352655328013, 0.00020790020790020797, 0.1, 0.00020790020790020794, 0.1, 0.12498048399687749, 0.00015600624024961, 0.1, 0.2497659906396255, 0.1, 0.1998751560549313, 0.1, 0.1, 0.00012484394506866414, 0.1, 0.1, 0.1, 0.1, 0.1, 0.1, 0.1, 0.1, 0.1, 0.1, 0.1, 0.1, 0.1, 0.1, 0.1, 0.1, 0.1, 0.1, 0.1, 0.1, 0.1, 0.1, 0.1, 0.1, 0.1, 0.1, 0.1, 0.1, 0.1, 0.1, 0.1, 0.1, 0.1, 0.1, 0.1, 0.1, 0.1, 0.1, 0.1, 0.1, 0.1, 0.1, 0.1, 0.1, 0.1, 0.1, 0.1, 0.1, 0.1, 0.1, 0.1, 0.1, 0.1, 0.1, 0.1, 0.1, 0.1, 0.1, 0.1, 0.1, 0.1, 0.1, 0.1, 0.1, 0.1, 0.1, 0.1, 0.1, 0.1, 0.1, 0.1, 0.1, 0.1, 0.1, 0.00015600624024960993, 0.1, 0.1, 0.1, 0.1, 0.1, 0.1, 0.1, 0.1, 0.1, 0.00010405827263267427, 0.1, 0.1, 0.1, 0.1, 8.920606601248884e-05, 0.1, 7.806401249024198e-05, 0.1, 0.1, 0.1, 7.806401249024203e-05, 0.1, 0.1, 0.1, 0.1, 0.1, 0.1, 0.1, 0.1, 0.1, 0.1, 0.1, 0.1, 0.1, 0.1, 0.1, 0.1, 0.1, 0.1, 0.1, 0.1, 4.4622936189201256e-05, 0.1, 0.1, 0.1, 0.1, 4.164931278633903e-05, 0.1, 0.1, 0.1, 0.1, 0.1, 0.1, 0.1, 0.1, 0.1, 0.1, 0.1, 0.1, 0.1, 0.1, 0.1, 0.1, 0.1, 0.1, 0.1, 0.1, 0.1, 0.1, 0.1, 0.1, 0.1, 0.1, 0.1, 0.1, 0.1, 0.1, 0.1, 0.1, 0.1, 0.1, 0.1, 0.1, 0.1, 0.1, 0.1, 0.1, 0.1, 0.1, 0.1, 0.1, 0.1, 0.1, 0.1, 0.1, 0.1, 0.1, 0.1, 0.1, 0.1, 0.1, 0.1, 0.1, 0.1, 0.1, 0.1, 0.1, 0.1, 0.1, 0.1, 0.1, 0.1, 0.1, 0.1, 0.1, 0.1, 0.1, 0.1, 0.1, 0.1, 0.1, 0.1, 4.4622936189201256e-05, 0.1, 0.1, 0.1, 0.1, 0.1, 0.1, 0.1, 0.1, 0.1, 0.1, 0.1, 0.1, 0.1, 0.11764057331863287, 0.1, 0.1, 0.1, 0.1, 0.1, 0.1, 0.1, 0.1, 0.1, 0.1, 0.1, 0.1, 0.1, 0.1, 0.1, 0.1, 0.1, 0.1, 0.1, 0.1, 0.1, 0.1, 0.1, 0.1, 0.1, 0.1, 0.1, 0.1, 0.1, 0.1, 0.1, 0.1, 0.1, 0.1, 0.1, 0.1, 0.1, 0.1, 0.1, 0.1, 0.1, 0.1, 0.1, 0.1, 0.1, 0.1, 0.1, 0.1, 0.1, 0.1, 0.1, 0.1, 0.1, 0.1, 0.1, 0.1, 0.1, 0.1, 0.1, 0.1, 4.8053820278712165e-05, 4.8053820278712165e-05, 0.03847632780581592, 0.1, 0.1, 0.1, 0.1, 0.1, 0.1, 0.1, 0.1, 0.1, 0.1, 0.1, 0.1, 0.1, 3.904724716907459e-05, 0.1, 0.1, 0.1, 0.1, 0.1, 0.1, 0.1, 0.05557098229781327, 0.1, 0.1, 0.1, 0.1, 0.1, 0.1, 0.1, 0.1, 0.1, 0.1, 0.1, 0.1, 0.1, 0.1, 0.1, 0.1, 0.1, 0.1, 0.1, 0.1, 0.1, 0.1, 0.1, 0.1, 0.1, 0.1, 0.1, 0.1, 0.1, 0.1, 0.1, 0.1, 0.1, 0.1, 0.1, 0.1, 0.1, 0.1, 0.1, 0.1, 0.1, 0.1, 0.1, 0.1, 0.1, 0.1, 0.1, 0.1, 0.1, 0.1, 0.1, 0.1, 5.205622071837586e-05, 0.1, 0.1, 0.1, 0.1, 0.1, 0.1, 0.1, 0.1, 0.1, 0.1, 0.1, 0.1, 0.1, 0.1, 0.1, 0.1, 0.1, 0.1, 0.1, 0.1, 0.1, 0.1, 0.1, 0.1, 0.1, 0.1, 0.1, 0.1, 0.1, 0.1, 0.1, 0.1, 0.1, 0.1, 0.1, 0.1, 0.1, 0.1, 0.1, 0.1, 0.1, 0.1, 7.806401249024198e-05, 0.1, 0.1, 0.1, 0.1, 0.00012484394506866414, 0.1, 0.0001248439450686642, 0.1, 0.00010405827263267427, 0.1, 0.1, 0.1, 0.1, 0.1, 0.1, 0.1, 0.1, 0.1, 7.806401249024203e-05, 0.1, 0.1, 0.1, 0.1, 0.1, 0.1, 0.1, 6.939625260235949e-05, 0.1, 0.1, 0.1, 0.1, 0.1, 0.1, 0.1, 0.1, 0.1, 0.1, 0.1, 0.1, 0.1, 0.1, 0.1, 0.1, 0.1, 0.1, 0.1, 0.1, 0.1, 0.1, 0.1, 0.1, 0.1, 0.1, 0.1, 0.1, 0.1, 0.1, 0.1, 0.1, 0.1, 0.1, 0.1, 0.1, 0.1, 0.1, 0.1, 0.1, 0.1, 0.1, 0.1, 0.1, 0.1, 0.1, 0.1, 0.1, 0.1, 0.1, 0.1, 0.1, 0.00015600624024960993, 0.1, 0.1, 0.1, 0.1, 0.1, 0.1, 0.1, 0.1, 0.00010405827263267429, 0.1, 0.1, 0.1, 0.1, 0.1, 8.920606601248884e-05, 0.1, 0.1, 0.1, 7.8064012490242e-05, 0.1, 0.1, 0.1, 0.1, 0.1, 0.1, 0.1, 0.1, 0.1, 6.246096189881325e-05, 6.246096189881325e-05, 0.1, 0.1, 0.1, 0.1, 0.1, 0.1, 0.1, 0.1, 0.1, 0.1, 0.1, 0.1, 0.1, 0.1, 0.1, 0.1, 0.1, 0.1, 0.1, 0.1, 0.1, 0.1, 0.1, 0.1, 0.1, 0.1, 0.1, 0.1, 0.1, 0.1, 0.1, 0.1, 0.1, 0.1, 0.1, 0.1, 0.1, 0.1, 0.1, 0.1, 0.1, 0.1, 0.1, 0.1, 0.1, 0.00020790020790020797, 0.1, 0.1, 0.1, 0.1, 0.1, 0.1, 0.1, 0.1, 0.1, 0.1, 0.1, 0.1, 0.1, 0.1, 0.1, 0.1, 0.1, 0.1, 0.1, 0.1, 0.1, 0.1, 0.1, 0.1, 0.1, 0.1, 0.1, 0.1, 0.1, 0.1, 0.1, 0.1, 0.1, 0.1, 0.1, 0.1, 0.1, 0.1, 0.1, 0.1, 0.1, 0.1, 0.1, 0.1, 0.1, 0.1, 0.1, 0.1, 0.1, 0.1, 0.1428380187416332, 0.1, 0.1, 0.1, 0.1, 4.164931278633903e-05, 0.1, 0.1, 0.1, 0.1, 0.1, 0.1, 0.1, 0.1, 0.1, 0.1, 0.1, 0.1, 0.1, 0.1, 0.1, 0.1, 0.00031152647975077894, 0.1, 0.1, 0.1, 0.1, 0.00020790020790020794, 0.1, 0.1, 0.1, 0.1, 0.00015600624024961, 0.00015600624024960993, 0.1, 0.1, 0.1, 4.164931278633903e-05, 0.1, 0.1, 0.1998751560549313, 0.1, 0.16659729448491153, 0.1, 0.1, 0.1, 0.1, 0.1, 0.1, 0.1, 0.1, 0.1, 0.1, 0.1, 0.1, 0.1, 0.1, 0.1, 0.1, 0.1, 0.1, 0.1, 0.1, 0.1, 0.1, 0.1, 0.1, 0.1, 0.1, 0.1, 0.1, 0.1, 0.1, 0.1, 0.1, 0.1, 0.1, 0.1, 0.1, 0.1, 0.1, 0.1, 0.1, 0.1, 0.1, 0.1, 0.1, 0.1, 0.1, 0.1, 0.1, 0.1, 0.1, 0.1, 0.1, 0.1, 0.1, 0.1, 0.1, 0.1, 0.1, 0.1, 0.00015600624024960993, 0.1, 0.1, 0.00031152647975077894, 0.1, 0.00020790020790020797, 0.1, 0.1, 0.6654885654885656, 0.1, 0.00015600624024960993, 0.1, 0.1, 0.1, 0.1, 0.1, 0.1, 0.1, 0.1, 0.1, 0.1, 0.1, 0.1, 0.1, 0.1, 0.1, 0.1, 0.1, 0.1, 0.1, 0.1, 0.1, 0.1, 0.1, 0.1, 0.1, 0.1, 0.1, 0.1, 0.1, 0.1, 0.1, 0.1, 0.1, 0.1, 0.1, 0.1, 0.1, 0.1, 0.1, 0.1, 0.1, 0.1, 0.1, 0.1, 0.1, 0.1, 0.1, 0.1, 0.1, 0.1, 0.1, 0.1, 0.1, 0.1, 0.1, 0.1, 0.1, 0.1, 0.1, 0.1, 0.1, 0.1, 0.1, 0.1, 0.1, 0.1, 0.1, 0.1, 0.1, 0.498753894080997, 0.00031152647975077894, 0.1, 0.1, 0.1, 0.2221797986810136, 0.00020790020790020797, 0.1, 0.00020790020790020794, 0.1, 0.2498829039812647, 0.00015600624024961, 0.1, 0.00015600624024960993, 0.1, 0.00012484394506866414, 0.1, 0.1, 0.00012484394506866414, 0.1, 0.1, 0.1, 0.1, 0.1, 0.1, 0.1, 0.1, 0.1, 0.1, 0.1, 0.1, 0.1, 0.1, 0.1, 0.1, 0.1, 0.1, 0.1, 0.1, 0.1, 0.1, 0.1, 0.1, 0.1, 0.1, 0.1, 0.1, 0.1, 0.1, 0.1, 0.1, 0.1, 0.1, 0.1, 0.1, 0.1, 0.1, 0.1, 0.1, 0.1, 0.1, 0.1, 0.1, 0.1, 0.1, 0.1, 0.1, 0.1, 0.1, 0.1, 0.1, 0.1, 0.1, 0.1, 0.1, 0.1, 0.1, 0.1, 0.1, 0.1, 0.1, 0.1, 0.1, 0.1, 0.1, 0.1, 0.1, 0.1, 0.1, 0.1, 0.1, 0.1, 0.1, 0.00015600624024960993, 0.1, 0.1, 0.1, 0.1, 0.1, 0.1, 0.1, 0.1, 0.1, 0.16659729448491153, 0.1, 0.1, 0.1, 0.1, 0.42827832292595885, 0.1, 7.806401249024198e-05, 0.1, 0.1, 0.1, 0.49968774395003923, 0.1, 0.1, 0.1, 0.1, 0.1, 0.1, 0.1, 0.1, 0.1, 0.1, 0.1, 0.1, 0.1, 0.1, 0.1, 0.1, 0.1, 0.1, 0.1, 0.1, 0.21423471664435523, 0.1, 0.1, 0.1, 0.1, 4.164931278633903e-05, 0.1, 0.1, 0.1, 0.1, 0.1, 0.1, 0.1, 0.1, 0.1, 0.1, 0.1, 0.1, 0.1, 0.1, 0.1, 0.1, 0.1, 0.1, 0.1, 0.1, 0.1, 0.1, 0.1, 0.1, 0.1, 0.1, 0.1, 0.1, 0.1, 0.1, 0.1, 0.1, 0.1, 0.1, 0.1, 0.1, 0.1, 0.1, 0.1, 0.1, 0.1, 0.1, 0.1, 0.1, 0.1, 0.1, 0.1, 0.1, 0.1, 0.1, 0.1, 0.1, 0.1, 0.1, 0.1, 0.1, 0.1, 0.1, 0.1, 0.1, 0.1, 0.1, 0.1, 0.1, 0.1, 0.1, 0.1, 0.1, 0.1, 0.1, 0.1, 0.1, 0.1, 0.1, 0.1, 4.4622936189201256e-05, 0.1, 0.1, 0.1, 0.1, 0.1, 0.1, 0.1, 0.1, 0.1, 0.1, 0.1, 0.1, 0.1, 0.05883866225652335, 0.1, 0.1, 0.1, 0.1, 0.1, 0.1, 0.1, 0.1, 0.1, 0.1, 0.1, 0.1, 0.1, 0.1, 0.1, 0.1, 0.1, 0.1, 0.1, 0.1, 0.1, 0.1, 0.1, 0.1, 0.1, 0.1, 0.1, 0.1, 0.1, 0.1, 0.1, 0.1, 0.1, 0.1, 0.1, 0.1, 0.1, 0.1, 0.1, 0.1, 0.1, 0.1, 0.1, 0.1, 0.1, 0.1, 0.1, 0.1, 0.1, 0.1, 0.1, 0.1, 0.1, 0.1, 0.1, 0.1, 0.1, 0.1, 0.1, 0.1, 0.6151369533877944, 0.3075925036040366, 0.3845469838981015, 0.1, 0.1, 0.1, 0.1, 0.1, 0.1, 0.1, 0.1, 0.1, 0.1, 0.1, 0.1, 0.1, 0.6247950019523624, 0.1, 0.1, 0.1, 0.1, 0.1, 0.1, 0.1, 0.33325234293648043, 0.1, 0.1, 0.1, 0.1, 0.1, 0.1, 0.1, 0.1, 0.1, 0.1, 0.1, 0.1, 0.1, 0.1, 0.1, 0.1, 0.1, 0.1, 0.1, 0.1, 0.1, 0.1, 0.1, 0.1, 0.1, 0.1, 0.1, 0.1, 0.1, 0.1, 0.1, 0.1, 0.1, 0.1, 0.1, 0.1, 0.1, 0.1, 0.1, 0.1, 0.1, 0.1, 0.1, 0.1, 0.1, 0.1, 0.1, 0.1, 0.1, 0.1, 0.1, 0.1, 5.205622071837586e-05, 0.1, 0.1, 0.1, 0.1, 0.1, 0.1, 0.1, 0.1, 0.1, 0.1, 0.1, 0.1, 0.1, 0.1, 0.1, 0.1, 0.1, 0.1, 0.1, 0.1, 0.1, 0.1, 0.1, 0.1, 0.1, 0.1, 0.1, 0.1, 0.1, 0.1, 0.1, 0.1, 0.1, 0.1, 0.1, 0.1, 0.1, 0.1, 0.1, 0.1, 0.1, 0.1, 0.499687743950039, 0.1, 0.1, 0.1, 0.1, 0.5993757802746564, 0.1, 0.0001248439450686642, 0.1, 0.00010405827263267427, 0.1, 0.1, 0.1, 0.1, 0.1, 0.1, 0.1, 0.1, 0.1, 0.2498829039812647, 0.1, 0.1, 0.1, 0.1, 0.1, 0.1, 0.1, 0.22213740458015271, 0.1, 0.1, 0.1, 0.1, 0.1, 0.1, 0.1, 0.1, 0.1, 0.1, 0.1, 0.1, 0.1, 0.1, 0.1, 0.1, 0.1, 0.1, 0.1, 0.1, 0.1, 0.1, 0.1, 0.1, 0.1, 0.1, 0.1, 0.1, 0.1, 0.1, 0.1, 0.1, 0.1, 0.1, 0.1, 0.1, 0.1, 0.1, 0.1, 0.1, 0.1, 0.1, 0.1, 0.1, 0.1, 0.1, 0.1, 0.1, 0.1, 0.1, 0.1, 0.1, 0.00015600624024960993, 0.1, 0.1, 0.1, 0.1, 0.1, 0.1, 0.1, 0.1, 0.00010405827263267429, 0.1, 0.1, 0.1, 0.1, 0.1, 0.28554861730597675, 0.1, 0.1, 0.1, 7.8064012490242e-05, 0.1, 0.1, 0.1, 0.1, 0.1, 0.1, 0.1, 0.1, 0.1, 0.29987507807620245, 0.5996876951905061, 0.1, 0.1, 0.1, 0.1, 0.1, 0.1, 0.1, 0.1, 0.1, 0.1, 0.1, 0.1, 0.1, 0.1, 0.1, 0.1, 0.1, 0.1, 0.1, 0.1, 0.1, 0.1, 0.1, 0.1, 0.1, 0.1, 0.1, 0.1, 0.1, 0.1, 0.1, 0.1, 0.1, 0.1, 0.1, 0.1, 0.1, 0.1, 0.1, 0.1, 0.1, 0.1, 0.1, 0.1, 0.1, 0.9981288981288984, 0.1, 0.1, 0.1, 0.1, 0.1, 0.1, 0.1, 0.1, 0.1, 0.1, 0.1, 0.1, 0.1, 0.1, 0.1, 0.1, 0.1, 0.1, 0.1, 0.1, 0.1, 0.1, 0.1, 0.1, 0.1, 0.1, 0.1, 0.1, 0.1, 0.1, 0.1, 0.1, 0.1, 0.1, 0.1, 0.1, 0.1, 0.1, 0.1, 0.1, 0.1, 0.1, 0.1, 0.1, 0.1, 0.1, 0.1, 0.1, 0.1, 0.1, 0.07144132083891122, 0.1, 0.1, 0.1, 0.1, 0.5997917534360684, 0.1, 0.1, 0.1, 0.1, 0.1, 0.1, 0.1, 0.1, 0.1, 0.1, 0.1, 0.1, 0.1, 0.1, 0.1, 0.1, 0.9971962616822433, 0.1, 0.1, 0.1, 0.1, 0.00020790020790020794, 0.1, 0.1, 0.1, 0.1, 0.00015600624024961, 0.00015600624024960993, 0.1, 0.1, 0.1, 0.26659725114535615, 0.1, 0.1, 0.1998751560549313, 0.1, 0.00010405827263267427, 0.1, 0.1, 0.1, 0.1, 0.1, 0.1, 0.1, 0.1, 0.1, 0.1, 0.1, 0.1, 0.1, 0.1, 0.1, 0.1, 0.1, 0.1, 0.1, 0.1, 0.1, 0.1, 0.1, 0.1, 0.1, 0.1, 0.1, 0.1, 0.1, 0.1, 0.1, 0.1, 0.1, 0.1, 0.1, 0.1, 0.1, 0.1, 0.1, 0.1, 0.1, 0.1, 0.1, 0.1, 0.1, 0.1, 0.1, 0.1, 0.1, 0.1, 0.1, 0.1, 0.1, 0.1, 0.1, 0.1, 0.1, 0.1, 0.1, 0.7489859594383772, 0.1, 0.1, 0.00031152647975077894, 0.1, 0.00020790020790020797, 0.1, 0.1, 0.33284823284823295, 0.1, 0.00015600624024960993, 0.1, 0.1, 0.1, 0.1, 0.1, 0.1, 0.1, 0.1, 0.1, 0.1, 0.1, 0.1, 0.1, 0.1, 0.1, 0.1, 0.1, 0.1, 0.1, 0.1, 0.1, 0.1, 0.1, 0.1, 0.1, 0.1, 0.1, 0.1, 0.1, 0.1, 0.1, 0.1, 0.1, 0.1, 0.1, 0.1, 0.1, 0.1, 0.1, 0.1, 0.1, 0.1, 0.1, 0.1, 0.1, 0.1, 0.1, 0.1, 0.1, 0.1, 0.1, 0.1, 0.1, 0.1, 0.1, 0.1, 0.1, 0.1, 0.1, 0.1, 0.1, 0.1, 0.1, 0.1, 0.1, 0.1, 0.1, 0.1, 0.1, 0.498753894080997, 0.9971962616822433, 0.1, 0.1, 0.1, 0.49986115931968067, 0.9981288981288984, 0.1, 0.6654885654885655, 0.1, 0.2498829039812647, 0.49937597503900155, 0.1, 0.7489859594383772, 0.1, 0.5993757802746564, 0.1, 0.1, 0.5993757802746564, 0.1, 0.1, 0.1, 0.1, 0.1, 0.1, 0.1, 0.1, 0.1, 0.1, 0.1, 0.1, 0.1, 0.1, 0.1, 0.1, 0.1, 0.1, 0.1, 0.1, 0.1, 0.1, 0.1, 0.1, 0.1, 0.1, 0.1, 0.1, 0.1, 0.1, 0.1, 0.1, 0.1, 0.1, 0.1, 0.1, 0.1, 0.1, 0.1, 0.1, 0.1, 0.1, 0.1, 0.1, 0.1, 0.1, 0.1, 0.1, 0.1, 0.1, 0.1, 0.1, 0.1, 0.1, 0.1, 0.1, 0.1, 0.1, 0.1, 0.1, 0.1, 0.1, 0.1, 0.1, 0.1, 0.1, 0.1, 0.1, 0.1, 0.1, 0.1, 0.1, 0.1, 0.1, 0.9985959438377532, 0.1, 0.1, 0.1, 0.1, 0.1, 0.1, 0.1, 0.1, 0.1, 0.3330905306971903, 0.1, 0.1, 0.1, 0.1, 0.28554861730597675, 0.1, 0.37478532396565173, 0.1, 0.1, 0.1, 0.49968774395003923, 0.1, 0.1, 0.1, 0.1, 0.1, 0.1, 0.1, 0.1, 0.1, 0.1, 0.1, 0.1, 0.1, 0.1, 0.1, 0.1, 0.1, 0.1, 0.1, 0.1, 0.6426149040606872, 0.1, 0.1, 0.1, 0.1, 0.7997084548104957, 0.1, 0.1, 0.1, 0.1, 0.1, 0.1, 0.1, 0.1, 0.1, 0.1, 0.1, 0.1, 0.1, 0.1, 0.1, 0.1, 0.1, 0.1, 0.1, 0.1, 0.1, 0.1, 0.1, 0.1, 0.1, 0.1, 0.1, 0.1, 0.1, 0.1, 0.1, 0.1, 0.1, 0.1, 0.1, 0.1, 0.1, 0.1, 0.1, 0.1, 0.1, 0.1, 0.1, 0.1, 0.1, 0.1, 0.1, 0.1, 0.1, 0.1, 0.1, 0.1, 0.1, 0.1, 0.1, 0.1, 0.1, 0.1, 0.1, 0.1, 0.1, 0.1, 0.1, 0.1, 0.1, 0.1, 0.1, 0.1, 0.1, 0.1, 0.1, 0.1, 0.1, 0.1, 0.1, 0.9282016956715753, 0.1, 0.1, 0.1, 0.1, 0.1, 0.1, 0.1, 0.1, 0.1, 0.1, 0.1, 0.1, 0.1, 0.5292539507533995, 0.1, 0.1, 0.1, 0.1, 0.1, 0.1, 0.1, 0.1, 0.1, 0.1, 0.1, 0.1, 0.1, 0.1, 0.1, 0.1, 0.1, 0.1, 0.1, 0.1, 0.1, 0.1, 0.1, 0.1, 0.1, 0.1, 0.1, 0.1, 0.1, 0.1, 0.1, 0.1, 0.1, 0.1, 0.1, 0.1, 0.1, 0.1, 0.1, 0.1, 0.1, 0.1, 0.1, 0.1, 0.1, 0.1, 0.1, 0.1, 0.1, 0.1, 0.1, 0.1, 0.1, 0.1, 0.1, 0.1, 0.1, 0.1, 0.1, 0.1, 0.3075925036040366, 0.46136472849591553, 0.3845469838981015, 0.1, 0.1, 0.1, 0.1, 0.1, 0.1, 0.1, 0.1, 0.1, 0.1, 0.1, 0.1, 0.1, 0.3748926200702851, 0.1, 0.1, 0.1, 0.1, 0.1, 0.1, 0.1, 0.44432488719194724, 0.1, 0.1, 0.1, 0.1, 0.1, 0.1, 0.1, 0.1, 0.1, 0.1, 0.1, 0.1, 0.1, 0.1, 0.1, 0.1, 0.1, 0.1, 0.1, 0.1, 0.1, 0.1, 0.1, 0.1, 0.1, 0.1, 0.1, 0.1, 0.1, 0.1, 0.1, 0.1, 0.1, 0.1, 0.1, 0.1, 0.1, 0.1, 0.1, 0.1, 0.1, 0.1, 0.1, 0.1, 0.1, 0.1, 0.1, 0.1, 0.1, 0.1, 0.1, 0.1, 0.832951587714732, 0.1, 0.1, 0.1, 0.1, 0.1, 0.1, 0.1, 0.1, 0.1, 0.1, 0.1, 0.1, 0.1, 0.1, 0.1, 0.1, 0.1, 0.1, 0.1, 0.1, 0.1, 0.1, 0.1, 0.1, 0.1, 0.1, 0.1, 0.1, 0.1, 0.1, 0.1, 0.1, 0.1, 0.1, 0.1, 0.1, 0.1, 0.1, 0.1, 0.1, 0.1, 0.1, 0.37478532396565173, 0.1, 0.1, 0.1, 0.1, 0.3996254681647939, 0.1, 0.19987515605493142, 0.1, 0.6660770031217481, 0.1, 0.1, 0.1, 0.1, 0.1, 0.1, 0.1, 0.1, 0.1, 0.6245901639344265, 0.1, 0.1, 0.1, 0.1, 0.1, 0.1, 0.1, 0.4442054129077031, 0.1, 0.1, 0.1, 0.1, 0.1, 0.1, 0.1, 0.1, 0.1, 0.1, 0.1, 0.1, 0.1, 0.1, 0.1, 0.1, 0.1, 0.1, 0.1, 0.1, 0.1, 0.1, 0.1, 0.1, 0.1, 0.1, 0.1, 0.1, 0.1, 0.1, 0.1, 0.1, 0.1, 0.1, 0.1, 0.1, 0.1, 0.1, 0.1, 0.1, 0.1, 0.1, 0.1, 0.1, 0.1, 0.1, 0.1, 0.1, 0.1, 0.1, 0.1, 0.1, 0.7489859594383772, 0.1, 0.1, 0.1, 0.1, 0.1, 0.1, 0.1, 0.1, 0.33309053069719036, 0.1, 0.1, 0.1, 0.1, 0.1, 0.28554861730597675, 0.1, 0.1, 0.1, 0.24988290398126464, 0.1, 0.1, 0.1, 0.1, 0.1, 0.1, 0.1, 0.1, 0.1, 0.6996252342286073, 0.29987507807620245, 0.1, 0.1, 0.1, 0.1, 0.1, 0.1, 0.1, 0.1, 0.1, 0.1, 0.1, 0.1, 0.1, 0.1, 0.1, 0.1, 0.1, 0.1, 0.1, 0.1, 0.1, 0.1, 0.1, 0.1, 0.1, 0.1, 0.1, 0.1, 0.1, 0.1, 0.1, 0.1, 0.1, 0.1, 0.1, 0.1, 0.1, 0.1, 0.1, 0.1, 0.1, 0.1, 0.1, 0.1, 0.1, 0.00020790020790020797, 0.1, 0.1, 0.1, 0.1, 0.1, 0.1, 0.1, 0.1, 0.1, 0.1, 0.1, 0.1, 0.1, 0.1, 0.1, 0.1, 0.1, 0.1, 0.1, 0.1, 0.1, 0.1, 0.1, 0.1, 0.1, 0.1, 0.1, 0.1, 0.1, 0.1, 0.1, 0.1, 0.1, 0.1, 0.1, 0.1, 0.1, 0.1, 0.1, 0.1, 0.1, 0.1, 0.1, 0.1, 0.1, 0.1, 0.1, 0.1, 0.1, 0.1, 0.4998215082552433, 0.1, 0.1, 0.1, 0.1, 0.26659725114535615, 0.1, 0.1, 0.1, 0.1, 0.1, 0.1, 0.1, 0.1, 0.1, 0.1, 0.1, 0.1, 0.1, 0.1, 0.1, 0.1, 0.00031152647975077894, 0.1, 0.1, 0.1, 0.1, 0.6654885654885655, 0.1, 0.1, 0.1, 0.1, 0.24976599063962562, 0.7489859594383772, 0.1, 0.1, 0.1, 0.5331528529779259, 0.1, 0.1, 0.5993757802746564, 0.1, 0.832570239334027, 0.1, 0.1, 0.1, 0.1, 0.1, 0.1, 0.1, 0.1, 0.1, 0.1, 0.1, 0.1, 0.1, 0.1, 0.1, 0.1, 0.1, 0.1, 0.1, 0.1, 0.1, 0.1, 0.1, 0.1, 0.1, 0.1, 0.1, 0.1, 0.1, 0.1, 0.1, 0.1, 0.1, 0.1, 0.1, 0.1, 0.1, 0.1, 0.1, 0.1, 0.1, 0.1, 0.1, 0.1, 0.1, 0.1, 0.1, 0.1, 0.1, 0.1, 0.1, 0.1, 0.1, 0.1, 0.1, 0.1, 0.1, 0.1, 0.1, 0.2497659906396255, 0.1, 0.1, 0.9971962616822433, 0.1, 0.9981288981288984, 0.1, 0.1, 0.00020790020790020797, 0.1, 0.7489859594383772, 0.1, 0.1, 0.1, 0.1, 0.1, 0.1, 0.1, 0.1, 0.1, 0.1, 0.1, 0.1, 0.1, 0.1, 0.1, 0.1, 0.1, 0.1, 0.1, 0.1, 0.1, 0.1, 0.1, 0.1, 0.1, 0.1, 0.1, 0.1, 0.1, 0.1, 0.1, 0.1, 0.1, 0.1, 0.1, 0.1, 0.1, 0.1, 0.1, 0.1, 0.1, 0.1, 0.1, 0.1, 0.1, 0.1, 0.1, 0.1, 0.1, 0.1, 0.1, 0.1, 0.1, 0.1, 0.1, 0.1, 0.1, 0.1, 0.1, 0.1, 0.1, 0.1, 0.1, 0.1, 0.1, 0.1, 0.1, 0.1, 0.1, 0.0003115264797507789, 0.00031152647975077894, 0.1, 0.1, 0.1, 3.4710170079833394e-05, 0.00020790020790020797, 0.1, 0.00020790020790020794, 0.1, 7.806401249024203e-05, 0.00015600624024961, 0.1, 0.00015600624024960993, 0.1, 0.00012484394506866414, 0.1, 0.1, 0.00012484394506866414, 0.1, 0.1, 0.1, 0.1, 0.1, 0.1, 0.1, 0.1, 0.1, 0.1, 0.1, 0.1, 0.1, 0.1, 0.1, 0.1, 0.1, 0.1, 0.1, 0.1, 0.1, 0.1, 0.1, 0.1, 0.1, 0.1, 0.1, 0.1, 0.1, 0.1, 0.1, 0.1, 0.1, 0.1, 0.1, 0.1, 0.1, 0.1, 0.1, 0.1, 0.1, 0.1, 0.1, 0.1, 0.1, 0.1, 0.1, 0.1, 0.1, 0.1, 0.1, 0.1, 0.1, 0.1, 0.1, 0.1, 0.1, 0.1, 0.1, 0.1, 0.1, 0.1, 0.1, 0.1, 0.1, 0.1, 0.1, 0.1, 0.1, 0.1, 0.1, 0.1, 0.1, 0.1, 0.00015600624024960993, 0.1, 0.1, 0.1, 0.1, 0.1, 0.1, 0.1, 0.1, 0.1, 0.00010405827263267427, 0.1, 0.1, 0.1, 0.1, 8.920606601248884e-05, 0.1, 7.806401249024198e-05, 0.1, 0.1, 0.1, 7.806401249024203e-05, 0.1, 0.1, 0.1, 0.1, 0.1, 0.1, 0.1, 0.1, 0.1, 0.1, 0.1, 0.1, 0.1, 0.1, 0.1, 0.1, 0.1, 0.1, 0.1, 0.1, 4.4622936189201256e-05, 0.1, 0.1, 0.1, 0.1, 4.164931278633903e-05, 0.1, 0.1, 0.1, 0.1, 0.1, 0.1, 0.1, 0.1, 0.1, 0.1, 0.1, 0.1, 0.1, 0.1, 0.1, 0.1, 0.1, 0.1, 0.1, 0.1, 0.1, 0.1, 0.1, 0.1, 0.1, 0.1, 0.1, 0.1, 0.1, 0.1, 0.1, 0.1, 0.1, 0.1, 0.1, 0.1, 0.1, 0.1, 0.1, 0.1, 0.1, 0.1, 0.1, 0.1, 0.1, 0.1, 0.1, 0.1, 0.1, 0.1, 0.1, 0.1, 0.1, 0.1, 0.1, 0.1, 0.1, 0.1, 0.1, 0.1, 0.1, 0.1, 0.1, 0.1, 0.1, 0.1, 0.1, 0.1, 0.1, 0.1, 0.1, 0.1, 0.1, 0.1, 0.1, 4.4622936189201256e-05, 0.1, 0.1, 0.1, 0.1, 0.1, 0.1, 0.1, 0.1, 0.1, 0.1, 0.1, 0.1, 0.1, 3.675119441381845e-05, 0.1, 0.1, 0.1, 0.1, 0.1, 0.1, 0.1, 0.1, 0.1, 0.1, 0.1, 0.1, 0.1, 0.1, 0.1, 0.1, 0.1, 0.1, 0.1, 0.1, 0.1, 0.1, 0.1, 0.1, 0.1, 0.1, 0.1, 0.1, 0.1, 0.1, 0.1, 0.1, 0.1, 0.1, 0.1, 0.1, 0.1, 0.1, 0.1, 0.1, 0.1, 0.1, 0.1, 0.1, 0.1, 0.1, 0.1, 0.1, 0.1, 0.1, 0.1, 0.1, 0.1, 0.1, 0.1, 0.1, 0.1, 0.1, 0.1, 0.1, 4.8053820278712165e-05, 4.8053820278712165e-05, 2.4032684450853165e-05, 0.1, 0.1, 0.1, 0.1, 0.1, 0.1, 0.1, 0.1, 0.1, 0.1, 0.1, 0.1, 0.1, 3.904724716907459e-05, 0.1, 0.1, 0.1, 0.1, 0.1, 0.1, 0.1, 3.4710170079833394e-05, 0.1, 0.1, 0.1, 0.1, 0.1, 0.1, 0.1, 0.1, 0.1, 0.1, 0.1, 0.1, 0.1, 0.1, 0.1, 0.1, 0.1, 0.1, 0.1, 0.1, 0.1, 0.1, 0.1, 0.1, 0.1, 0.1, 0.1, 0.1, 0.1, 0.1, 0.1, 0.1, 0.1, 0.1, 0.1, 0.1, 0.1, 0.1, 0.1, 0.1, 0.1, 0.1, 0.1, 0.1, 0.1, 0.1, 0.1, 0.1, 0.1, 0.1, 0.1, 0.1, 5.205622071837586e-05, 0.1, 0.1, 0.1, 0.1, 0.1, 0.1, 0.1, 0.1, 0.1, 0.1, 0.1, 0.1, 0.1, 0.1, 0.1, 0.1, 0.1, 0.1, 0.1, 0.1, 0.1, 0.1, 0.1, 0.1, 0.1, 0.1, 0.1, 0.1, 0.1, 0.1, 0.1, 0.1, 0.1, 0.1, 0.1, 0.1, 0.1, 0.1, 0.1, 0.1, 0.1, 0.1, 7.806401249024198e-05, 0.1, 0.1, 0.1, 0.1, 0.00012484394506866414, 0.1, 0.0001248439450686642, 0.1, 0.00010405827263267427, 0.1, 0.1, 0.1, 0.1, 0.1, 0.1, 0.1, 0.1, 0.1, 7.806401249024203e-05, 0.1, 0.1, 0.1, 0.1, 0.1, 0.1, 0.1, 6.939625260235949e-05, 0.1, 0.1, 0.1, 0.1, 0.1, 0.1, 0.1, 0.1, 0.1, 0.1, 0.1, 0.1, 0.1, 0.1, 0.1, 0.1, 0.1, 0.1, 0.1, 0.1, 0.1, 0.1, 0.1, 0.1, 0.1, 0.1, 0.1, 0.1, 0.1, 0.1, 0.1, 0.1, 0.1, 0.1, 0.1, 0.1, 0.1, 0.1, 0.1, 0.1, 0.1, 0.1, 0.1, 0.1, 0.1, 0.1, 0.1, 0.1, 0.1, 0.1, 0.1, 0.1, 0.00015600624024960993, 0.1, 0.1, 0.1, 0.1, 0.1, 0.1, 0.1, 0.1, 0.00010405827263267429, 0.1, 0.1, 0.1, 0.1, 0.1, 8.920606601248884e-05, 0.1, 0.1, 0.1, 0.12498048399687746, 0.1, 0.1, 0.1, 0.1, 0.1, 0.1, 0.1, 0.1, 0.1, 6.246096189881325e-05, 0.10000000000000003, 0.1, 0.1, 0.1, 0.1, 0.1, 0.1, 0.1, 0.1, 0.1, 0.1, 0.1, 0.1, 0.1, 0.1, 0.1, 0.1, 0.1, 0.1, 0.1, 0.1, 0.1, 0.1, 0.1, 0.1, 0.1, 0.1, 0.1, 0.1, 0.1, 0.1, 0.1, 0.1, 0.1, 0.1, 0.1, 0.1, 0.1, 0.1, 0.1, 0.1, 0.1, 0.1, 0.1, 0.1, 0.1, 0.00020790020790020797, 0.1, 0.1, 0.1, 0.1, 0.1, 0.1, 0.1, 0.1, 0.1, 0.1, 0.1, 0.1, 0.1, 0.1, 0.1, 0.1, 0.1, 0.1, 0.1, 0.1, 0.1, 0.1, 0.1, 0.1, 0.1, 0.1, 0.1, 0.1, 0.1, 0.1, 0.1, 0.1, 0.1, 0.1, 0.1, 0.1, 0.1, 0.1, 0.1, 0.1, 0.1, 0.1, 0.1, 0.1, 0.1, 0.1, 0.1, 0.1, 0.1, 0.1, 4.4622936189201256e-05, 0.1, 0.1, 0.1, 0.1, 4.164931278633903e-05, 0.1, 0.1, 0.1, 0.1, 0.1, 0.1, 0.1, 0.1, 0.1, 0.1, 0.1, 0.1, 0.1, 0.1, 0.1, 0.1, 0.00031152647975077894, 0.1, 0.1, 0.1, 0.1, 0.00020790020790020794, 0.1, 0.1, 0.1, 0.1, 0.00015600624024961, 0.00015600624024960993, 0.1, 0.1, 0.1, 4.164931278633903e-05, 0.1, 0.1, 0.00012484394506866414, 0.1, 0.00010405827263267427, 0.1, 0.1, 0.1, 0.1, 0.1, 0.1, 0.1, 0.1, 0.1, 0.1, 0.1, 0.1, 0.1, 0.1, 0.1, 0.1, 0.1, 0.1, 0.1, 0.1, 0.1, 0.1, 0.1, 0.1, 0.1, 0.1, 0.1, 0.1, 0.1, 0.1, 0.1, 0.1, 0.1, 0.1, 0.1, 0.1, 0.1, 0.1, 0.1, 0.1, 0.1, 0.1, 0.1, 0.1, 0.1, 0.1, 0.1, 0.1, 0.1, 0.1, 0.1, 0.1, 0.1, 0.1, 0.1, 0.1, 0.1, 0.1, 0.1, 0.00015600624024960993, 0.1, 0.1, 0.00031152647975077894, 0.1, 0.00020790020790020797, 0.1, 0.1, 0.00020790020790020797, 0.1, 0.00015600624024960993, 0.1, 0.1, 0.1, 0.1, 0.1, 0.1, 0.1, 0.1, 0.1, 0.1, 0.1, 0.1, 0.1, 0.1, 0.1, 0.1, 0.1, 0.1, 0.1, 0.1, 0.1, 0.1, 0.1, 0.1, 0.1, 0.1, 0.1, 0.1, 0.1, 0.1, 0.1, 0.1, 0.1, 0.1, 0.1, 0.1, 0.1, 0.1, 0.1, 0.1, 0.1, 0.1, 0.1, 0.1, 0.1, 0.1, 0.1, 0.1, 0.1, 0.1, 0.1, 0.1, 0.1, 0.1, 0.1, 0.1, 0.1, 0.1, 0.1, 0.1, 0.1, 0.1, 0.1, 0.1, 0.1, 0.1, 0.1, 0.1, 0.1, 0.0003115264797507789, 0.00031152647975077894, 0.1, 0.1, 0.1, 3.4710170079833394e-05, 0.00020790020790020797, 0.1, 0.00020790020790020794, 0.1, 7.806401249024203e-05, 0.00015600624024961, 0.1, 0.00015600624024960993, 0.1, 0.00012484394506866414, 0.1, 0.1, 0.00012484394506866414, 0.1, 0.1, 0.1, 0.1, 0.1, 0.1, 0.1, 0.1, 0.1, 0.1, 0.1, 0.1, 0.1, 0.1, 0.1, 0.1, 0.1, 0.1, 0.1, 0.1, 0.1, 0.1, 0.1, 0.1, 0.1, 0.1, 0.1, 0.1, 0.1, 0.1, 0.1, 0.1, 0.1, 0.1, 0.1, 0.1, 0.1, 0.1, 0.1, 0.1, 0.1, 0.1, 0.1, 0.1, 0.1, 0.1, 0.1, 0.1, 0.1, 0.1, 0.1, 0.1, 0.1, 0.1, 0.1, 0.1, 0.1, 0.1, 0.1, 0.1, 0.1, 0.1, 0.1, 0.1, 0.1, 0.1, 0.1, 0.1, 0.1, 0.1, 0.1, 0.1, 0.1, 0.1, 0.00015600624024960993, 0.1, 0.1, 0.1, 0.1, 0.1, 0.1, 0.1, 0.1, 0.1, 0.16659729448491153, 0.1, 0.1, 0.1, 0.1, 8.920606601248884e-05, 0.1, 0.12498048399687743, 0.1, 0.1, 0.1, 7.806401249024203e-05, 0.1, 0.1, 0.1, 0.1, 0.1, 0.1, 0.1, 0.1, 0.1, 0.1, 0.1, 0.1, 0.1, 0.1, 0.1, 0.1, 0.1, 0.1, 0.1, 0.1, 4.4622936189201256e-05, 0.1, 0.1, 0.1, 0.1, 0.0666805497709288, 0.1, 0.1, 0.1, 0.1, 0.1, 0.1, 0.1, 0.1, 0.1, 0.1, 0.1, 0.1, 0.1, 0.1, 0.1, 0.1, 0.1, 0.1, 0.1, 0.1, 0.1, 0.1, 0.1, 0.1, 0.1, 0.1, 0.1, 0.1, 0.1, 0.1, 0.1, 0.1, 0.1, 0.1, 0.1, 0.1, 0.1, 0.1, 0.1, 0.1, 0.1, 0.1, 0.1, 0.1, 0.1, 0.1, 0.1, 0.1, 0.1, 0.1, 0.1, 0.1, 0.1, 0.1, 0.1, 0.1, 0.1, 0.1, 0.1, 0.1, 0.1, 0.1, 0.1, 0.1, 0.1, 0.1, 0.1, 0.1, 0.1, 0.1, 0.1, 0.1, 0.1, 0.1, 0.1, 4.4622936189201256e-05, 0.1, 0.1, 0.1, 0.1, 0.1, 0.1, 0.1, 0.1, 0.1, 0.1, 0.1, 0.1, 0.1, 3.675119441381845e-05, 0.1, 0.1, 0.1, 0.1, 0.1, 0.1, 0.1, 0.1, 0.1, 0.1, 0.1, 0.1, 0.1, 0.1, 0.1, 0.1, 0.1, 0.1, 0.1, 0.1, 0.1, 0.1, 0.1, 0.1, 0.1, 0.1, 0.1, 0.1, 0.1, 0.1, 0.1, 0.1, 0.1, 0.1, 0.1, 0.1, 0.1, 0.1, 0.1, 0.1, 0.1, 0.1, 0.1, 0.1, 0.1, 0.1, 0.1, 0.1, 0.1, 0.1, 0.1, 0.1, 0.1, 0.1, 0.1, 0.1, 0.1, 0.1, 0.1, 0.1, 4.8053820278712165e-05, 4.8053820278712165e-05, 0.03847632780581592, 0.1, 0.1, 0.1, 0.1, 0.1, 0.1, 0.1, 0.1, 0.1, 0.1, 0.1, 0.1, 0.1, 3.904724716907459e-05, 0.1, 0.1, 0.1, 0.1, 0.1, 0.1, 0.1, 3.4710170079833394e-05, 0.1, 0.1, 0.1, 0.1, 0.1, 0.1, 0.1, 0.1, 0.1, 0.1, 0.1, 0.1, 0.1, 0.1, 0.1, 0.1, 0.1, 0.1, 0.1, 0.1, 0.1, 0.1, 0.1, 0.1, 0.1, 0.1, 0.1, 0.1, 0.1, 0.1, 0.1, 0.1, 0.1, 0.1, 0.1, 0.1, 0.1, 0.1, 0.1, 0.1, 0.1, 0.1, 0.1, 0.1, 0.1, 0.1, 0.1, 0.1, 0.1, 0.1, 0.1, 0.1, 5.205622071837586e-05, 0.1, 0.1, 0.1, 0.1, 0.1, 0.1, 0.1, 0.1, 0.1, 0.1, 0.1, 0.1, 0.1, 0.1, 0.1, 0.1, 0.1, 0.1, 0.1, 0.1, 0.1, 0.1, 0.1, 0.1, 0.1, 0.1, 0.1, 0.1, 0.1, 0.1, 0.1, 0.1, 0.1, 0.1, 0.1, 0.1, 0.1, 0.1, 0.1, 0.1, 0.1, 0.1, 7.806401249024198e-05, 0.1, 0.1, 0.1, 0.1, 0.00012484394506866414, 0.1, 0.0001248439450686642, 0.1, 0.16659729448491153, 0.1, 0.1, 0.1, 0.1, 0.1, 0.1, 0.1, 0.1, 0.1, 7.806401249024203e-05, 0.1, 0.1, 0.1, 0.1, 0.1, 0.1, 0.1, 6.939625260235949e-05, 0.1, 0.1, 0.1, 0.1, 0.1, 0.1, 0.1, 0.1, 0.1, 0.1, 0.1, 0.1, 0.1, 0.1, 0.1, 0.1, 0.1, 0.1, 0.1, 0.1, 0.1, 0.1, 0.1, 0.1, 0.1, 0.1, 0.1, 0.1, 0.1, 0.1, 0.1, 0.1, 0.1, 0.1, 0.1, 0.1, 0.1, 0.1, 0.1, 0.1, 0.1, 0.1, 0.1, 0.1, 0.1, 0.1, 0.1, 0.1, 0.1, 0.1, 0.1, 0.1, 0.00015600624024960993, 0.1, 0.1, 0.1, 0.1, 0.1, 0.1, 0.1, 0.1, 0.00010405827263267429, 0.1, 0.1, 0.1, 0.1, 0.1, 8.920606601248884e-05, 0.1, 0.1, 0.1, 7.8064012490242e-05, 0.1, 0.1, 0.1, 0.1, 0.1, 0.1, 0.1, 0.1, 0.1, 6.246096189881325e-05, 6.246096189881325e-05, 0.1, 0.1, 0.1, 0.1, 0.1, 0.1, 0.1, 0.1, 0.1, 0.1, 0.1, 0.1, 0.1, 0.1, 0.1, 0.1, 0.1, 0.1, 0.1, 0.1, 0.1, 0.1, 0.1, 0.1, 0.1, 0.1, 0.1, 0.1, 0.1, 0.1, 0.1, 0.1, 0.1, 0.1, 0.1, 0.1, 0.1, 0.1, 0.1, 0.1, 0.1, 0.1, 0.1, 0.1, 0.1, 0.00020790020790020797, 0.1, 0.1, 0.1, 0.1, 0.1, 0.1, 0.1, 0.1, 0.1, 0.1, 0.1, 0.1, 0.1, 0.1, 0.1, 0.1, 0.1, 0.1, 0.1, 0.1, 0.1, 0.1, 0.1, 0.1, 0.1, 0.1, 0.1, 0.1, 0.1, 0.1, 0.1, 0.1, 0.1, 0.1, 0.1, 0.1, 0.1, 0.1, 0.1, 0.1, 0.1, 0.1, 0.1, 0.1, 0.1, 0.1, 0.1, 0.1, 0.1, 0.1, 4.4622936189201256e-05, 0.1, 0.1, 0.1, 0.1, 4.164931278633903e-05, 0.1, 0.1, 0.1, 0.1, 0.1, 0.1, 0.1, 0.1, 0.1, 0.1, 0.1, 0.1, 0.1, 0.1, 0.1, 0.1, 0.00031152647975077894, 0.1, 0.1, 0.1, 0.1, 0.3328482328482329, 0.1, 0.1, 0.1, 0.1, 0.00015600624024961, 0.00015600624024960993, 0.1, 0.1, 0.1, 4.164931278633903e-05, 0.1, 0.1, 0.00012484394506866414, 0.1, 0.00010405827263267427, 0.1, 0.1, 0.1, 0.1, 0.1, 0.1, 0.1, 0.1, 0.1, 0.1, 0.1, 0.1, 0.1, 0.1, 0.1, 0.1, 0.1, 0.1, 0.1, 0.1, 0.1, 0.1, 0.1, 0.1, 0.1, 0.1, 0.1, 0.1, 0.1, 0.1, 0.1, 0.1, 0.1, 0.1, 0.1, 0.1, 0.1, 0.1, 0.1, 0.1, 0.1, 0.1, 0.1, 0.1, 0.1, 0.1, 0.1, 0.1, 0.1, 0.1, 0.1, 0.1, 0.1, 0.1, 0.1, 0.1, 0.1, 0.1, 0.1, 0.00015600624024960993, 0.1, 0.1, 0.00031152647975077894, 0.1, 0.00020790020790020797, 0.1, 0.1, 0.00020790020790020797, 0.1, 0.00015600624024960993, 0.1, 0.1, 0.1, 0.1, 0.1, 0.1, 0.1, 0.1, 0.1, 0.1, 0.1, 0.1, 0.1, 0.1, 0.1, 0.1, 0.1, 0.1, 0.1, 0.1, 0.1, 0.1, 0.1, 0.1, 0.1, 0.1, 0.1, 0.1, 0.1, 0.1, 0.1, 0.1, 0.1, 0.1, 0.1, 0.1, 0.1, 0.1, 0.1, 0.1, 0.1, 0.1, 0.1, 0.1, 0.1, 0.1, 0.1, 0.1, 0.1, 0.1, 0.1, 0.1, 0.1, 0.1, 0.1, 0.1, 0.1, 0.1, 0.1, 0.1, 0.1, 0.1, 0.1, 0.1, 0.1, 0.1, 0.1, 0.1, 0.1, 0.0003115264797507789, 0.00031152647975077894, 0.1, 0.1, 0.1, 3.4710170079833394e-05, 0.00020790020790020797, 0.1, 0.00020790020790020794, 0.1, 7.806401249024203e-05, 0.00015600624024961, 0.1, 0.00015600624024960993, 0.1, 0.00012484394506866414, 0.1, 0.1, 0.00012484394506866414, 0.1, 0.1, 0.1, 0.1, 0.1, 0.1, 0.1, 0.1, 0.1, 0.1, 0.1, 0.1, 0.1, 0.1, 0.1, 0.1, 0.1, 0.1, 0.1, 0.1, 0.1, 0.1, 0.1, 0.1, 0.1, 0.1, 0.1, 0.1, 0.1, 0.1, 0.1, 0.1, 0.1, 0.1, 0.1, 0.1, 0.1, 0.1, 0.1, 0.1, 0.1, 0.1, 0.1, 0.1, 0.1, 0.1, 0.1, 0.1, 0.1, 0.1, 0.1, 0.1, 0.1, 0.1, 0.1, 0.1, 0.1, 0.1, 0.1, 0.1, 0.1, 0.1, 0.1, 0.1, 0.1, 0.1, 0.1, 0.1, 0.1, 0.1, 0.1, 0.1, 0.1, 0.1, 0.00015600624024960993, 0.1, 0.1, 0.1, 0.1, 0.1, 0.1, 0.1, 0.1, 0.1, 0.00010405827263267427, 0.1, 0.1, 0.1, 0.1, 8.920606601248884e-05, 0.1, 7.806401249024198e-05, 0.1, 0.1, 0.1, 7.806401249024203e-05, 0.1, 0.1, 0.1, 0.1, 0.1, 0.1, 0.1, 0.1, 0.1, 0.1, 0.1, 0.1, 0.1, 0.1, 0.1, 0.1, 0.1, 0.1, 0.1, 0.1, 4.4622936189201256e-05, 0.1, 0.1, 0.1, 0.1, 4.164931278633903e-05, 0.1, 0.1, 0.1, 0.1, 0.1, 0.1, 0.1, 0.1, 0.1, 0.1, 0.1, 0.1, 0.1, 0.1, 0.1, 0.1, 0.1, 0.1, 0.1, 0.1, 0.1, 0.1, 0.1, 0.1, 0.1, 0.1, 0.1, 0.1, 0.1, 0.1, 0.1, 0.1, 0.1, 0.1, 0.1, 0.1, 0.1, 0.1, 0.1, 0.1, 0.1, 0.1, 0.1, 0.1, 0.1, 0.1, 0.1, 0.1, 0.1, 0.1, 0.1, 0.1, 0.1, 0.1, 0.1, 0.1, 0.1, 0.1, 0.1, 0.1, 0.1, 0.1, 0.1, 0.1, 0.1, 0.1, 0.1, 0.1, 0.1, 0.1, 0.1, 0.1, 0.1, 0.1, 0.1, 4.4622936189201256e-05, 0.1, 0.1, 0.1, 0.1, 0.1, 0.1, 0.1, 0.1, 0.1, 0.1, 0.1, 0.1, 0.1, 3.675119441381845e-05, 0.1, 0.1, 0.1, 0.1, 0.1, 0.1, 0.1, 0.1, 0.1, 0.1, 0.1, 0.1, 0.1, 0.1, 0.1, 0.1, 0.1, 0.1, 0.1, 0.1, 0.1, 0.1, 0.1, 0.1, 0.1, 0.1, 0.1, 0.1, 0.1, 0.1, 0.1, 0.1, 0.1, 0.1, 0.1, 0.1, 0.1, 0.1, 0.1, 0.1, 0.1, 0.1, 0.1, 0.1, 0.1, 0.1, 0.1, 0.1, 0.1, 0.1, 0.1, 0.1, 0.1, 0.1, 0.1, 0.1, 0.1, 0.1, 0.1, 0.1, 4.8053820278712165e-05, 0.07693416626621818, 2.4032684450853165e-05, 0.1, 0.1, 0.1, 0.1, 0.1, 0.1, 0.1, 0.1, 0.1, 0.1, 0.1, 0.1, 0.1, 3.904724716907459e-05, 0.1, 0.1, 0.1, 0.1, 0.1, 0.1, 0.1, 3.4710170079833394e-05, 0.1, 0.1, 0.1, 0.1, 0.1, 0.1, 0.1, 0.1, 0.1, 0.1, 0.1, 0.1, 0.1, 0.1, 0.1, 0.1, 0.1, 0.1, 0.1, 0.1, 0.1, 0.1, 0.1, 0.1, 0.1, 0.1, 0.1, 0.1, 0.1, 0.1, 0.1, 0.1, 0.1, 0.1, 0.1, 0.1, 0.1, 0.1, 0.1, 0.1, 0.1, 0.1, 0.1, 0.1, 0.1, 0.1, 0.1, 0.1, 0.1, 0.1, 0.1, 0.1, 0.08334200937011975, 0.1, 0.1, 0.1, 0.1, 0.1, 0.1, 0.1, 0.1, 0.1, 0.1, 0.1, 0.1, 0.1, 0.1, 0.1, 0.1, 0.1, 0.1, 0.1, 0.1, 0.1, 0.1, 0.1, 0.1, 0.1, 0.1, 0.1, 0.1, 0.1, 0.1, 0.1, 0.1, 0.1, 0.1, 0.1, 0.1, 0.1, 0.1, 0.1, 0.1, 0.1, 0.1, 7.806401249024198e-05, 0.1, 0.1, 0.1, 0.1, 0.00012484394506866414, 0.1, 0.0001248439450686642, 0.1, 0.00010405827263267427, 0.1, 0.1, 0.1, 0.1, 0.1, 0.1, 0.1, 0.1, 0.1, 7.806401249024203e-05, 0.1, 0.1, 0.1, 0.1, 0.1, 0.1, 0.1, 6.939625260235949e-05, 0.1, 0.1, 0.1, 0.1, 0.1, 0.1, 0.1, 0.1, 0.1, 0.1, 0.1, 0.1, 0.1, 0.1, 0.1, 0.1, 0.1, 0.1, 0.1, 0.1, 0.1, 0.1, 0.1, 0.1, 0.1, 0.1, 0.1, 0.1, 0.1, 0.1, 0.1, 0.1, 0.1, 0.1, 0.1, 0.1, 0.1, 0.1, 0.1, 0.1, 0.1, 0.1, 0.1, 0.1, 0.1, 0.1, 0.1, 0.1, 0.1, 0.1, 0.1, 0.1, 0.00015600624024960993, 0.1, 0.1, 0.1, 0.1, 0.1, 0.1, 0.1, 0.1, 0.00010405827263267429, 0.1, 0.1, 0.1, 0.1, 0.1, 8.920606601248884e-05, 0.1, 0.1, 0.1, 7.8064012490242e-05, 0.1, 0.1, 0.1, 0.1, 0.1, 0.1, 0.1, 0.1, 0.1, 6.246096189881325e-05, 6.246096189881325e-05, 0.1, 0.1, 0.1, 0.1, 0.1, 0.1, 0.1, 0.1, 0.1, 0.1, 0.1, 0.1, 0.1, 0.1, 0.1, 0.1, 0.1, 0.1, 0.1, 0.1, 0.1, 0.1, 0.1, 0.1, 0.1, 0.1, 0.1, 0.1, 0.1, 0.1, 0.1, 0.1, 0.1, 0.1, 0.1, 0.1, 0.1, 0.1, 0.1, 0.1, 0.1, 0.1, 0.1, 0.1, 0.1, 0.00020790020790020797, 0.1, 0.1, 0.1, 0.1, 0.1, 0.1, 0.1, 0.1, 0.1, 0.1, 0.1, 0.1, 0.1, 0.1, 0.1, 0.1, 0.1, 0.1, 0.1, 0.1, 0.1, 0.1, 0.1, 0.1, 0.1, 0.1, 0.1, 0.1, 0.1, 0.1, 0.1, 0.1, 0.1, 0.1, 0.1, 0.1, 0.1, 0.1, 0.1, 0.1, 0.1, 0.1, 0.1, 0.1, 0.1, 0.1, 0.1, 0.1, 0.1, 0.1, 4.4622936189201256e-05, 0.1, 0.1, 0.1, 0.1, 4.164931278633903e-05, 0.1, 0.1, 0.1, 0.1, 0.1, 0.1, 0.1, 0.1, 0.1, 0.1, 0.1, 0.1, 0.1, 0.1, 0.1, 0.1, 0.00031152647975077894, 0.1, 0.1, 0.1, 0.1, 0.00020790020790020794, 0.1, 0.1, 0.1, 0.1, 0.00015600624024961, 0.00015600624024960993, 0.1, 0.1, 0.1, 4.164931278633903e-05, 0.1, 0.1, 0.00012484394506866414, 0.1, 0.00010405827263267427, 0.1, 0.1, 0.1, 0.1, 0.1, 0.1, 0.1, 0.1, 0.1, 0.1, 0.1, 0.1, 0.1, 0.1, 0.1, 0.1, 0.1, 0.1, 0.1, 0.1, 0.1, 0.1, 0.1, 0.1, 0.1, 0.1, 0.1, 0.1, 0.1, 0.1, 0.1, 0.1, 0.1, 0.1, 0.1, 0.1, 0.1, 0.1, 0.1, 0.1, 0.1, 0.1, 0.1, 0.1, 0.1, 0.1, 0.1, 0.1, 0.1, 0.1, 0.1, 0.1, 0.1, 0.1, 0.1, 0.1, 0.1, 0.1, 0.1, 0.00015600624024960993, 0.1, 0.1, 0.00031152647975077894, 0.1, 0.00020790020790020797, 0.1, 0.1, 0.00020790020790020797, 0.1, 0.00015600624024960993, 0.1, 0.1, 0.1, 0.1, 0.1, 0.1, 0.1, 0.1, 0.1, 0.1, 0.1, 0.1, 0.1, 0.1, 0.1, 0.1, 0.1, 0.1, 0.1, 0.1, 0.1, 0.1, 0.1, 0.1, 0.1, 0.1, 0.1, 0.1, 0.1, 0.1, 0.1, 0.1, 0.1, 0.1, 0.1, 0.1, 0.1, 0.1, 0.1, 0.1, 0.1, 0.1, 0.1, 0.1, 0.1, 0.1, 0.1, 0.1, 0.1, 0.1, 0.1, 0.1, 0.1, 0.1, 0.1, 0.1, 0.1, 0.1, 0.1, 0.1, 0.1, 0.1, 0.1, 0.1, 0.1, 0.1, 0.1, 0.1, 0.1, 0.0003115264797507789, 0.00031152647975077894, 0.1, 0.1, 0.1, 0.1111072544255467, 0.00020790020790020797, 0.1, 0.3328482328482329, 0.1, 7.806401249024203e-05, 0.49937597503900155, 0.1, 0.00015600624024960993, 0.1, 0.00012484394506866414, 0.1, 0.1, 0.00012484394506866414, 0.1, 0.1, 0.1, 0.1, 0.1, 0.1, 0.1, 0.1, 0.1, 0.1, 0.1, 0.1, 0.1, 0.1, 0.1, 0.1, 0.1, 0.1, 0.1, 0.1, 0.1, 0.1, 0.1, 0.1, 0.1, 0.1, 0.1, 0.1, 0.1, 0.1, 0.1, 0.1, 0.1, 0.1, 0.1, 0.1, 0.1, 0.1, 0.1, 0.1, 0.1, 0.1, 0.1, 0.1, 0.1, 0.1, 0.1, 0.1, 0.1, 0.1, 0.1, 0.1, 0.1, 0.1, 0.1, 0.1, 0.1, 0.1, 0.1, 0.1, 0.1, 0.1, 0.1, 0.1, 0.1, 0.1, 0.1, 0.1, 0.1, 0.1, 0.1, 0.1, 0.1, 0.1, 0.00015600624024960993, 0.1, 0.1, 0.1, 0.1, 0.1, 0.1, 0.1, 0.1, 0.1, 0.00010405827263267427, 0.1, 0.1, 0.1, 0.1, 0.14281891168599464, 0.1, 0.12498048399687743, 0.1, 0.1, 0.1, 7.806401249024203e-05, 0.1, 0.1, 0.1, 0.1, 0.1, 0.1, 0.1, 0.1, 0.1, 0.1, 0.1, 0.1, 0.1, 0.1, 0.1, 0.1, 0.1, 0.1, 0.1, 0.1, 0.1428380187416332, 0.1, 0.1, 0.1, 0.1, 0.0666805497709288, 0.1, 0.1, 0.1, 0.1, 0.1, 0.1, 0.1, 0.1, 0.1, 0.1, 0.1, 0.1, 0.1, 0.1, 0.1, 0.1, 0.1, 0.1, 0.1, 0.1, 0.1, 0.1, 0.1, 0.1, 0.1, 0.1, 0.1, 0.1, 0.1, 0.1, 0.1, 0.1, 0.1, 0.1, 0.1, 0.1, 0.1, 0.1, 0.1, 0.1, 0.1, 0.1, 0.1, 0.1, 0.1, 0.1, 0.1, 0.1, 0.1, 0.1, 0.1, 0.1, 0.1, 0.1, 0.1, 0.1, 0.1, 0.1, 0.1, 0.1, 0.1, 0.1, 0.1, 0.1, 0.1, 0.1, 0.1, 0.1, 0.1, 0.1, 0.1, 0.1, 0.1, 0.1, 0.1, 4.4622936189201256e-05, 0.1, 0.1, 0.1, 0.1, 0.1, 0.1, 0.1, 0.1, 0.1, 0.1, 0.1, 0.1, 0.1, 0.23524439544285194, 0.1, 0.1, 0.1, 0.1, 0.1, 0.1, 0.1, 0.1, 0.1, 0.1, 0.1, 0.1, 0.1, 0.1, 0.1, 0.1, 0.1, 0.1, 0.1, 0.1, 0.1, 0.1, 0.1, 0.1, 0.1, 0.1, 0.1, 0.1, 0.1, 0.1, 0.1, 0.1, 0.1, 0.1, 0.1, 0.1, 0.1, 0.1, 0.1, 0.1, 0.1, 0.1, 0.1, 0.1, 0.1, 0.1, 0.1, 0.1, 0.1, 0.1, 0.1, 0.1, 0.1, 0.1, 0.1, 0.1, 0.1, 0.1, 0.1, 0.1, 0.07693416626621818, 4.8053820278712165e-05, 0.15383321316991114, 0.1, 0.1, 0.1, 0.1, 0.1, 0.1, 0.1, 0.1, 0.1, 0.1, 0.1, 0.1, 0.1, 3.904724716907459e-05, 0.1, 0.1, 0.1, 0.1, 0.1, 0.1, 0.1, 0.05557098229781327, 0.1, 0.1, 0.1, 0.1, 0.1, 0.1, 0.1, 0.1, 0.1, 0.1, 0.1, 0.1, 0.1, 0.1, 0.1, 0.1, 0.1, 0.1, 0.1, 0.1, 0.1, 0.1, 0.1, 0.1, 0.1, 0.1, 0.1, 0.1, 0.1, 0.1, 0.1, 0.1, 0.1, 0.1, 0.1, 0.1, 0.1, 0.1, 0.1, 0.1, 0.1, 0.1, 0.1, 0.1, 0.1, 0.1, 0.1, 0.1, 0.1, 0.1, 0.1, 0.1, 0.08334200937011975, 0.1, 0.1, 0.1, 0.1, 0.1, 0.1, 0.1, 0.1, 0.1, 0.1, 0.1, 0.1, 0.1, 0.1, 0.1, 0.1, 0.1, 0.1, 0.1, 0.1, 0.1, 0.1, 0.1, 0.1, 0.1, 0.1, 0.1, 0.1, 0.1, 0.1, 0.1, 0.1, 0.1, 0.1, 0.1, 0.1, 0.1, 0.1, 0.1, 0.1, 0.1, 0.1, 0.12498048399687743, 0.1, 0.1, 0.1, 0.1, 0.00012484394506866414, 0.1, 0.3996254681647941, 0.1, 0.16659729448491153, 0.1, 0.1, 0.1, 0.1, 0.1, 0.1, 0.1, 0.1, 0.1, 7.806401249024203e-05, 0.1, 0.1, 0.1, 0.1, 0.1, 0.1, 0.1, 0.11110340041637755, 0.1, 0.1, 0.1, 0.1, 0.1, 0.1, 0.1, 0.1, 0.1, 0.1, 0.1, 0.1, 0.1, 0.1, 0.1, 0.1, 0.1, 0.1, 0.1, 0.1, 0.1, 0.1, 0.1, 0.1, 0.1, 0.1, 0.1, 0.1, 0.1, 0.1, 0.1, 0.1, 0.1, 0.1, 0.1, 0.1, 0.1, 0.1, 0.1, 0.1, 0.1, 0.1, 0.1, 0.1, 0.1, 0.1, 0.1, 0.1, 0.1, 0.1, 0.1, 0.1, 0.00015600624024960993, 0.1, 0.1, 0.1, 0.1, 0.1, 0.1, 0.1, 0.1, 0.16659729448491156, 0.1, 0.1, 0.1, 0.1, 0.1, 8.920606601248884e-05, 0.1, 0.1, 0.1, 0.24988290398126464, 0.1, 0.1, 0.1, 0.1, 0.1, 0.1, 0.1, 0.1, 0.1, 6.246096189881325e-05, 6.246096189881325e-05, 0.1, 0.1, 0.1, 0.1, 0.1, 0.1, 0.1, 0.1, 0.1, 0.1, 0.1, 0.1, 0.1, 0.1, 0.1, 0.1, 0.1, 0.1, 0.1, 0.1, 0.1, 0.1, 0.1, 0.1, 0.1, 0.1, 0.1, 0.1, 0.1, 0.1, 0.1, 0.1, 0.1, 0.1, 0.1, 0.1, 0.1, 0.1, 0.1, 0.1, 0.1, 0.1, 0.1, 0.1, 0.1, 0.00020790020790020797, 0.1, 0.1, 0.1, 0.1, 0.1, 0.1, 0.1, 0.1, 0.1, 0.1, 0.1, 0.1, 0.1, 0.1, 0.1, 0.1, 0.1, 0.1, 0.1, 0.1, 0.1, 0.1, 0.1, 0.1, 0.1, 0.1, 0.1, 0.1, 0.1, 0.1, 0.1, 0.1, 0.1, 0.1, 0.1, 0.1, 0.1, 0.1, 0.1, 0.1, 0.1, 0.1, 0.1, 0.1, 0.1, 0.1, 0.1, 0.1, 0.1, 0.1, 4.4622936189201256e-05, 0.1, 0.1, 0.1, 0.1, 0.0666805497709288, 0.1, 0.1, 0.1, 0.1, 0.1, 0.1, 0.1, 0.1, 0.1, 0.1, 0.1, 0.1, 0.1, 0.1, 0.1, 0.1, 0.00031152647975077894, 0.1, 0.1, 0.1, 0.1, 0.00020790020790020794, 0.1, 0.1, 0.1, 0.1, 0.49937597503900155, 0.00015600624024960993, 0.1, 0.1, 0.1, 0.0666805497709288, 0.1, 0.1, 0.00012484394506866414, 0.1, 0.00010405827263267427, 0.1, 0.1, 0.1, 0.1, 0.1, 0.1, 0.1, 0.1, 0.1, 0.1, 0.1, 0.1, 0.1, 0.1, 0.1, 0.1, 0.1, 0.1, 0.1, 0.1, 0.1, 0.1, 0.1, 0.1, 0.1, 0.1, 0.1, 0.1, 0.1, 0.1, 0.1, 0.1, 0.1, 0.1, 0.1, 0.1, 0.1, 0.1, 0.1, 0.1, 0.1, 0.1, 0.1, 0.1, 0.1, 0.1, 0.1, 0.1, 0.1, 0.1, 0.1, 0.1, 0.1, 0.1, 0.1, 0.1, 0.1, 0.1, 0.1, 0.00015600624024960993, 0.1, 0.1, 0.00031152647975077894, 0.1, 0.00020790020790020797, 0.1, 0.1, 0.00020790020790020797, 0.1, 0.00015600624024960993, 0.1, 0.1, 0.1, 0.1, 0.1, 0.1, 0.1, 0.1, 0.1, 0.1, 0.1, 0.1, 0.1, 0.1, 0.1, 0.1, 0.1, 0.1, 0.1, 0.1, 0.1, 0.1, 0.1, 0.1, 0.1, 0.1, 0.1, 0.1, 0.1, 0.1, 0.1, 0.1, 0.1, 0.1, 0.1, 0.1, 0.1, 0.1, 0.1, 0.1, 0.1, 0.1, 0.1, 0.1, 0.1, 0.1, 0.1, 0.1, 0.1, 0.1, 0.1, 0.1, 0.1, 0.1, 0.1, 0.1, 0.1, 0.1, 0.1, 0.1, 0.1, 0.1, 0.1, 0.1, 0.1, 0.1, 0.1, 0.1, 0.1 ;
}
probability ( vdis ) {
    table 0.4373522458628842, 0.1773049645390071, 0.07801418439716312, 0.2860520094562648, 0.02127659574468085 ;
}
