network unknown {
}
variable block_area {
    type discrete [ 5 ] { 0, 1, 2, 3, 4 };
}
variable house_num {
    type discrete [ 16 ] { 2, 3, 4, 5, 6, 7, 8, 9, 10, 12, 13, 14, 15, 16, 17, 18 };
}
variable most_type {
    type discrete [ 10 ] { 0, 1, 2, 3, 4, 5, 6, 7, 8, 9 };
}
variable vdis {
    type discrete [ 5 ] { 0, 1, 2, 3, 4 };
}
probability ( block_area ) {
    table 0.35697399527186763, 0.3144208037825059, 0.030732860520094562, 0.2222222222222222, 0.07565011820330969 ;
}
probability ( house_num | block_area, vdis ) {
    table 0.09084467120181401, 0.07681297709923667, 0.06249999999999999, 0.05559392265193368, 0.06249999999999999, 0.00038819875776397524, 0.0009469696969696973, 0.06249999999999999, 0.00022644927536231884, 0.00038819875776397513, 0.06249999999999999, 0.06249999999999999, 0.06249999999999999, 0.0010245901639344267, 0.06249999999999999, 0.0002648305084745762, 0.0005896226415094343, 0.0015243902439024406, 0.000726744186046512, 0.06249999999999999, 0.0007267441860465117, 0.0008802816901408454, 0.06249999999999999, 0.06249999999999999, 0.06249999999999999, 0.2722505668934239, 0.1149809160305344, 0.06249999999999999, 0.1660911602209944, 0.06249999999999999, 0.00038819875776397524, 0.0009469696969696973, 0.06249999999999999, 0.00022644927536231884, 0.09355590062111802, 0.06249999999999999, 0.06249999999999999, 0.06249999999999999, 0.0010245901639344267, 0.06249999999999999, 0.0002648305084745762, 0.0005896226415094343, 0.0015243902439024406, 0.000726744186046512, 0.06249999999999999, 0.0007267441860465117, 0.0008802816901408454, 0.06249999999999999, 0.06249999999999999, 0.06249999999999999, 0.18154761904761899, 0.6111641221374048, 0.06249999999999999, 0.11084254143646403, 0.06249999999999999, 0.00038819875776397524, 0.0009469696969696973, 0.06249999999999999, 0.00022644927536231884, 0.00038819875776397513, 0.06249999999999999, 0.06249999999999999, 0.06249999999999999, 0.0010245901639344267, 0.06249999999999999, 0.0002648305084745762, 0.18926886792452838, 0.0015243902439024406, 0.23328488372093034, 0.06249999999999999, 0.0007267441860465117, 0.0008802816901408454, 0.06249999999999999, 0.06249999999999999, 0.06249999999999999, 0.22689909297052147, 0.19131679389312983, 0.06249999999999999, 0.414709944751381, 0.06249999999999999, 0.00038819875776397524, 0.0009469696969696973, 0.06249999999999999, 0.00022644927536231884, 0.00038819875776397513, 0.06249999999999999, 0.06249999999999999, 0.06249999999999999, 0.0010245901639344267, 0.06249999999999999, 0.0002648305084745762, 0.0005896226415094343, 0.0015243902439024406, 0.000726744186046512, 0.06249999999999999, 0.0007267441860465117, 0.0008802816901408454, 0.06249999999999999, 0.06249999999999999, 0.06249999999999999, 0.1361961451247165, 0.0004770992366412215, 0.06249999999999999, 0.0003453038674033148, 0.06249999999999999, 0.00038819875776397524, 0.0009469696969696973, 0.06249999999999999, 0.00022644927536231884, 0.00038819875776397513, 0.06249999999999999, 0.06249999999999999, 0.06249999999999999, 0.0010245901639344267, 0.06249999999999999, 0.12738347457627114, 0.0005896226415094343, 0.0015243902439024406, 0.34956395348837227, 0.06249999999999999, 0.0007267441860465117, 0.0008802816901408454, 0.06249999999999999, 0.06249999999999999, 0.06249999999999999, 0.00014172335600907024, 0.0004770992366412215, 0.06249999999999999, 0.0003453038674033148, 0.06249999999999999, 0.00038819875776397524, 0.0009469696969696973, 0.06249999999999999, 0.00022644927536231884, 0.00038819875776397513, 0.06249999999999999, 0.06249999999999999, 0.06249999999999999, 0.0010245901639344267, 0.06249999999999999, 0.0002648305084745762, 0.3307783018867926, 0.0015243902439024406, 0.4077034883720932, 0.06249999999999999, 0.0007267441860465117, 0.0008802816901408454, 0.06249999999999999, 0.06249999999999999, 0.06249999999999999, 0.09084467120181401, 0.0004770992366412215, 0.06249999999999999, 0.0003453038674033148, 0.06249999999999999, 0.00038819875776397524, 0.0009469696969696973, 0.06249999999999999, 0.00022644927536231884, 0.00038819875776397513, 0.06249999999999999, 0.06249999999999999, 0.06249999999999999, 0.0010245901639344267, 0.06249999999999999, 0.3392478813559321, 0.0005896226415094343, 0.9771341463414642, 0.000726744186046512, 0.06249999999999999, 0.0007267441860465117, 0.0008802816901408454, 0.06249999999999999, 0.06249999999999999, 0.06249999999999999, 0.00014172335600907024, 0.0004770992366412215, 0.06249999999999999, 0.2489640883977899, 0.06249999999999999, 0.00038819875776397524, 0.0009469696969696973, 0.06249999999999999, 0.00022644927536231884, 0.00038819875776397513, 0.06249999999999999, 0.06249999999999999, 0.06249999999999999, 0.0010245901639344267, 0.06249999999999999, 0.0002648305084745762, 0.0005896226415094343, 0.0015243902439024406, 0.000726744186046512, 0.06249999999999999, 0.0007267441860465117, 0.0008802816901408454, 0.06249999999999999, 0.06249999999999999, 0.06249999999999999, 0.00014172335600907024, 0.0004770992366412215, 0.06249999999999999, 0.0003453038674033148, 0.06249999999999999, 0.00038819875776397524, 0.0009469696969696973, 0.06249999999999999, 0.00022644927536231884, 0.00038819875776397513, 0.06249999999999999, 0.06249999999999999, 0.06249999999999999, 0.0010245901639344267, 0.06249999999999999, 0.2121292372881355, 0.47228773584905676, 0.0015243902439024406, 0.000726744186046512, 0.06249999999999999, 0.0007267441860465117, 0.0008802816901408454, 0.06249999999999999, 0.06249999999999999, 0.06249999999999999, 0.00014172335600907024, 0.0004770992366412215, 0.06249999999999999, 0.0003453038674033148, 0.06249999999999999, 0.00038819875776397524, 0.0009469696969696973, 0.06249999999999999, 0.00022644927536231884, 0.00038819875776397513, 0.06249999999999999, 0.06249999999999999, 0.06249999999999999, 0.9846311475409839, 0.06249999999999999, 0.0002648305084745762, 0.0005896226415094343, 0.0015243902439024406, 0.000726744186046512, 0.06249999999999999, 0.0007267441860465117, 0.0008802816901408454, 0.06249999999999999, 0.06249999999999999, 0.06249999999999999, 0.00014172335600907024, 0.0004770992366412215, 0.06249999999999999, 0.0003453038674033148, 0.06249999999999999, 0.00038819875776397524, 0.9857954545454548, 0.06249999999999999, 0.4712409420289855, 0.40411490683229806, 0.06249999999999999, 0.06249999999999999, 0.06249999999999999, 0.0010245901639344267, 0.06249999999999999, 0.0002648305084745762, 0.0005896226415094343, 0.0015243902439024406, 0.000726744186046512, 0.06249999999999999, 0.0007267441860465117, 0.0008802816901408454, 0.06249999999999999, 0.06249999999999999, 0.06249999999999999, 0.00014172335600907024, 0.0004770992366412215, 0.06249999999999999, 0.0003453038674033148, 0.06249999999999999, 0.4351708074534162, 0.0009469696969696973, 0.06249999999999999, 0.25384963768115937, 0.00038819875776397513, 0.06249999999999999, 0.06249999999999999, 0.06249999999999999, 0.0010245901639344267, 0.06249999999999999, 0.0002648305084745762, 0.0005896226415094343, 0.0015243902439024406, 0.000726744186046512, 0.06249999999999999, 0.0007267441860465117, 0.9867957746478876, 0.06249999999999999, 0.06249999999999999, 0.06249999999999999, 0.00014172335600907024, 0.0004770992366412215, 0.06249999999999999, 0.0003453038674033148, 0.06249999999999999, 0.00038819875776397524, 0.0009469696969696973, 0.06249999999999999, 0.2719655797101449, 0.00038819875776397513, 0.06249999999999999, 0.06249999999999999, 0.06249999999999999, 0.0010245901639344267, 0.06249999999999999, 0.318061440677966, 0.0005896226415094343, 0.0015243902439024406, 0.000726744186046512, 0.06249999999999999, 0.0007267441860465117, 0.0008802816901408454, 0.06249999999999999, 0.06249999999999999, 0.06249999999999999, 0.00014172335600907024, 0.0004770992366412215, 0.06249999999999999, 0.0003453038674033148, 0.06249999999999999, 0.00038819875776397524, 0.0009469696969696973, 0.06249999999999999, 0.00022644927536231884, 0.4972826086956521, 0.06249999999999999, 0.06249999999999999, 0.06249999999999999, 0.0010245901639344267, 0.06249999999999999, 0.0002648305084745762, 0.0005896226415094343, 0.0015243902439024406, 0.000726744186046512, 0.06249999999999999, 0.0007267441860465117, 0.0008802816901408454, 0.06249999999999999, 0.06249999999999999, 0.06249999999999999, 0.00014172335600907024, 0.0004770992366412215, 0.06249999999999999, 0.0003453038674033148, 0.06249999999999999, 0.00038819875776397524, 0.0009469696969696973, 0.06249999999999999, 0.00022644927536231884, 0.00038819875776397513, 0.06249999999999999, 0.06249999999999999, 0.06249999999999999, 0.0010245901639344267, 0.06249999999999999, 0.0002648305084745762, 0.0005896226415094343, 0.0015243902439024406, 0.000726744186046512, 0.06249999999999999, 0.9890988372093024, 0.0008802816901408454, 0.06249999999999999, 0.06249999999999999, 0.06249999999999999, 0.00014172335600907024, 0.0004770992366412215, 0.06249999999999999, 0.0003453038674033148, 0.06249999999999999, 0.5593944099378882, 0.0009469696969696973, 0.06249999999999999, 0.00022644927536231884, 0.00038819875776397513, 0.06249999999999999, 0.06249999999999999, 0.06249999999999999, 0.0010245901639344267, 0.06249999999999999, 0.0002648305084745762, 0.0005896226415094343, 0.0015243902439024406, 0.000726744186046512, 0.06249999999999999, 0.0007267441860465117, 0.0008802816901408454, 0.06249999999999999, 0.06249999999999999, 0.06249999999999999 ;
}
probability ( most_type | block_area, house_num, vdis ) {
    table 0.00015600624024960993, 0.00062111801242236, 0.1, 0.00062111801242236, 0.1, 5.205622071837586e-05, 0.00041493775933609947, 0.1, 0.00020790020790020794, 0.1, 0.06252927400468383, 7.806401249024198e-05, 0.1, 0.0003115264797507789, 0.1, 6.246096189881325e-05, 0.0002493765586034913, 0.1, 8.32639467110741e-05, 0.1, 0.00010405827263267427, 0.1, 0.1, 0.1, 0.1, 0.1, 0.1, 0.1, 0.1, 0.1, 0.00015600624024960993, 0.1, 0.1, 0.1, 0.1, 0.1, 0.1, 0.1, 0.00013869625520110954, 0.1, 0.1, 0.1, 0.1, 0.1, 0.1, 0.1, 0.1, 0.1, 0.1, 0.1, 0.1, 0.1, 0.1, 0.1, 0.1, 0.1, 0.1, 0.1, 0.1, 0.1, 0.1, 0.1, 0.1, 0.1, 0.1, 0.1, 0.1, 0.1, 0.1, 0.1, 0.1, 0.1, 0.1, 0.1, 0.1, 0.1, 0.1, 0.1, 0.1, 0.1, 0.1, 0.1, 0.1, 0.1, 0.1, 0.1, 0.1, 0.1, 0.1, 0.00041493775933609947, 0.1, 0.1, 0.1, 0.1, 0.1, 0.1, 0.1, 0.1, 0.1, 0.1, 0.1, 0.1, 0.1, 0.1, 0.1, 0.1, 0.1, 0.1, 0.1, 0.1, 0.1, 0.1, 0.1, 0.1, 0.1, 0.1, 0.1, 0.1, 0.1, 0.1, 0.1, 0.1, 0.1, 0.1, 0.1, 0.1, 0.1, 0.1, 0.1, 0.1, 0.1, 9.606147934678193e-05, 0.1, 4.8053820278712165e-05, 9.606147934678193e-05, 8.920606601248884e-05, 0.1, 0.1, 8.920606601248884e-05, 0.1, 0.1, 0.1, 0.1, 0.06669442131557034, 0.1, 0.1, 0.1, 0.1, 0.1, 7.806401249024203e-05, 0.1, 0.1, 0.1, 0.1, 0.1, 6.939625260235949e-05, 0.1, 0.1, 0.1, 0.1, 0.1, 0.1, 0.1, 0.1, 0.1, 0.1, 0.1, 0.1, 0.1, 0.1, 0.1, 0.1, 0.1, 0.1, 0.1, 0.1, 0.1, 0.1, 0.1, 0.1, 0.1, 0.1, 0.1, 0.1, 0.1, 0.1, 0.1, 0.1, 0.1, 0.1, 0.1, 0.1, 0.1, 0.1, 0.1, 0.1, 0.1, 0.1, 0.1, 0.1, 0.1, 0.1, 0.1, 0.1, 0.1, 0.1, 0.1, 0.1, 0.00010405827263267427, 0.1, 0.1, 0.1, 0.1, 0.1, 0.1, 0.1, 0.1, 0.1, 0.1, 0.1, 0.1, 0.1, 0.1, 0.1, 0.1, 0.1, 0.1, 0.1, 0.1, 0.1, 0.1, 0.1, 0.1, 0.1, 0.1, 0.1, 0.1, 0.1, 0.1, 0.1, 0.1, 0.1, 0.1, 0.1, 0.1, 0.1, 0.1, 0.1, 0.1, 0.1, 0.1, 0.24953271028037388, 0.1, 0.00031152647975077894, 0.1, 0.1, 0.1, 0.1, 0.1, 0.1, 0.49916839916839917, 0.1, 0.1, 0.16652806652806654, 0.1, 0.1, 0.00017825311942959004, 0.1, 0.00017825311942959004, 0.1, 0.24988290398126464, 0.1, 0.00015600624024960993, 0.1, 0.1, 0.1, 0.1, 0.1, 0.1, 0.1, 0.00012484394506866414, 0.00012484394506866414, 0.1, 0.1, 0.1, 0.1, 0.1, 0.1, 0.1, 0.1, 0.1, 0.1, 0.1, 0.1, 0.1, 0.1, 0.1, 0.1, 0.1, 0.1, 0.06669442131557034, 0.1, 0.1, 0.1, 0.1, 0.1, 0.1, 0.1, 0.1, 0.1, 0.1, 0.1, 0.1, 0.1, 0.1, 0.1, 0.1, 0.1, 0.1, 0.1, 0.1, 0.1, 0.1, 0.1, 0.1, 0.1, 0.1, 0.1, 0.1, 0.1, 0.1, 0.1, 0.1, 0.1, 0.1, 0.1, 0.1, 0.1, 0.1, 0.1, 0.1, 0.1, 0.1, 0.1, 0.1, 0.1, 0.1, 0.1, 0.1, 0.1, 0.1, 0.1, 0.1, 0.1, 0.1, 0.1, 0.1, 0.1, 0.1, 0.1, 0.1, 0.1, 0.1, 0.1, 0.1, 0.1, 0.1, 0.1, 0.1, 0.1, 0.1, 0.1, 0.1, 0.1, 0.1, 0.1, 8.920606601248884e-05, 0.1, 0.1, 0.1, 0.1, 0.1, 0.1, 0.1, 0.1, 0.1, 0.1, 0.1, 0.1, 0.1, 7.347538574577515e-05, 0.1, 0.1, 0.1, 0.1, 0.1, 0.1, 0.1, 0.1, 0.1, 0.00015600624024960993, 0.00062111801242236, 0.1, 0.00062111801242236, 0.1, 5.205622071837586e-05, 0.00041493775933609947, 0.1, 0.00020790020790020794, 0.1, 0.06252927400468383, 0.06252927400468383, 0.1, 0.0003115264797507789, 0.1, 0.050031230480949415, 0.0002493765586034913, 0.1, 0.13330557868442963, 0.1, 0.00010405827263267427, 0.1, 0.1, 0.1, 0.1, 0.1, 0.1, 0.1, 0.1, 0.1, 0.00015600624024960993, 0.1, 0.1, 0.1, 0.1, 0.1, 0.1, 0.1, 0.00013869625520110954, 0.1, 0.1, 0.1, 0.1, 0.1, 0.1, 0.1, 0.1, 0.1, 0.1, 0.1, 0.1, 0.1, 0.1, 0.1, 0.1, 0.1, 0.1, 0.1, 0.1, 0.1, 0.1, 0.1, 0.1, 0.1, 0.1, 0.1, 0.1, 0.1, 0.1, 0.1, 0.1, 0.1, 0.1, 0.1, 0.1, 0.1, 0.1, 0.1, 0.1, 0.1, 0.1, 0.1, 0.1, 0.1, 0.1, 0.1, 0.1, 0.1, 0.1, 0.00041493775933609947, 0.1, 0.1, 0.1, 0.1, 0.1, 0.1, 0.1, 0.1, 0.1, 0.1, 0.1, 0.1, 0.1, 0.1, 0.1, 0.1, 0.1, 0.1, 0.1, 0.1, 0.1, 0.1, 0.1, 0.1, 0.1, 0.1, 0.1, 0.1, 0.1, 0.1, 0.1, 0.1, 0.1, 0.1, 0.1, 0.1, 0.1, 0.1, 0.1, 0.1, 0.1, 9.606147934678193e-05, 0.1, 4.8053820278712165e-05, 0.15379442843419786, 8.920606601248884e-05, 0.1, 0.1, 8.920606601248884e-05, 0.1, 0.1, 0.1, 0.1, 8.32639467110741e-05, 0.1, 0.1, 0.1, 0.1, 0.1, 7.806401249024203e-05, 0.1, 0.1, 0.1, 0.1, 0.1, 0.05558639833448995, 0.1, 0.1, 0.1, 0.1, 0.1, 0.1, 0.1, 0.1, 0.1, 0.1, 0.1, 0.1, 0.1, 0.1, 0.1, 0.1, 0.1, 0.1, 0.1, 0.1, 0.1, 0.1, 0.1, 0.1, 0.1, 0.1, 0.1, 0.1, 0.1, 0.1, 0.1, 0.1, 0.1, 0.1, 0.1, 0.1, 0.1, 0.1, 0.1, 0.1, 0.1, 0.1, 0.1, 0.1, 0.1, 0.1, 0.1, 0.1, 0.1, 0.1, 0.1, 0.1, 0.00010405827263267427, 0.1, 0.1, 0.1, 0.1, 0.1, 0.1, 0.1, 0.1, 0.1, 0.1, 0.1, 0.1, 0.1, 0.1, 0.1, 0.1, 0.1, 0.1, 0.1, 0.1, 0.1, 0.1, 0.1, 0.1, 0.1, 0.1, 0.1, 0.1, 0.1, 0.1, 0.1, 0.1, 0.1, 0.1, 0.1, 0.1, 0.1, 0.1, 0.1, 0.1, 0.1, 0.1, 0.0003115264797507789, 0.1, 0.00031152647975077894, 0.1, 0.1, 0.1, 0.1, 0.1, 0.1, 0.0002079002079002079, 0.1, 0.1, 0.16652806652806654, 0.1, 0.1, 0.00017825311942959004, 0.1, 0.14278074866310161, 0.1, 0.06252927400468385, 0.1, 0.00015600624024960993, 0.1, 0.1, 0.1, 0.1, 0.1, 0.1, 0.1, 0.00012484394506866414, 0.00012484394506866414, 0.1, 0.1, 0.1, 0.1, 0.1, 0.1, 0.1, 0.1, 0.1, 0.1, 0.1, 0.1, 0.1, 0.1, 0.1, 0.1, 0.1, 0.1, 8.32639467110741e-05, 0.1, 0.1, 0.1, 0.1, 0.1, 0.1, 0.1, 0.1, 0.1, 0.1, 0.1, 0.1, 0.1, 0.1, 0.1, 0.1, 0.1, 0.1, 0.1, 0.1, 0.1, 0.1, 0.1, 0.1, 0.1, 0.1, 0.1, 0.1, 0.1, 0.1, 0.1, 0.1, 0.1, 0.1, 0.1, 0.1, 0.1, 0.1, 0.1, 0.1, 0.1, 0.1, 0.1, 0.1, 0.1, 0.1, 0.1, 0.1, 0.1, 0.1, 0.1, 0.1, 0.1, 0.1, 0.1, 0.1, 0.1, 0.1, 0.1, 0.1, 0.1, 0.1, 0.1, 0.1, 0.1, 0.1, 0.1, 0.1, 0.1, 0.1, 0.1, 0.1, 0.1, 0.1, 0.1, 8.920606601248884e-05, 0.1, 0.1, 0.1, 0.1, 0.1, 0.1, 0.1, 0.1, 0.1, 0.1, 0.1, 0.1, 0.1, 0.0588537839823659, 0.1, 0.1, 0.1, 0.1, 0.1, 0.1, 0.1, 0.1, 0.1, 0.00015600624024960993, 0.00062111801242236, 0.1, 0.00062111801242236, 0.1, 5.205622071837586e-05, 0.00041493775933609947, 0.1, 0.00020790020790020794, 0.1, 0.18743169398907103, 7.806401249024198e-05, 0.1, 0.0003115264797507789, 0.1, 0.10000000000000003, 0.0002493765586034913, 0.1, 0.13330557868442963, 0.1, 0.00010405827263267427, 0.1, 0.1, 0.1, 0.1, 0.1, 0.1, 0.1, 0.1, 0.1, 0.12496099843993755, 0.1, 0.1, 0.1, 0.1, 0.1, 0.1, 0.1, 0.22205270457697637, 0.1, 0.1, 0.1, 0.1, 0.1, 0.1, 0.1, 0.1, 0.1, 0.1, 0.1, 0.1, 0.1, 0.1, 0.1, 0.1, 0.1, 0.1, 0.1, 0.1, 0.1, 0.1, 0.1, 0.1, 0.1, 0.1, 0.1, 0.1, 0.1, 0.1, 0.1, 0.1, 0.1, 0.1, 0.1, 0.1, 0.1, 0.1, 0.1, 0.1, 0.1, 0.1, 0.1, 0.1, 0.1, 0.1, 0.1, 0.1, 0.1, 0.1, 0.00041493775933609947, 0.1, 0.1, 0.1, 0.1, 0.1, 0.1, 0.1, 0.1, 0.1, 0.1, 0.1, 0.1, 0.1, 0.1, 0.1, 0.1, 0.1, 0.1, 0.1, 0.1, 0.1, 0.1, 0.1, 0.1, 0.1, 0.1, 0.1, 0.1, 0.1, 0.1, 0.1, 0.1, 0.1, 0.1, 0.1, 0.1, 0.1, 0.1, 0.1, 0.1, 0.1, 9.606147934678193e-05, 0.1, 4.8053820278712165e-05, 9.606147934678193e-05, 8.920606601248884e-05, 0.1, 0.1, 0.28554861730597675, 0.1, 0.1, 0.1, 0.1, 8.32639467110741e-05, 0.1, 0.1, 0.1, 0.1, 0.1, 7.806401249024203e-05, 0.1, 0.1, 0.1, 0.1, 0.1, 0.05558639833448995, 0.1, 0.1, 0.1, 0.1, 0.1, 0.1, 0.1, 0.1, 0.1, 0.1, 0.1, 0.1, 0.1, 0.1, 0.1, 0.1, 0.1, 0.1, 0.1, 0.1, 0.1, 0.1, 0.1, 0.1, 0.1, 0.1, 0.1, 0.1, 0.1, 0.1, 0.1, 0.1, 0.1, 0.1, 0.1, 0.1, 0.1, 0.1, 0.1, 0.1, 0.1, 0.1, 0.1, 0.1, 0.1, 0.1, 0.1, 0.1, 0.1, 0.1, 0.1, 0.1, 0.00010405827263267427, 0.1, 0.1, 0.1, 0.1, 0.1, 0.1, 0.1, 0.1, 0.1, 0.1, 0.1, 0.1, 0.1, 0.1, 0.1, 0.1, 0.1, 0.1, 0.1, 0.1, 0.1, 0.1, 0.1, 0.1, 0.1, 0.1, 0.1, 0.1, 0.1, 0.1, 0.1, 0.1, 0.1, 0.1, 0.1, 0.1, 0.1, 0.1, 0.1, 0.1, 0.1, 0.1, 0.0003115264797507789, 0.1, 0.00031152647975077894, 0.1, 0.1, 0.1, 0.1, 0.1, 0.1, 0.0002079002079002079, 0.1, 0.1, 0.00020790020790020794, 0.1, 0.1, 0.4279857397504457, 0.1, 0.00017825311942959004, 0.1, 0.06252927400468385, 0.1, 0.00015600624024960993, 0.1, 0.1, 0.1, 0.1, 0.1, 0.1, 0.1, 0.00012484394506866414, 0.00012484394506866414, 0.1, 0.1, 0.1, 0.1, 0.1, 0.1, 0.1, 0.1, 0.1, 0.1, 0.1, 0.1, 0.1, 0.1, 0.1, 0.1, 0.1, 0.1, 8.32639467110741e-05, 0.1, 0.1, 0.1, 0.1, 0.1, 0.1, 0.1, 0.1, 0.1, 0.1, 0.1, 0.1, 0.1, 0.1, 0.1, 0.1, 0.1, 0.1, 0.1, 0.1, 0.1, 0.1, 0.1, 0.1, 0.1, 0.1, 0.1, 0.1, 0.1, 0.1, 0.1, 0.1, 0.1, 0.1, 0.1, 0.1, 0.1, 0.1, 0.1, 0.1, 0.1, 0.1, 0.1, 0.1, 0.1, 0.1, 0.1, 0.1, 0.1, 0.1, 0.1, 0.1, 0.1, 0.1, 0.1, 0.1, 0.1, 0.1, 0.1, 0.1, 0.1, 0.1, 0.1, 0.1, 0.1, 0.1, 0.1, 0.1, 0.1, 0.1, 0.1, 0.1, 0.1, 0.1, 0.1, 0.07145405887600355, 0.1, 0.1, 0.1, 0.1, 0.1, 0.1, 0.1, 0.1, 0.1, 0.1, 0.1, 0.1, 0.1, 7.347538574577515e-05, 0.1, 0.1, 0.1, 0.1, 0.1, 0.1, 0.1, 0.1, 0.1, 0.00015600624024960993, 0.00062111801242236, 0.1, 0.00062111801242236, 0.1, 0.12498698594482044, 0.00041493775933609947, 0.1, 0.3328482328482329, 0.1, 0.06252927400468383, 7.806401249024198e-05, 0.1, 0.24953271028037388, 0.1, 0.050031230480949415, 0.0002493765586034913, 0.1, 0.06669442131557034, 0.1, 0.0833506763787721, 0.1, 0.1, 0.1, 0.1, 0.1, 0.1, 0.1, 0.1, 0.1, 0.00015600624024960993, 0.1, 0.1, 0.1, 0.1, 0.1, 0.1, 0.1, 0.00013869625520110954, 0.1, 0.1, 0.1, 0.1, 0.1, 0.1, 0.1, 0.1, 0.1, 0.1, 0.1, 0.1, 0.1, 0.1, 0.1, 0.1, 0.1, 0.1, 0.1, 0.1, 0.1, 0.1, 0.1, 0.1, 0.1, 0.1, 0.1, 0.1, 0.1, 0.1, 0.1, 0.1, 0.1, 0.1, 0.1, 0.1, 0.1, 0.1, 0.1, 0.1, 0.1, 0.1, 0.1, 0.1, 0.1, 0.1, 0.1, 0.1, 0.1, 0.1, 0.00041493775933609947, 0.1, 0.1, 0.1, 0.1, 0.1, 0.1, 0.1, 0.1, 0.1, 0.1, 0.1, 0.1, 0.1, 0.1, 0.1, 0.1, 0.1, 0.1, 0.1, 0.1, 0.1, 0.1, 0.1, 0.1, 0.1, 0.1, 0.1, 0.1, 0.1, 0.1, 0.1, 0.1, 0.1, 0.1, 0.1, 0.1, 0.1, 0.1, 0.1, 0.1, 0.1, 9.606147934678193e-05, 0.1, 0.03849111004324844, 9.606147934678193e-05, 8.920606601248884e-05, 0.1, 0.1, 0.14281891168599464, 0.1, 0.1, 0.1, 0.1, 8.32639467110741e-05, 0.1, 0.1, 0.1, 0.1, 0.1, 7.806401249024203e-05, 0.1, 0.1, 0.1, 0.1, 0.1, 0.05558639833448995, 0.1, 0.1, 0.1, 0.1, 0.1, 0.1, 0.1, 0.1, 0.1, 0.1, 0.1, 0.1, 0.1, 0.1, 0.1, 0.1, 0.1, 0.1, 0.1, 0.1, 0.1, 0.1, 0.1, 0.1, 0.1, 0.1, 0.1, 0.1, 0.1, 0.1, 0.1, 0.1, 0.1, 0.1, 0.1, 0.1, 0.1, 0.1, 0.1, 0.1, 0.1, 0.1, 0.1, 0.1, 0.1, 0.1, 0.1, 0.1, 0.1, 0.1, 0.1, 0.1, 0.00010405827263267427, 0.1, 0.1, 0.1, 0.1, 0.1, 0.1, 0.1, 0.1, 0.1, 0.1, 0.1, 0.1, 0.1, 0.1, 0.1, 0.1, 0.1, 0.1, 0.1, 0.1, 0.1, 0.1, 0.1, 0.1, 0.1, 0.1, 0.1, 0.1, 0.1, 0.1, 0.1, 0.1, 0.1, 0.1, 0.1, 0.1, 0.1, 0.1, 0.1, 0.1, 0.1, 0.1, 0.0003115264797507789, 0.1, 0.00031152647975077894, 0.1, 0.1, 0.1, 0.1, 0.1, 0.1, 0.0002079002079002079, 0.1, 0.1, 0.00020790020790020794, 0.1, 0.1, 0.00017825311942959004, 0.1, 0.00017825311942959004, 0.1, 7.8064012490242e-05, 0.1, 0.00015600624024960993, 0.1, 0.1, 0.1, 0.1, 0.1, 0.1, 0.1, 0.00012484394506866414, 0.00012484394506866414, 0.1, 0.1, 0.1, 0.1, 0.1, 0.1, 0.1, 0.1, 0.1, 0.1, 0.1, 0.1, 0.1, 0.1, 0.1, 0.1, 0.1, 0.1, 8.32639467110741e-05, 0.1, 0.1, 0.1, 0.1, 0.1, 0.1, 0.1, 0.1, 0.1, 0.1, 0.1, 0.1, 0.1, 0.1, 0.1, 0.1, 0.1, 0.1, 0.1, 0.1, 0.1, 0.1, 0.1, 0.1, 0.1, 0.1, 0.1, 0.1, 0.1, 0.1, 0.1, 0.1, 0.1, 0.1, 0.1, 0.1, 0.1, 0.1, 0.1, 0.1, 0.1, 0.1, 0.1, 0.1, 0.1, 0.1, 0.1, 0.1, 0.1, 0.1, 0.1, 0.1, 0.1, 0.1, 0.1, 0.1, 0.1, 0.1, 0.1, 0.1, 0.1, 0.1, 0.1, 0.1, 0.1, 0.1, 0.1, 0.1, 0.1, 0.1, 0.1, 0.1, 0.1, 0.1, 0.1, 8.920606601248884e-05, 0.1, 0.1, 0.1, 0.1, 0.1, 0.1, 0.1, 0.1, 0.1, 0.1, 0.1, 0.1, 0.1, 0.11763409257898604, 0.1, 0.1, 0.1, 0.1, 0.1, 0.1, 0.1, 0.1, 0.1, 0.7489859594383772, 0.00062111801242236, 0.1, 0.00062111801242236, 0.1, 0.16663196251952112, 0.00041493775933609947, 0.1, 0.16652806652806654, 0.1, 0.12498048399687743, 0.2498829039812646, 0.1, 0.0003115264797507789, 0.1, 0.19993753903810121, 0.5987531172069827, 0.1, 0.06669442131557034, 0.1, 0.00010405827263267427, 0.1, 0.1, 0.1, 0.1, 0.1, 0.1, 0.1, 0.1, 0.1, 0.2497659906396255, 0.1, 0.1, 0.1, 0.1, 0.1, 0.1, 0.1, 0.22205270457697637, 0.1, 0.1, 0.1, 0.1, 0.1, 0.1, 0.1, 0.1, 0.1, 0.1, 0.1, 0.1, 0.1, 0.1, 0.1, 0.1, 0.1, 0.1, 0.1, 0.1, 0.1, 0.1, 0.1, 0.1, 0.1, 0.1, 0.1, 0.1, 0.1, 0.1, 0.1, 0.1, 0.1, 0.1, 0.1, 0.1, 0.1, 0.1, 0.1, 0.1, 0.1, 0.1, 0.1, 0.1, 0.1, 0.1, 0.1, 0.1, 0.1, 0.1, 0.9962655601659748, 0.1, 0.1, 0.1, 0.1, 0.1, 0.1, 0.1, 0.1, 0.1, 0.1, 0.1, 0.1, 0.1, 0.1, 0.1, 0.1, 0.1, 0.1, 0.1, 0.1, 0.1, 0.1, 0.1, 0.1, 0.1, 0.1, 0.1, 0.1, 0.1, 0.1, 0.1, 0.1, 0.1, 0.1, 0.1, 0.1, 0.1, 0.1, 0.1, 0.1, 0.1, 0.6148895292987511, 0.1, 0.3844786160499761, 0.3074927953890489, 0.2141837644959857, 0.1, 0.1, 0.07145405887600355, 0.1, 0.1, 0.1, 0.1, 0.5995836802664446, 0.1, 0.1, 0.1, 0.1, 0.1, 0.6245901639344265, 0.1, 0.1, 0.1, 0.1, 0.1, 0.33317140874392787, 0.1, 0.1, 0.1, 0.1, 0.1, 0.1, 0.1, 0.1, 0.1, 0.1, 0.1, 0.1, 0.1, 0.1, 0.1, 0.1, 0.1, 0.1, 0.1, 0.1, 0.1, 0.1, 0.1, 0.1, 0.1, 0.1, 0.1, 0.1, 0.1, 0.1, 0.1, 0.1, 0.1, 0.1, 0.1, 0.1, 0.1, 0.1, 0.1, 0.1, 0.1, 0.1, 0.1, 0.1, 0.1, 0.1, 0.1, 0.1, 0.1, 0.1, 0.1, 0.1, 0.00010405827263267427, 0.1, 0.1, 0.1, 0.1, 0.1, 0.1, 0.1, 0.1, 0.1, 0.1, 0.1, 0.1, 0.1, 0.1, 0.1, 0.1, 0.1, 0.1, 0.1, 0.1, 0.1, 0.1, 0.1, 0.1, 0.1, 0.1, 0.1, 0.1, 0.1, 0.1, 0.1, 0.1, 0.1, 0.1, 0.1, 0.1, 0.1, 0.1, 0.1, 0.1, 0.1, 0.1, 0.0003115264797507789, 0.1, 0.00031152647975077894, 0.1, 0.1, 0.1, 0.1, 0.1, 0.1, 0.0002079002079002079, 0.1, 0.1, 0.16652806652806654, 0.1, 0.1, 0.2853832442067737, 0.1, 0.4279857397504457, 0.1, 7.8064012490242e-05, 0.1, 0.49937597503900133, 0.1, 0.1, 0.1, 0.1, 0.1, 0.1, 0.1, 0.2997503121098626, 0.5993757802746564, 0.1, 0.1, 0.1, 0.1, 0.1, 0.1, 0.1, 0.1, 0.1, 0.1, 0.1, 0.1, 0.1, 0.1, 0.1, 0.1, 0.1, 0.1, 8.32639467110741e-05, 0.1, 0.1, 0.1, 0.1, 0.1, 0.1, 0.1, 0.1, 0.1, 0.1, 0.1, 0.1, 0.1, 0.1, 0.1, 0.1, 0.1, 0.1, 0.1, 0.1, 0.1, 0.1, 0.1, 0.1, 0.1, 0.1, 0.1, 0.1, 0.1, 0.1, 0.1, 0.1, 0.1, 0.1, 0.1, 0.1, 0.1, 0.1, 0.1, 0.1, 0.1, 0.1, 0.1, 0.1, 0.1, 0.1, 0.1, 0.1, 0.1, 0.1, 0.1, 0.1, 0.1, 0.1, 0.1, 0.1, 0.1, 0.1, 0.1, 0.1, 0.1, 0.1, 0.1, 0.1, 0.1, 0.1, 0.1, 0.1, 0.1, 0.1, 0.1, 0.1, 0.1, 0.1, 0.1, 8.920606601248884e-05, 0.1, 0.1, 0.1, 0.1, 0.1, 0.1, 0.1, 0.1, 0.1, 0.1, 0.1, 0.1, 0.1, 0.0588537839823659, 0.1, 0.1, 0.1, 0.1, 0.1, 0.1, 0.1, 0.1, 0.1, 0.2497659906396255, 0.9944099378881983, 0.1, 0.9944099378881983, 0.1, 0.5830817282665279, 0.9962655601659748, 0.1, 0.3328482328482329, 0.1, 0.37478532396565173, 0.499687743950039, 0.1, 0.7479750778816201, 0.1, 0.5497189256714555, 0.39925187032418963, 0.1, 0.466361365528726, 0.1, 0.7493236212278875, 0.1, 0.1, 0.1, 0.1, 0.1, 0.1, 0.1, 0.1, 0.1, 0.6241809672386893, 0.1, 0.1, 0.1, 0.1, 0.1, 0.1, 0.1, 0.44396671289875156, 0.1, 0.1, 0.1, 0.1, 0.1, 0.1, 0.1, 0.1, 0.1, 0.1, 0.1, 0.1, 0.1, 0.1, 0.1, 0.1, 0.1, 0.1, 0.1, 0.1, 0.1, 0.1, 0.1, 0.1, 0.1, 0.1, 0.1, 0.1, 0.1, 0.1, 0.1, 0.1, 0.1, 0.1, 0.1, 0.1, 0.1, 0.1, 0.1, 0.1, 0.1, 0.1, 0.1, 0.1, 0.1, 0.1, 0.1, 0.1, 0.1, 0.1, 0.00041493775933609947, 0.1, 0.1, 0.1, 0.1, 0.1, 0.1, 0.1, 0.1, 0.1, 0.1, 0.1, 0.1, 0.1, 0.1, 0.1, 0.1, 0.1, 0.1, 0.1, 0.1, 0.1, 0.1, 0.1, 0.1, 0.1, 0.1, 0.1, 0.1, 0.1, 0.1, 0.1, 0.1, 0.1, 0.1, 0.1, 0.1, 0.1, 0.1, 0.1, 0.1, 0.1, 0.3074927953890489, 0.1, 0.3844786160499761, 0.46119116234389995, 0.6423728813559321, 0.1, 0.1, 0.4996431757359499, 0.1, 0.1, 0.1, 0.1, 0.26652789342214817, 0.1, 0.1, 0.1, 0.1, 0.1, 0.3747853239656519, 0.1, 0.1, 0.1, 0.1, 0.1, 0.4442054129077031, 0.1, 0.1, 0.1, 0.1, 0.1, 0.1, 0.1, 0.1, 0.1, 0.1, 0.1, 0.1, 0.1, 0.1, 0.1, 0.1, 0.1, 0.1, 0.1, 0.1, 0.1, 0.1, 0.1, 0.1, 0.1, 0.1, 0.1, 0.1, 0.1, 0.1, 0.1, 0.1, 0.1, 0.1, 0.1, 0.1, 0.1, 0.1, 0.1, 0.1, 0.1, 0.1, 0.1, 0.1, 0.1, 0.1, 0.1, 0.1, 0.1, 0.1, 0.1, 0.1, 0.832570239334027, 0.1, 0.1, 0.1, 0.1, 0.1, 0.1, 0.1, 0.1, 0.1, 0.1, 0.1, 0.1, 0.1, 0.1, 0.1, 0.1, 0.1, 0.1, 0.1, 0.1, 0.1, 0.1, 0.1, 0.1, 0.1, 0.1, 0.1, 0.1, 0.1, 0.1, 0.1, 0.1, 0.1, 0.1, 0.1, 0.1, 0.1, 0.1, 0.1, 0.1, 0.1, 0.1, 0.7479750778816201, 0.1, 0.9971962616822433, 0.1, 0.1, 0.1, 0.1, 0.1, 0.1, 0.3328482328482329, 0.1, 0.1, 0.3328482328482329, 0.1, 0.1, 0.2853832442067737, 0.1, 0.2853832442067737, 0.1, 0.3123341139734582, 0.1, 0.49937597503900133, 0.1, 0.1, 0.1, 0.1, 0.1, 0.1, 0.1, 0.6992509363295878, 0.2997503121098626, 0.1, 0.1, 0.1, 0.1, 0.1, 0.1, 0.1, 0.1, 0.1, 0.1, 0.1, 0.1, 0.1, 0.1, 0.1, 0.1, 0.1, 0.1, 0.7994171523730224, 0.1, 0.1, 0.1, 0.1, 0.1, 0.1, 0.1, 0.1, 0.1, 0.1, 0.1, 0.1, 0.1, 0.1, 0.1, 0.1, 0.1, 0.1, 0.1, 0.1, 0.1, 0.1, 0.1, 0.1, 0.1, 0.1, 0.1, 0.1, 0.1, 0.1, 0.1, 0.1, 0.1, 0.1, 0.1, 0.1, 0.1, 0.1, 0.1, 0.1, 0.1, 0.1, 0.1, 0.1, 0.1, 0.1, 0.1, 0.1, 0.1, 0.1, 0.1, 0.1, 0.1, 0.1, 0.1, 0.1, 0.1, 0.1, 0.1, 0.1, 0.1, 0.1, 0.1, 0.1, 0.1, 0.1, 0.1, 0.1, 0.1, 0.1, 0.1, 0.1, 0.1, 0.1, 0.1, 0.9278322925958964, 0.1, 0.1, 0.1, 0.1, 0.1, 0.1, 0.1, 0.1, 0.1, 0.1, 0.1, 0.1, 0.1, 0.5290962527553269, 0.1, 0.1, 0.1, 0.1, 0.1, 0.1, 0.1, 0.1, 0.1, 0.00015600624024960993, 0.00062111801242236, 0.1, 0.00062111801242236, 0.1, 5.205622071837586e-05, 0.00041493775933609947, 0.1, 0.00020790020790020794, 0.1, 7.806401249024198e-05, 7.806401249024198e-05, 0.1, 0.0003115264797507789, 0.1, 6.246096189881325e-05, 0.0002493765586034913, 0.1, 8.32639467110741e-05, 0.1, 0.00010405827263267427, 0.1, 0.1, 0.1, 0.1, 0.1, 0.1, 0.1, 0.1, 0.1, 0.00015600624024960993, 0.1, 0.1, 0.1, 0.1, 0.1, 0.1, 0.1, 0.00013869625520110954, 0.1, 0.1, 0.1, 0.1, 0.1, 0.1, 0.1, 0.1, 0.1, 0.1, 0.1, 0.1, 0.1, 0.1, 0.1, 0.1, 0.1, 0.1, 0.1, 0.1, 0.1, 0.1, 0.1, 0.1, 0.1, 0.1, 0.1, 0.1, 0.1, 0.1, 0.1, 0.1, 0.1, 0.1, 0.1, 0.1, 0.1, 0.1, 0.1, 0.1, 0.1, 0.1, 0.1, 0.1, 0.1, 0.1, 0.1, 0.1, 0.1, 0.1, 0.00041493775933609947, 0.1, 0.1, 0.1, 0.1, 0.1, 0.1, 0.1, 0.1, 0.1, 0.1, 0.1, 0.1, 0.1, 0.1, 0.1, 0.1, 0.1, 0.1, 0.1, 0.1, 0.1, 0.1, 0.1, 0.1, 0.1, 0.1, 0.1, 0.1, 0.1, 0.1, 0.1, 0.1, 0.1, 0.1, 0.1, 0.1, 0.1, 0.1, 0.1, 0.1, 0.1, 9.606147934678193e-05, 0.1, 4.8053820278712165e-05, 9.606147934678193e-05, 8.920606601248884e-05, 0.1, 0.1, 8.920606601248884e-05, 0.1, 0.1, 0.1, 0.1, 8.32639467110741e-05, 0.1, 0.1, 0.1, 0.1, 0.1, 7.806401249024203e-05, 0.1, 0.1, 0.1, 0.1, 0.1, 6.939625260235949e-05, 0.1, 0.1, 0.1, 0.1, 0.1, 0.1, 0.1, 0.1, 0.1, 0.1, 0.1, 0.1, 0.1, 0.1, 0.1, 0.1, 0.1, 0.1, 0.1, 0.1, 0.1, 0.1, 0.1, 0.1, 0.1, 0.1, 0.1, 0.1, 0.1, 0.1, 0.1, 0.1, 0.1, 0.1, 0.1, 0.1, 0.1, 0.1, 0.1, 0.1, 0.1, 0.1, 0.1, 0.1, 0.1, 0.1, 0.1, 0.1, 0.1, 0.1, 0.1, 0.1, 0.00010405827263267427, 0.1, 0.1, 0.1, 0.1, 0.1, 0.1, 0.1, 0.1, 0.1, 0.1, 0.1, 0.1, 0.1, 0.1, 0.1, 0.1, 0.1, 0.1, 0.1, 0.1, 0.1, 0.1, 0.1, 0.1, 0.1, 0.1, 0.1, 0.1, 0.1, 0.1, 0.1, 0.1, 0.1, 0.1, 0.1, 0.1, 0.1, 0.1, 0.1, 0.1, 0.1, 0.1, 0.0003115264797507789, 0.1, 0.00031152647975077894, 0.1, 0.1, 0.1, 0.1, 0.1, 0.1, 0.0002079002079002079, 0.1, 0.1, 0.00020790020790020794, 0.1, 0.1, 0.00017825311942959004, 0.1, 0.00017825311942959004, 0.1, 0.06252927400468385, 0.1, 0.00015600624024960993, 0.1, 0.1, 0.1, 0.1, 0.1, 0.1, 0.1, 0.00012484394506866414, 0.09999999999999996, 0.1, 0.1, 0.1, 0.1, 0.1, 0.1, 0.1, 0.1, 0.1, 0.1, 0.1, 0.1, 0.1, 0.1, 0.1, 0.1, 0.1, 0.1, 8.32639467110741e-05, 0.1, 0.1, 0.1, 0.1, 0.1, 0.1, 0.1, 0.1, 0.1, 0.1, 0.1, 0.1, 0.1, 0.1, 0.1, 0.1, 0.1, 0.1, 0.1, 0.1, 0.1, 0.1, 0.1, 0.1, 0.1, 0.1, 0.1, 0.1, 0.1, 0.1, 0.1, 0.1, 0.1, 0.1, 0.1, 0.1, 0.1, 0.1, 0.1, 0.1, 0.1, 0.1, 0.1, 0.1, 0.1, 0.1, 0.1, 0.1, 0.1, 0.1, 0.1, 0.1, 0.1, 0.1, 0.1, 0.1, 0.1, 0.1, 0.1, 0.1, 0.1, 0.1, 0.1, 0.1, 0.1, 0.1, 0.1, 0.1, 0.1, 0.1, 0.1, 0.1, 0.1, 0.1, 0.1, 8.920606601248884e-05, 0.1, 0.1, 0.1, 0.1, 0.1, 0.1, 0.1, 0.1, 0.1, 0.1, 0.1, 0.1, 0.1, 7.347538574577515e-05, 0.1, 0.1, 0.1, 0.1, 0.1, 0.1, 0.1, 0.1, 0.1, 0.00015600624024960993, 0.00062111801242236, 0.1, 0.00062111801242236, 0.1, 0.04169703279541906, 0.00041493775933609947, 0.1, 0.00020790020790020794, 0.1, 7.806401249024198e-05, 7.806401249024198e-05, 0.1, 0.0003115264797507789, 0.1, 6.246096189881325e-05, 0.0002493765586034913, 0.1, 8.32639467110741e-05, 0.1, 0.0833506763787721, 0.1, 0.1, 0.1, 0.1, 0.1, 0.1, 0.1, 0.1, 0.1, 0.00015600624024960993, 0.1, 0.1, 0.1, 0.1, 0.1, 0.1, 0.1, 0.00013869625520110954, 0.1, 0.1, 0.1, 0.1, 0.1, 0.1, 0.1, 0.1, 0.1, 0.1, 0.1, 0.1, 0.1, 0.1, 0.1, 0.1, 0.1, 0.1, 0.1, 0.1, 0.1, 0.1, 0.1, 0.1, 0.1, 0.1, 0.1, 0.1, 0.1, 0.1, 0.1, 0.1, 0.1, 0.1, 0.1, 0.1, 0.1, 0.1, 0.1, 0.1, 0.1, 0.1, 0.1, 0.1, 0.1, 0.1, 0.1, 0.1, 0.1, 0.1, 0.00041493775933609947, 0.1, 0.1, 0.1, 0.1, 0.1, 0.1, 0.1, 0.1, 0.1, 0.1, 0.1, 0.1, 0.1, 0.1, 0.1, 0.1, 0.1, 0.1, 0.1, 0.1, 0.1, 0.1, 0.1, 0.1, 0.1, 0.1, 0.1, 0.1, 0.1, 0.1, 0.1, 0.1, 0.1, 0.1, 0.1, 0.1, 0.1, 0.1, 0.1, 0.1, 0.1, 9.606147934678193e-05, 0.1, 0.03849111004324844, 9.606147934678193e-05, 8.920606601248884e-05, 0.1, 0.1, 8.920606601248884e-05, 0.1, 0.1, 0.1, 0.1, 8.32639467110741e-05, 0.1, 0.1, 0.1, 0.1, 0.1, 7.806401249024203e-05, 0.1, 0.1, 0.1, 0.1, 0.1, 6.939625260235949e-05, 0.1, 0.1, 0.1, 0.1, 0.1, 0.1, 0.1, 0.1, 0.1, 0.1, 0.1, 0.1, 0.1, 0.1, 0.1, 0.1, 0.1, 0.1, 0.1, 0.1, 0.1, 0.1, 0.1, 0.1, 0.1, 0.1, 0.1, 0.1, 0.1, 0.1, 0.1, 0.1, 0.1, 0.1, 0.1, 0.1, 0.1, 0.1, 0.1, 0.1, 0.1, 0.1, 0.1, 0.1, 0.1, 0.1, 0.1, 0.1, 0.1, 0.1, 0.1, 0.1, 0.00010405827263267427, 0.1, 0.1, 0.1, 0.1, 0.1, 0.1, 0.1, 0.1, 0.1, 0.1, 0.1, 0.1, 0.1, 0.1, 0.1, 0.1, 0.1, 0.1, 0.1, 0.1, 0.1, 0.1, 0.1, 0.1, 0.1, 0.1, 0.1, 0.1, 0.1, 0.1, 0.1, 0.1, 0.1, 0.1, 0.1, 0.1, 0.1, 0.1, 0.1, 0.1, 0.1, 0.1, 0.0003115264797507789, 0.1, 0.00031152647975077894, 0.1, 0.1, 0.1, 0.1, 0.1, 0.1, 0.0002079002079002079, 0.1, 0.1, 0.16652806652806654, 0.1, 0.1, 0.00017825311942959004, 0.1, 0.00017825311942959004, 0.1, 0.06252927400468385, 0.1, 0.00015600624024960993, 0.1, 0.1, 0.1, 0.1, 0.1, 0.1, 0.1, 0.00012484394506866414, 0.00012484394506866414, 0.1, 0.1, 0.1, 0.1, 0.1, 0.1, 0.1, 0.1, 0.1, 0.1, 0.1, 0.1, 0.1, 0.1, 0.1, 0.1, 0.1, 0.1, 0.06669442131557034, 0.1, 0.1, 0.1, 0.1, 0.1, 0.1, 0.1, 0.1, 0.1, 0.1, 0.1, 0.1, 0.1, 0.1, 0.1, 0.1, 0.1, 0.1, 0.1, 0.1, 0.1, 0.1, 0.1, 0.1, 0.1, 0.1, 0.1, 0.1, 0.1, 0.1, 0.1, 0.1, 0.1, 0.1, 0.1, 0.1, 0.1, 0.1, 0.1, 0.1, 0.1, 0.1, 0.1, 0.1, 0.1, 0.1, 0.1, 0.1, 0.1, 0.1, 0.1, 0.1, 0.1, 0.1, 0.1, 0.1, 0.1, 0.1, 0.1, 0.1, 0.1, 0.1, 0.1, 0.1, 0.1, 0.1, 0.1, 0.1, 0.1, 0.1, 0.1, 0.1, 0.1, 0.1, 0.1, 8.920606601248884e-05, 0.1, 0.1, 0.1, 0.1, 0.1, 0.1, 0.1, 0.1, 0.1, 0.1, 0.1, 0.1, 0.1, 7.347538574577515e-05, 0.1, 0.1, 0.1, 0.1, 0.1, 0.1, 0.1, 0.1, 0.1, 0.00015600624024960993, 0.00062111801242236, 0.1, 0.00062111801242236, 0.1, 5.205622071837586e-05, 0.00041493775933609947, 0.1, 0.00020790020790020794, 0.1, 7.806401249024198e-05, 7.806401249024198e-05, 0.1, 0.0003115264797507789, 0.1, 6.246096189881325e-05, 0.0002493765586034913, 0.1, 8.32639467110741e-05, 0.1, 0.00010405827263267427, 0.1, 0.1, 0.1, 0.1, 0.1, 0.1, 0.1, 0.1, 0.1, 0.00015600624024960993, 0.1, 0.1, 0.1, 0.1, 0.1, 0.1, 0.1, 0.00013869625520110954, 0.1, 0.1, 0.1, 0.1, 0.1, 0.1, 0.1, 0.1, 0.1, 0.1, 0.1, 0.1, 0.1, 0.1, 0.1, 0.1, 0.1, 0.1, 0.1, 0.1, 0.1, 0.1, 0.1, 0.1, 0.1, 0.1, 0.1, 0.1, 0.1, 0.1, 0.1, 0.1, 0.1, 0.1, 0.1, 0.1, 0.1, 0.1, 0.1, 0.1, 0.1, 0.1, 0.1, 0.1, 0.1, 0.1, 0.1, 0.1, 0.1, 0.1, 0.00041493775933609947, 0.1, 0.1, 0.1, 0.1, 0.1, 0.1, 0.1, 0.1, 0.1, 0.1, 0.1, 0.1, 0.1, 0.1, 0.1, 0.1, 0.1, 0.1, 0.1, 0.1, 0.1, 0.1, 0.1, 0.1, 0.1, 0.1, 0.1, 0.1, 0.1, 0.1, 0.1, 0.1, 0.1, 0.1, 0.1, 0.1, 0.1, 0.1, 0.1, 0.1, 0.1, 9.606147934678193e-05, 0.1, 4.8053820278712165e-05, 0.07694524495677231, 8.920606601248884e-05, 0.1, 0.1, 8.920606601248884e-05, 0.1, 0.1, 0.1, 0.1, 8.32639467110741e-05, 0.1, 0.1, 0.1, 0.1, 0.1, 7.806401249024203e-05, 0.1, 0.1, 0.1, 0.1, 0.1, 6.939625260235949e-05, 0.1, 0.1, 0.1, 0.1, 0.1, 0.1, 0.1, 0.1, 0.1, 0.1, 0.1, 0.1, 0.1, 0.1, 0.1, 0.1, 0.1, 0.1, 0.1, 0.1, 0.1, 0.1, 0.1, 0.1, 0.1, 0.1, 0.1, 0.1, 0.1, 0.1, 0.1, 0.1, 0.1, 0.1, 0.1, 0.1, 0.1, 0.1, 0.1, 0.1, 0.1, 0.1, 0.1, 0.1, 0.1, 0.1, 0.1, 0.1, 0.1, 0.1, 0.1, 0.1, 0.0833506763787721, 0.1, 0.1, 0.1, 0.1, 0.1, 0.1, 0.1, 0.1, 0.1, 0.1, 0.1, 0.1, 0.1, 0.1, 0.1, 0.1, 0.1, 0.1, 0.1, 0.1, 0.1, 0.1, 0.1, 0.1, 0.1, 0.1, 0.1, 0.1, 0.1, 0.1, 0.1, 0.1, 0.1, 0.1, 0.1, 0.1, 0.1, 0.1, 0.1, 0.1, 0.1, 0.1, 0.0003115264797507789, 0.1, 0.00031152647975077894, 0.1, 0.1, 0.1, 0.1, 0.1, 0.1, 0.0002079002079002079, 0.1, 0.1, 0.00020790020790020794, 0.1, 0.1, 0.00017825311942959004, 0.1, 0.00017825311942959004, 0.1, 7.8064012490242e-05, 0.1, 0.00015600624024960993, 0.1, 0.1, 0.1, 0.1, 0.1, 0.1, 0.1, 0.00012484394506866414, 0.00012484394506866414, 0.1, 0.1, 0.1, 0.1, 0.1, 0.1, 0.1, 0.1, 0.1, 0.1, 0.1, 0.1, 0.1, 0.1, 0.1, 0.1, 0.1, 0.1, 8.32639467110741e-05, 0.1, 0.1, 0.1, 0.1, 0.1, 0.1, 0.1, 0.1, 0.1, 0.1, 0.1, 0.1, 0.1, 0.1, 0.1, 0.1, 0.1, 0.1, 0.1, 0.1, 0.1, 0.1, 0.1, 0.1, 0.1, 0.1, 0.1, 0.1, 0.1, 0.1, 0.1, 0.1, 0.1, 0.1, 0.1, 0.1, 0.1, 0.1, 0.1, 0.1, 0.1, 0.1, 0.1, 0.1, 0.1, 0.1, 0.1, 0.1, 0.1, 0.1, 0.1, 0.1, 0.1, 0.1, 0.1, 0.1, 0.1, 0.1, 0.1, 0.1, 0.1, 0.1, 0.1, 0.1, 0.1, 0.1, 0.1, 0.1, 0.1, 0.1, 0.1, 0.1, 0.1, 0.1, 0.1, 8.920606601248884e-05, 0.1, 0.1, 0.1, 0.1, 0.1, 0.1, 0.1, 0.1, 0.1, 0.1, 0.1, 0.1, 0.1, 7.347538574577515e-05, 0.1, 0.1, 0.1, 0.1, 0.1, 0.1, 0.1, 0.1, 0.1, 0.00015600624024960993, 0.00062111801242236, 0.1, 0.00062111801242236, 0.1, 0.08334200937011975, 0.00041493775933609947, 0.1, 0.16652806652806654, 0.1, 0.12498048399687743, 0.18743169398907103, 0.1, 0.0003115264797507789, 0.1, 0.050031230480949415, 0.0002493765586034913, 0.1, 0.13330557868442963, 0.1, 0.0833506763787721, 0.1, 0.1, 0.1, 0.1, 0.1, 0.1, 0.1, 0.1, 0.1, 0.00015600624024960993, 0.1, 0.1, 0.1, 0.1, 0.1, 0.1, 0.1, 0.11109570041608872, 0.1, 0.1, 0.1, 0.1, 0.1, 0.1, 0.1, 0.1, 0.1, 0.1, 0.1, 0.1, 0.1, 0.1, 0.1, 0.1, 0.1, 0.1, 0.1, 0.1, 0.1, 0.1, 0.1, 0.1, 0.1, 0.1, 0.1, 0.1, 0.1, 0.1, 0.1, 0.1, 0.1, 0.1, 0.1, 0.1, 0.1, 0.1, 0.1, 0.1, 0.1, 0.1, 0.1, 0.1, 0.1, 0.1, 0.1, 0.1, 0.1, 0.1, 0.00041493775933609947, 0.1, 0.1, 0.1, 0.1, 0.1, 0.1, 0.1, 0.1, 0.1, 0.1, 0.1, 0.1, 0.1, 0.1, 0.1, 0.1, 0.1, 0.1, 0.1, 0.1, 0.1, 0.1, 0.1, 0.1, 0.1, 0.1, 0.1, 0.1, 0.1, 0.1, 0.1, 0.1, 0.1, 0.1, 0.1, 0.1, 0.1, 0.1, 0.1, 0.1, 0.1, 0.07694524495677231, 0.1, 0.15382027871215764, 9.606147934678193e-05, 0.14281891168599464, 0.1, 0.1, 8.920606601248884e-05, 0.1, 0.1, 0.1, 0.1, 0.06669442131557034, 0.1, 0.1, 0.1, 0.1, 0.1, 7.806401249024203e-05, 0.1, 0.1, 0.1, 0.1, 0.1, 0.05558639833448995, 0.1, 0.1, 0.1, 0.1, 0.1, 0.1, 0.1, 0.1, 0.1, 0.1, 0.1, 0.1, 0.1, 0.1, 0.1, 0.1, 0.1, 0.1, 0.1, 0.1, 0.1, 0.1, 0.1, 0.1, 0.1, 0.1, 0.1, 0.1, 0.1, 0.1, 0.1, 0.1, 0.1, 0.1, 0.1, 0.1, 0.1, 0.1, 0.1, 0.1, 0.1, 0.1, 0.1, 0.1, 0.1, 0.1, 0.1, 0.1, 0.1, 0.1, 0.1, 0.1, 0.0833506763787721, 0.1, 0.1, 0.1, 0.1, 0.1, 0.1, 0.1, 0.1, 0.1, 0.1, 0.1, 0.1, 0.1, 0.1, 0.1, 0.1, 0.1, 0.1, 0.1, 0.1, 0.1, 0.1, 0.1, 0.1, 0.1, 0.1, 0.1, 0.1, 0.1, 0.1, 0.1, 0.1, 0.1, 0.1, 0.1, 0.1, 0.1, 0.1, 0.1, 0.1, 0.1, 0.1, 0.0003115264797507789, 0.1, 0.00031152647975077894, 0.1, 0.1, 0.1, 0.1, 0.1, 0.1, 0.1665280665280665, 0.1, 0.1, 0.00020790020790020794, 0.1, 0.1, 0.00017825311942959004, 0.1, 0.14278074866310161, 0.1, 0.18743169398907106, 0.1, 0.00015600624024960993, 0.1, 0.1, 0.1, 0.1, 0.1, 0.1, 0.1, 0.00012484394506866414, 0.00012484394506866414, 0.1, 0.1, 0.1, 0.1, 0.1, 0.1, 0.1, 0.1, 0.1, 0.1, 0.1, 0.1, 0.1, 0.1, 0.1, 0.1, 0.1, 0.1, 0.06669442131557034, 0.1, 0.1, 0.1, 0.1, 0.1, 0.1, 0.1, 0.1, 0.1, 0.1, 0.1, 0.1, 0.1, 0.1, 0.1, 0.1, 0.1, 0.1, 0.1, 0.1, 0.1, 0.1, 0.1, 0.1, 0.1, 0.1, 0.1, 0.1, 0.1, 0.1, 0.1, 0.1, 0.1, 0.1, 0.1, 0.1, 0.1, 0.1, 0.1, 0.1, 0.1, 0.1, 0.1, 0.1, 0.1, 0.1, 0.1, 0.1, 0.1, 0.1, 0.1, 0.1, 0.1, 0.1, 0.1, 0.1, 0.1, 0.1, 0.1, 0.1, 0.1, 0.1, 0.1, 0.1, 0.1, 0.1, 0.1, 0.1, 0.1, 0.1, 0.1, 0.1, 0.1, 0.1, 0.1, 8.920606601248884e-05, 0.1, 0.1, 0.1, 0.1, 0.1, 0.1, 0.1, 0.1, 0.1, 0.1, 0.1, 0.1, 0.1, 0.23519470977222626, 0.1, 0.1, 0.1, 0.1, 0.1, 0.1, 0.1, 0.1, 0.1 ;
}
probability ( vdis ) {
    table 0.4373522458628842, 0.1773049645390071, 0.02127659574468085, 0.2860520094562648, 0.07801418439716312 ;
}
